[
    {
        "Score_Train": [
            0.907073260884811,
            0.9347102645253347,
            0.9483889063921546,
            0.9545360941800258
        ],
        "Score_Val": [
            0.8918608821782681,
            0.9218606924494633,
            0.9297329356701548,
            0.9348739091186526
        ],
        "Wl2_Train": [
            0.05793905250597259,
            0.04662935679305534,
            0.04142430074537917,
            0.038218413322549556
        ],
        "Wl2_Val": [
            0.06337827703158928,
            0.05355837663256624,
            0.05148470777713691,
            0.04931576181322063
        ]
    },
    {
        "Score_Train": [
            0.9158842515492291,
            0.941770550413819,
            0.9524978989315436,
            0.9592395864436819
        ],
        "Score_Val": [
            0.8358040380613598,
            0.8698299379961285,
            0.879481423790039,
            0.8877910980748425
        ],
        "Wl2_Train": [
            0.056114051195322326,
            0.04549426744779326,
            0.039076538811875894,
            0.03605202012039099
        ],
        "Wl2_Val": [
            0.08486490456430287,
            0.07535094107428035,
            0.07308343366357059,
            0.07019532803473899
        ]
    },
    {
        "Score_Train": [
            0.8929672047610331,
            0.9231405292563507,
            0.9368463266108091,
            0.9447168235775728
        ],
        "Score_Val": [
            0.88826991561677,
            0.8953752282898878,
            0.9203663064040621,
            0.9178289848976261
        ],
        "Wl2_Train": [
            0.0630939912919576,
            0.05224082458822269,
            0.04620132714716131,
            0.04243944196535579
        ],
        "Wl2_Val": [
            0.06922446292347889,
            0.07165758315192446,
            0.06243653494134354,
            0.06393020086739412
        ]
    },
    {
        "NN_PROPERTIES": {
            "alpha": 0.001931666535492889,
            "batch_size": 77,
            "epochs_per_training_set": 2,
            "epsilon": 0.02872678693613251,
            "hidden_layer_sizes": [
                75
            ],
            "learning_rate_init": 0.06651629336077657,
            "loss": "wasserstein_loss",
            "training_sets": 2
        },
        "Score_Test": [
            0.9048146818574226,
            0.9266368999525786,
            0.9406733005283009,
            0.949216484305167
        ],
        "Score_Train": [
            0.9206207513622181,
            0.9405201768608209,
            0.9495001877351892,
            0.9570297898224956
        ],
        "Wl2_Test": [
            0.056867611983412315,
            0.0490840708187062,
            0.044177800452891824,
            0.040952937269369716
        ],
        "Wl2_Train": [
            0.05266480407428849,
            0.04454048112837721,
            0.040128821392880445,
            0.036889899644834995
        ],
        "__getstate__": {
            "_no_improvement_count": 0,
            "activation": "relu",
            "alpha": 0.001931666535492889,
            "batch_size": 77,
            "beta_1": 0.9,
            "beta_2": 0.999,
            "coefs_": [
                {
                    "Corder": true,
                    "__ndarray__": [
                        [
                            0.043822283168754014,
                            -0.042463063718147724,
                            0.013143570786724927,
                            -0.21576776482885057,
                            0.34653826847683333,
                            -0.04116355482841311,
                            0.17381488203618276,
                            0.012250309127664102,
                            0.11405508702025914,
                            -0.08078752202487582,
                            -0.1373960108482225,
                            -0.20743419537871205,
                            -0.11615106722619781,
                            0.354235782879078,
                            0.18197390055060622,
                            -0.025372755631020517,
                            0.12917321812904425,
                            -0.034447199552514456,
                            -0.07787819037458805,
                            -0.03538806579201211,
                            -0.021779668342449276,
                            0.016843527044533773,
                            -0.16495284920031947,
                            0.03215390622307313,
                            0.1547916432283615,
                            -0.10391288784654946,
                            -0.019331008185652997,
                            0.1893675628386206,
                            -0.09225212053733219,
                            -0.06089148789206846,
                            -0.17594240456164512,
                            0.13988870470110448,
                            -0.1797536292133404,
                            -0.09534740543130761,
                            -0.14306813623791922,
                            -0.10178793188725227,
                            0.04867646099596116,
                            -0.2234548990964955,
                            -0.006730221267796411,
                            0.045783376609380935,
                            0.2927329699849769,
                            -0.13256591975352086,
                            0.08463442637171525,
                            -0.10287347116188936,
                            -0.10227768393777927,
                            0.06962853740737479,
                            0.14955196582279462,
                            -0.023111174808325044,
                            -0.225825226420742,
                            -0.10813504743605813,
                            -0.06349372773422697,
                            -0.12994252821088068,
                            -0.002491551437444261,
                            -0.29767025593833296,
                            -0.11583749746285678,
                            -0.17062484436904807,
                            -0.17555423335628756,
                            -0.2643961726328132,
                            0.16719958974468377,
                            -0.040295556349598874,
                            -0.03803500257641455,
                            0.23540046102413373,
                            -0.2042540834899659,
                            0.18553442196491338,
                            0.16144423348323012,
                            -0.1770763651096548,
                            0.16109697159006395,
                            -0.22978151598561217,
                            0.28019695280097334,
                            -0.13362886989650005,
                            -0.03744375844487178,
                            -0.028846943365073274,
                            -0.08165324697808762,
                            -0.13265390985124342,
                            0.10375569197262441
                        ],
                        [
                            0.3691116388245036,
                            -0.21966551150357355,
                            0.22732712419142867,
                            -0.0053438105619891445,
                            0.2877302289930012,
                            0.1287695530441559,
                            0.044002231968603096,
                            0.06296458969445683,
                            0.17091450268805253,
                            -0.12435576469627117,
                            -0.0944503748998139,
                            -0.2061275880144885,
                            0.19220024213547474,
                            0.20396914194498636,
                            0.14819920115220886,
                            -0.0905095736159276,
                            -0.009215032590002127,
                            -0.016992364953195675,
                            0.18608920761785883,
                            -0.03211774606651677,
                            0.06673293769446835,
                            -0.17758810372734585,
                            0.22965923954966697,
                            -0.10869134429527276,
                            -0.12759957849796238,
                            -0.06267212955711743,
                            0.016874317306201297,
                            0.21815273578300884,
                            0.13166234079055186,
                            0.04407279260588347,
                            -0.10625918054419732,
                            -0.02439939179923487,
                            -0.08754538909446578,
                            -0.08214114159045911,
                            0.2000912131190088,
                            -0.03841899054756213,
                            0.24034299000519319,
                            0.04316969197530574,
                            -0.010430411249327379,
                            -0.19494573870465978,
                            0.07635424367389858,
                            0.17791990200443877,
                            0.10844887059254187,
                            -0.14716265258517897,
                            0.13691885754558808,
                            0.08564395476109585,
                            0.02062775702508563,
                            -0.035535372897482105,
                            0.07860910661805637,
                            -0.1145994431479186,
                            0.0618237871012534,
                            0.23496852767349782,
                            -0.11168595046704256,
                            0.4027481442713435,
                            -0.15606566122673696,
                            0.25103746030548346,
                            0.0651515952692404,
                            0.05781989508115064,
                            0.018464650570308373,
                            -0.17878241694491093,
                            -0.005778683864021321,
                            0.280708595877804,
                            -0.1954284068979403,
                            0.20593319977333813,
                            -0.09167901316380345,
                            0.2130978457573351,
                            0.15778532037461002,
                            0.21497420094081393,
                            0.2662384396292527,
                            -0.07664301184687326,
                            0.011165124894709985,
                            0.0040775479627955,
                            0.08448288957621561,
                            0.13238932618848148,
                            -0.23142248766686577
                        ],
                        [
                            0.020499268305071608,
                            0.22825848713526747,
                            -0.13845034698970826,
                            0.2410122704307855,
                            0.13334680978215546,
                            0.36951563905820706,
                            -0.07672374551188019,
                            -0.16929445778323768,
                            0.21119903316636812,
                            0.21904202641324722,
                            0.3755148780904145,
                            -0.06406343037839714,
                            -0.17656172765048295,
                            0.0007338075393628566,
                            0.0730161574486106,
                            0.1782106427284919,
                            -0.2254225574034191,
                            -0.11383747889884765,
                            0.09752498936023511,
                            -0.09431461139687244,
                            0.08055912842640404,
                            0.05870312570248914,
                            -0.20012002937444387,
                            -0.006629389097312235,
                            0.06813440845296259,
                            0.5084266032388938,
                            -0.14143626009925037,
                            0.20079782672519464,
                            0.0035930149120306882,
                            -0.04585506236083832,
                            -0.15950277533242394,
                            0.08007386655186027,
                            -0.03526103874084008,
                            -0.14597004409117303,
                            0.06177556560515115,
                            -0.03513786712118186,
                            -0.10064429458570348,
                            -0.08735054713104355,
                            0.03046428945608556,
                            -0.16861709119116053,
                            0.14813983006222456,
                            0.006453661734191443,
                            0.014000648954929334,
                            0.25096921694650715,
                            0.05365682820019467,
                            -0.22105130099476272,
                            0.16319794272358348,
                            0.07522330054682738,
                            -0.11699185728915447,
                            -0.08823311070901547,
                            -0.1276611951055195,
                            -0.1617619089944962,
                            0.072940995504858,
                            -0.20828951265149584,
                            -0.04255795205247449,
                            -0.08708358745986713,
                            0.28832866660693107,
                            0.051210399791850165,
                            0.026113310664810718,
                            -0.16993536969321923,
                            0.046328260086505334,
                            0.08195936046627748,
                            0.3094206976782206,
                            -0.05849447086587112,
                            -0.17399670036188206,
                            0.004338252556482107,
                            0.10000050500552818,
                            -0.12985142469303748,
                            0.0939575942817063,
                            0.37423389063164864,
                            -0.10450966594483103,
                            -0.05525448605678455,
                            -0.16625909265965325,
                            0.21815588137119576,
                            0.2540619597836473
                        ],
                        [
                            0.2479455495976872,
                            -0.02111261485164827,
                            0.04725429598063252,
                            -0.0842992042400745,
                            -0.16620061957857593,
                            0.09851504984235376,
                            -0.18205860603627058,
                            0.21566394888728285,
                            -0.0883296577920599,
                            0.22898660761042552,
                            0.14223745028655613,
                            0.1764283125965829,
                            0.29183778186786014,
                            0.040317996877457185,
                            -0.11886947458097132,
                            -0.03441761985534165,
                            0.024162217485723135,
                            -0.5146562376598844,
                            0.18424316326649298,
                            -0.4751232606187341,
                            -0.0764609363014761,
                            -0.2768607401346266,
                            -0.36366380405358456,
                            -0.019621525521775634,
                            0.05072156571231652,
                            -0.09409962327343951,
                            -0.3784772583043379,
                            -0.07509321483114458,
                            -0.07994461384656047,
                            -0.4419143329123475,
                            -0.04188125018866044,
                            -0.20988270098771106,
                            -0.24414332986069184,
                            0.054180864492018574,
                            0.0956626252825132,
                            0.04619016254191417,
                            0.16177799024095615,
                            -0.07404133582796985,
                            -0.45590458490979663,
                            -0.14993059670484912,
                            0.1354469210989449,
                            -0.16600567448313447,
                            0.08393568386863363,
                            0.0722457347955505,
                            0.05557134761322249,
                            -0.06027257012471692,
                            0.022861436522061122,
                            -0.3802795589684963,
                            -0.06650686750337433,
                            0.027655478156082058,
                            -0.6092591453376024,
                            -0.18860416059484547,
                            -0.43793363153012715,
                            0.3179367018907266,
                            -0.2804576189441057,
                            -0.1999681714252205,
                            0.17754039559237328,
                            0.0784642460919343,
                            0.09177174709213393,
                            -0.4050599883732347,
                            0.10622609813799741,
                            -0.13549850626430787,
                            -0.14566995281250275,
                            -0.15530019700195938,
                            0.19172755026965724,
                            -0.12136888642709298,
                            -0.07302627239846467,
                            -0.2146149900043682,
                            0.01586511592494006,
                            0.004482848259192114,
                            -0.008069557127239984,
                            -0.14860759012858482,
                            -0.2130571718139428,
                            -0.14966696911414923,
                            -0.03147890536765741
                        ],
                        [
                            0.028440552633993556,
                            -0.05675693626876785,
                            0.04251562439275943,
                            0.1061094395362845,
                            -0.1057144618590559,
                            0.11234442505019915,
                            -0.1496244834223486,
                            -0.2145724722994394,
                            -0.022059548255440018,
                            0.07503985522683496,
                            -0.005954121891696372,
                            -0.13915834983404046,
                            -0.04315909095166003,
                            -0.17667248639028157,
                            -0.19201687370017462,
                            -0.06922944276610127,
                            0.03842589163401002,
                            -0.014997286488236885,
                            0.1608199834594586,
                            -0.22424575782171083,
                            -0.03412065817451543,
                            0.13149944644459485,
                            -0.1959796924235953,
                            0.17918395199606113,
                            -0.18995170960920943,
                            -0.08625759845669165,
                            -0.2688459687858336,
                            0.12308561878134165,
                            0.03179525578253796,
                            0.009926045679637079,
                            0.1324544356469812,
                            -0.1733393284091293,
                            0.038790002619539014,
                            -0.22922359331810643,
                            -0.1639700127286791,
                            0.15667094127952827,
                            0.1322184944857632,
                            -0.17755283265951002,
                            -0.15567437696481298,
                            -0.07332238182359008,
                            0.13017226772697194,
                            -0.020778933157195076,
                            0.197474398319626,
                            -0.1926239518717571,
                            -0.05657242719642706,
                            -0.24028262806434122,
                            -0.09621161624973266,
                            -0.1096874317024419,
                            -0.028376972699687256,
                            0.07730911257375923,
                            -0.367716891301055,
                            -0.10584378144278944,
                            -0.022399779823518297,
                            -0.2105084887643541,
                            0.14332471842521005,
                            -0.1898192925843637,
                            0.04423052325433433,
                            -0.07774462100625189,
                            0.10698006940547809,
                            -0.20302578035354432,
                            0.007726954582078051,
                            -0.09267203800966504,
                            -0.08398789032331372,
                            0.09408780437102257,
                            0.018879158608112193,
                            0.07723397569788112,
                            0.02480316283414372,
                            0.10009226317837146,
                            0.06535395508915219,
                            -0.054143130638280655,
                            -0.038236825443198286,
                            0.10611529562743705,
                            -0.14670337147386,
                            -0.10630604077901001,
                            0.03193308019765654
                        ],
                        [
                            -0.041994484220126096,
                            -0.10023928926318806,
                            0.11320689572488007,
                            0.08952058191856117,
                            0.06969794271967936,
                            -0.0432366703410618,
                            0.11157464534145967,
                            -0.01358668046521365,
                            -0.14156236120220442,
                            0.00021086811670719297,
                            -0.04622482310097354,
                            -0.11821647931304227,
                            0.022123160244550157,
                            0.26364774393631757,
                            -0.07345025348811457,
                            0.0236684277173937,
                            -0.012819345888748375,
                            0.01690124342535597,
                            0.1679750143330072,
                            0.018988455732690757,
                            -0.10815105030150664,
                            -0.17766114512202466,
                            0.035857380603849694,
                            -0.13109470504320658,
                            0.24526700356924117,
                            -0.10271093941927356,
                            0.16734129802128778,
                            -0.015495641441961463,
                            0.0444143776215636,
                            -0.10564129164955852,
                            0.08269012077308938,
                            0.17285453896216282,
                            -0.054493612420104844,
                            -0.04973374540086485,
                            0.0406221157302394,
                            0.017936863304955305,
                            -0.02050990798845009,
                            0.06979533225797138,
                            0.13119429512799152,
                            0.13595812248468234,
                            0.12474493404255671,
                            -0.07799534787946165,
                            -0.18456815360959722,
                            0.12553242450111063,
                            0.14674354841764772,
                            0.23123193101762285,
                            -0.053922226123634266,
                            0.11847770759479818,
                            0.1620216983753946,
                            0.18633631159944236,
                            -0.031086685614565256,
                            0.09646177748707288,
                            -0.013343949672816541,
                            0.134316713199503,
                            -0.119734736645134,
                            0.029626672631627007,
                            0.11354310662299398,
                            -0.10437859038749386,
                            -0.12957815832551572,
                            0.09926972695275295,
                            -0.005028594226198977,
                            0.0854591884808861,
                            -0.1785075751858176,
                            -0.08538726799280313,
                            0.06370884684354726,
                            -0.16347124246374237,
                            0.0882520598238697,
                            -0.18264382754697372,
                            -0.09747999539375914,
                            -0.02078529354516314,
                            0.11955544709679639,
                            -0.1650171935813099,
                            0.08718721467508395,
                            0.10607181016713052,
                            0.04013925506726374
                        ],
                        [
                            -0.02733428619213592,
                            0.0037507296750899227,
                            0.0022841298257418098,
                            0.12733825679143992,
                            -0.057717481178842026,
                            -0.0902052806462284,
                            -0.029015122775768346,
                            0.06428868030775506,
                            -0.10439787916187507,
                            0.11532137019682363,
                            -0.06366321886199604,
                            0.1761283730674129,
                            -0.17454518250061823,
                            0.02456237228051855,
                            0.18998500149326394,
                            -0.07122046246621075,
                            0.07970024943229759,
                            -0.15010879005772956,
                            -0.023657212114134928,
                            0.005506248772662783,
                            0.13767650842731588,
                            -0.15592928180467047,
                            0.021864553694348504,
                            -0.05357414389379438,
                            -0.02295197284742667,
                            0.05880308058241836,
                            -0.019662465352283512,
                            0.041280633881040314,
                            0.08900029992031425,
                            -0.2755928145785938,
                            0.02845338137476102,
                            -0.13759429565842496,
                            -0.0669485785160094,
                            -0.07463595303790023,
                            0.021832892898029303,
                            -0.16954613430062507,
                            -0.04411223736758317,
                            -0.14659625572395263,
                            -0.04920585791131772,
                            0.09703877079641153,
                            0.00661071706926257,
                            -0.038975458187312136,
                            0.19987145508774665,
                            0.1472355849697793,
                            -0.15423441923291278,
                            0.059324631426125145,
                            0.08324520249993377,
                            -0.09394156572272162,
                            0.04756110341787415,
                            0.21516881314086098,
                            -0.20091311866580475,
                            -0.15038432961290832,
                            0.016542566899816338,
                            -0.17645613275129524,
                            0.09925686166930618,
                            0.06397107735933064,
                            0.06545835865932663,
                            -0.0530924477313043,
                            -0.11764593553497597,
                            -0.1050660013502444,
                            0.15740808797599504,
                            0.1290498338620076,
                            0.11907173483204593,
                            -0.15390650209668097,
                            -0.004472051936002161,
                            -0.16326900928884874,
                            -0.06712679941888293,
                            0.1494129512039554,
                            -0.05829486390663068,
                            0.14249812815457363,
                            0.2232847280265221,
                            -0.12662487539903058,
                            0.06375081848475639,
                            0.19391306511243678,
                            0.11804597303512362
                        ],
                        [
                            0.0497354999846126,
                            0.06148558843555923,
                            -0.22520880838916088,
                            -0.15269595249782902,
                            -0.07646445805255053,
                            0.050656577669388886,
                            0.14464686165161147,
                            -0.016637636654007942,
                            -0.03262320127523078,
                            -0.05322187015146161,
                            -0.07895146554451214,
                            0.19405685882773588,
                            -0.25228812775679293,
                            -0.0031013223612579048,
                            -0.08369096794005887,
                            0.09779489406600515,
                            0.1109466575233768,
                            0.09377255185934227,
                            0.14276366892935996,
                            -0.16137553575186755,
                            0.16262455374507892,
                            0.19010665840332172,
                            -0.05830499770940385,
                            0.10614318287978335,
                            -0.0003744930614343773,
                            0.15030526121677615,
                            0.04601027357434726,
                            -0.15351649821991364,
                            0.1188886500519175,
                            -0.2013055317921048,
                            -0.200490647201964,
                            -0.23114265551180568,
                            0.04325665577706317,
                            0.0039018228022249433,
                            0.14476653794781533,
                            -0.007174298930795866,
                            -0.04707855625383067,
                            0.0444708383381434,
                            0.01935646942067121,
                            -0.05361339811039533,
                            0.04359882019392293,
                            0.1393142375755337,
                            -0.05533435081700425,
                            0.07899243168849523,
                            0.1975610688594914,
                            -0.18789094966757275,
                            0.18880607108163622,
                            0.15722160662415782,
                            -0.15942477612088451,
                            0.1364503717987066,
                            -0.07214988804203959,
                            -0.014135535553741342,
                            0.1813734237784295,
                            -0.026157390975146376,
                            0.09218210854568887,
                            -0.15628711689207897,
                            -0.05395554783153235,
                            -0.12326847588426618,
                            -0.060576908117550086,
                            -0.10775564468982249,
                            0.03946506198287476,
                            0.09788061573453698,
                            -0.11072901072065233,
                            -0.20735055563504565,
                            0.20567246915528026,
                            0.11383512342848788,
                            0.19703174149453515,
                            -0.12911089489469363,
                            -0.07055359371472439,
                            0.1837097216115278,
                            0.16397778941353636,
                            0.1277507823613856,
                            -0.10948380314472969,
                            -0.12113717268568217,
                            -0.08504737869773372
                        ],
                        [
                            -0.07496832595070584,
                            -0.0452872838449757,
                            0.008441403019859779,
                            0.003549090877273152,
                            -0.12142912741231202,
                            -0.2014165188724667,
                            -0.0020572229004064244,
                            -0.1784941542358989,
                            0.054636218343945796,
                            -0.006061146328726647,
                            -0.1222032363268922,
                            -0.08205308548196125,
                            0.11808477106252958,
                            -0.05632200884129498,
                            -0.025163668758371654,
                            -0.1959902152141252,
                            0.08767566184785679,
                            -0.16693938258960883,
                            0.13790836086304223,
                            -0.06603670935089599,
                            0.15950755939697445,
                            0.11412628566798977,
                            -0.0041123751701242885,
                            -0.15670943576172444,
                            -0.07772300210520763,
                            0.14629292835659904,
                            -0.16967039089370464,
                            0.17751162704598442,
                            -0.20428854341845445,
                            -0.16591390461022773,
                            -0.05602535511038039,
                            0.06771597812072798,
                            0.14798389922048988,
                            0.033824365500119725,
                            0.07657177129705964,
                            -0.19050356994670342,
                            -0.15362972557196472,
                            0.03754674392892554,
                            0.10046621855952233,
                            0.12936054223457566,
                            -0.09070973899636445,
                            0.053112444545528416,
                            -0.09434847205535604,
                            -0.10479147564014052,
                            -0.07967971051892084,
                            0.17275065888591115,
                            -5.67620686850547e-05,
                            0.022575531530758294,
                            -0.001853409691049542,
                            -0.01886312484913454,
                            0.12393093751721186,
                            0.02608163156107549,
                            -0.17046072729380973,
                            0.11355477613421149,
                            -0.13754155639981974,
                            -0.12849438927772117,
                            -0.1807944899816898,
                            0.15690405657507678,
                            0.009232403129858471,
                            -0.051083444810778894,
                            0.07991699186848557,
                            -0.0163378796042737,
                            0.12680173502337683,
                            0.1047970556898839,
                            -0.10893326184069571,
                            0.05222512525607095,
                            -0.032507983141559484,
                            -0.1330557310066347,
                            -0.1580338752061509,
                            -0.026929171024802367,
                            -0.17069338526846084,
                            -0.11259647457682126,
                            0.04800968220185208,
                            0.1380849937616969,
                            -0.1085158279067135
                        ],
                        [
                            -0.1554466847829083,
                            -0.1460687004479424,
                            0.158563870159881,
                            0.05573413873579537,
                            0.08895545430343112,
                            0.0895390067254431,
                            0.11034320599441859,
                            0.16669213052537746,
                            -0.12090448851109334,
                            0.10802799636682109,
                            0.18241723693417153,
                            0.008680857472678542,
                            -0.027197666590686075,
                            0.23383024755008727,
                            -0.16617821709994368,
                            0.03139987671026416,
                            -0.04355384289824904,
                            0.18277227896396,
                            0.015114016406429146,
                            -0.14852515204893277,
                            -0.10089600282377352,
                            -0.15496232840442956,
                            -0.06946891658998988,
                            -0.03762228476570335,
                            -0.15761127449821133,
                            -0.07422415021536848,
                            0.015622383019533607,
                            0.1680990662079614,
                            0.08975768351936393,
                            0.15074519767209335,
                            -0.18818776138692986,
                            -0.013299235560905261,
                            0.07827396502611163,
                            -0.21137016396621558,
                            -0.047348456922211186,
                            -0.027970850641169335,
                            0.11361620084630694,
                            0.022584990566100714,
                            -0.10299687226607517,
                            -0.050354091772695606,
                            0.17678219513899476,
                            0.07344823520958091,
                            0.18077000911730529,
                            0.00273813354929287,
                            0.10449920753755929,
                            -0.09298236749881139,
                            0.1961266874516912,
                            -0.1684541362855584,
                            0.04944471641353393,
                            0.0489287709434545,
                            0.09678591536502656,
                            0.011850448889978073,
                            0.18844748853227405,
                            0.02631597947488931,
                            0.16636592713055742,
                            0.12035647555846771,
                            -0.05158737463474798,
                            -0.09790795934796431,
                            0.17368357619839409,
                            0.1020052813078048,
                            0.04417985638859016,
                            -0.07992509544111788,
                            -0.003287933294273901,
                            0.07639660207914464,
                            0.15448703658436996,
                            0.0295306986102999,
                            0.19156854274096888,
                            -0.008760192578752673,
                            0.10262333949550163,
                            -0.09945803240343289,
                            0.09432824296321615,
                            -0.07049431121114523,
                            -0.06891467544459173,
                            0.13504641925146746,
                            0.1817728136614856
                        ],
                        [
                            -0.004765769145525316,
                            -0.057891915903404235,
                            0.11618829019077473,
                            0.07888938485366453,
                            0.06561737406043264,
                            0.027221459364136665,
                            -0.11305773097011908,
                            0.07667954261271698,
                            -0.17743300867672082,
                            0.16411170593338756,
                            0.09053962266336472,
                            0.12488572853043742,
                            0.1720286422815664,
                            0.09403570123618527,
                            -0.11442574922122911,
                            0.05757562441265219,
                            0.10477067446038534,
                            0.1049199936357647,
                            0.10576747735956261,
                            0.07595401188719032,
                            -0.05535702783494269,
                            -0.11912787974203891,
                            0.06538155117869378,
                            -0.09966213470514294,
                            0.16130055366783455,
                            -0.11070996167189827,
                            -0.06583242891270047,
                            0.1600805497428823,
                            -0.15960026234745472,
                            -0.0501054957359651,
                            -0.016515388419338115,
                            0.03367273328221801,
                            -0.13004000411831568,
                            -0.18803712518735177,
                            -0.04726333285477009,
                            0.07364999177853836,
                            0.026171746544345845,
                            0.08893519606052662,
                            0.11849731800843383,
                            0.19002405589507285,
                            -0.11030905493817234,
                            -0.1477968984945659,
                            -0.1024057646338057,
                            0.06727096310771398,
                            -0.10645499611678647,
                            0.1041149992880893,
                            -0.13049846189213646,
                            0.057881030993071084,
                            0.10451278343939578,
                            0.13110969024539232,
                            -0.05790391285947249,
                            0.08203608451866717,
                            0.12891999116883737,
                            0.006570605832532183,
                            0.01969909531351607,
                            0.06038044996691022,
                            -0.11912433890732646,
                            0.03305566620063874,
                            0.06127033870475341,
                            -0.025895171613005606,
                            -0.055883475683130374,
                            -0.10313145347719083,
                            0.020937126119954595,
                            -0.09381121635670685,
                            -0.1471139793320385,
                            0.02803929289115116,
                            -0.11807764650967052,
                            0.00811496403200868,
                            0.02435178489522762,
                            -0.1218136928461677,
                            -0.14430718223039285,
                            -0.18399170793710684,
                            -0.12226207379567147,
                            -0.19389946929035048,
                            -0.07441873921634948
                        ],
                        [
                            -0.09590151113901182,
                            -0.08385274749145485,
                            -0.05449152880968783,
                            0.03498425242275742,
                            -0.025550604439643444,
                            -0.19397037490035351,
                            0.14644189262315271,
                            -0.0350006250147378,
                            0.1360761929171945,
                            0.11790517147894188,
                            0.10261357791281175,
                            -0.2139608432188592,
                            -0.10255616687111906,
                            0.014156422876320926,
                            -0.058822890274864335,
                            -0.022984620713743492,
                            0.16502847449863897,
                            -0.046976322416015494,
                            -0.12598948840589697,
                            0.1570095917988556,
                            0.01995531897532681,
                            -0.009285024192330066,
                            -0.07402865354555489,
                            0.14784883663274584,
                            0.1479341440377814,
                            -0.0845437503848349,
                            0.05432185839491479,
                            0.15172566489654382,
                            0.1297246000408956,
                            0.11729307389703172,
                            0.04501636258770954,
                            -0.00029362485939522635,
                            -0.0039648145547102704,
                            -0.04351257298641817,
                            0.14191663917580438,
                            -0.15375764231088707,
                            0.08080133211366465,
                            -0.022907195030677854,
                            0.16720898259826172,
                            -0.03752442408012108,
                            -0.09866646696756101,
                            -0.1741221615215072,
                            0.05088036621218296,
                            -0.10094630569741304,
                            -0.1296523989908619,
                            0.2188306678097353,
                            -0.0918032752444536,
                            0.14810621605427252,
                            -0.00865689749976614,
                            0.06296970070469632,
                            0.19395549782564045,
                            0.013151536679140981,
                            -0.16410797877076788,
                            -0.0758931753583646,
                            0.07501783417655764,
                            0.05453597461607937,
                            -0.20073647022913443,
                            -0.1065531080675273,
                            0.19003938133717535,
                            0.07226287795748157,
                            0.13678618489870187,
                            0.13313553558606947,
                            0.1378576929327454,
                            -0.044548131463029245,
                            -0.18410226420572068,
                            0.013402603778486427,
                            0.09231214565966088,
                            -0.17293724645209907,
                            0.09021619916381111,
                            0.1375362167377178,
                            0.11824359972187003,
                            0.15578992012570234,
                            0.1959599789391833,
                            -0.04873392583586121,
                            -0.010197638122601419
                        ],
                        [
                            -0.06701357622023028,
                            -0.002178465695591115,
                            -0.08225464030150996,
                            -0.01325225650455819,
                            -0.030386428530767555,
                            0.1140599302840926,
                            -0.09313551954237927,
                            0.033529099130005235,
                            0.0314724489128096,
                            -0.12976933111907868,
                            0.13696974805066883,
                            -0.07158988991470881,
                            -0.08019523854041152,
                            -0.18744966047672876,
                            0.09485705966646964,
                            -0.10212286195125955,
                            0.11216708069733894,
                            0.14364213307953716,
                            -0.10917634933904025,
                            0.1653829516546221,
                            0.06799935755632283,
                            -0.04055593119394329,
                            0.10622418516512153,
                            -0.0067328479776622265,
                            0.12022956321325579,
                            -0.17885042076734725,
                            0.1273328431775591,
                            -0.14015937533383954,
                            0.13758708002821812,
                            0.04347894597459018,
                            -0.11132180760881277,
                            -0.06287504681045977,
                            0.18545655191058769,
                            -0.08769208115481741,
                            0.05024718776532841,
                            -0.17751626600044174,
                            0.08248919519218362,
                            -0.025852225783655498,
                            -0.06275489625908547,
                            0.03250336132847335,
                            -0.1698287375598402,
                            0.10708653191308216,
                            0.14253334029072334,
                            -0.0820069099709689,
                            -0.01845440604619703,
                            -0.005455616666923375,
                            0.09309855257866159,
                            0.013609346355937628,
                            -0.20634085605338495,
                            0.06453865451503724,
                            -0.0653504140182023,
                            0.15388681350130726,
                            -0.14940865952017493,
                            0.041431800062455025,
                            0.11556062339127658,
                            -0.04055394710659648,
                            0.12210139234464647,
                            -0.11020141580243298,
                            -0.07554600104731193,
                            0.12909391067632003,
                            -0.07147592921090563,
                            0.03907546370215515,
                            0.16129051382747708,
                            -0.0831925218590089,
                            -0.19776331480432985,
                            -0.16907526006722162,
                            0.13072069089537444,
                            0.06393992611991975,
                            0.08999738647773381,
                            0.07348447002465068,
                            -0.10291988380103025,
                            -0.06858324500573529,
                            0.08639134097786182,
                            0.0414045949376638,
                            -0.08365892167650661
                        ],
                        [
                            -0.10987242081286437,
                            0.02058898570915545,
                            0.05227254749891572,
                            -0.04737156405097432,
                            -0.07977905832317037,
                            0.1436210515436884,
                            0.1913510656385517,
                            -0.082838161049304,
                            0.1460241557180092,
                            -0.07450775207829807,
                            0.08258146361794026,
                            0.07700122670769187,
                            0.06078176622037883,
                            -0.030559785347686656,
                            -0.015266119492702563,
                            -0.0022528952320968925,
                            0.058352569303083024,
                            -0.05769365308912115,
                            0.1739560813915665,
                            -0.0063867655528515015,
                            0.020083477221757472,
                            0.055326681666454484,
                            -0.05784980975689669,
                            0.06595540198500316,
                            -0.07620848038362563,
                            0.006046456079996033,
                            0.19459974864263674,
                            0.16453699089616264,
                            0.19358837543849652,
                            0.2039445511253728,
                            0.1765618749189031,
                            0.14639780445941272,
                            0.0634392178866032,
                            -0.12476808408955997,
                            0.1491726072533676,
                            0.14191662677299033,
                            -0.13398949656628362,
                            0.20262359227844517,
                            0.11816564927132703,
                            0.10991669059061177,
                            -0.07778076270518494,
                            0.029723700025043303,
                            0.14519673764640503,
                            0.04812987354232016,
                            0.11720240418410266,
                            0.17729840823497223,
                            0.08561741093865229,
                            0.1993296707128573,
                            0.11682176304985585,
                            0.04612388403563411,
                            0.12765257163027835,
                            -0.10111140554352392,
                            -0.11309773589690439,
                            -0.06361941300281927,
                            -0.053414401478043466,
                            -0.0863174047670756,
                            -0.12617673013462072,
                            0.015202640812449859,
                            0.18367923692027244,
                            -0.11755774429862864,
                            -0.14019573202351998,
                            0.04665880367202884,
                            0.09580220419940404,
                            0.1930329423041707,
                            0.1751443835534461,
                            -0.11732028442495378,
                            -0.17831323329818238,
                            0.09189896153188633,
                            0.037375199573560704,
                            0.20006063502353352,
                            0.12246618084485082,
                            -0.06194228733014122,
                            0.1956906944370705,
                            0.20851839058445573,
                            0.04007292660418821
                        ],
                        [
                            0.059763789405285435,
                            -0.0017710761079406177,
                            0.1453213841986708,
                            0.006667742316176857,
                            -0.14151369812058084,
                            0.1456795067159017,
                            0.007596223966437647,
                            0.06103704230747167,
                            -0.00267566641122965,
                            0.07952790996211297,
                            -0.17186062115179865,
                            -0.01991174482785895,
                            -0.10636110532594278,
                            -0.19700808315975796,
                            0.11141107135506693,
                            -0.1854801747958373,
                            -0.09214390440862992,
                            -0.1938013123921875,
                            0.13180676643553824,
                            -0.04999915833660806,
                            0.03503008040747456,
                            -0.10713805875259856,
                            0.21696744386124736,
                            -0.15311464960893656,
                            -0.15687656811388898,
                            -0.06001859042048657,
                            0.03541000379409206,
                            -0.19397606423523467,
                            -0.04188523212776955,
                            0.10063654721877491,
                            0.04849076257786773,
                            -0.0015436552620415648,
                            0.1288318712374081,
                            0.20516363199366275,
                            0.011626169636590983,
                            -0.0006870867138164996,
                            0.13300129063185992,
                            0.14163427361878517,
                            -0.15334047347411897,
                            -0.017040096887024028,
                            -0.09978879453141633,
                            -0.12727222236539168,
                            -0.03683367192897517,
                            -0.20225460024615324,
                            -0.16045642194844295,
                            -0.07016217522428435,
                            0.1385553936572372,
                            0.177659646057803,
                            0.20643642711089286,
                            0.11726192518810923,
                            -0.09990956852761734,
                            -0.1250437915535446,
                            0.049889030177101716,
                            0.09759988032032181,
                            0.0667902105999342,
                            0.1656772599079869,
                            0.02198848885786883,
                            0.19301627794817552,
                            0.1878753035138475,
                            0.10579394816156808,
                            0.10467428480771454,
                            -0.07930938310767441,
                            -0.127821240798584,
                            0.17032988416266115,
                            0.009727061084180456,
                            0.13846563799944578,
                            -0.053263454028181174,
                            0.11408827590418212,
                            0.08597642697184169,
                            -0.09233650427710392,
                            -0.013672047828352069,
                            0.1787978091739287,
                            0.05350232151624779,
                            -0.1381773499030843,
                            -0.06771411981398227
                        ],
                        [
                            -0.12071568053257738,
                            0.07933913002730215,
                            -0.03781840520938218,
                            0.038724389874404345,
                            -0.013124579777052493,
                            -0.01755042737152457,
                            0.13599038370093233,
                            -0.15887365441111662,
                            -0.05565599940695871,
                            -0.09037710171078506,
                            -0.14865594435279414,
                            0.15403293866253265,
                            -0.004843357331805277,
                            0.15636049288112197,
                            0.12370573825923838,
                            -0.05108383356018483,
                            0.07907932427362199,
                            0.10248530699256014,
                            0.034249626404416665,
                            0.05291064934905197,
                            0.10488583649729062,
                            0.006308780697524533,
                            0.006385848787339508,
                            -0.1053512753696667,
                            -0.1271761380964495,
                            0.06344739838702705,
                            0.2001493748932554,
                            0.028141296630638826,
                            0.0929401670563048,
                            0.08876332208300294,
                            0.12255340732253503,
                            -0.04004428793232489,
                            -0.05262907780284512,
                            -0.20481269323091517,
                            0.1117029690675471,
                            0.16266557129935522,
                            -0.04166790762300373,
                            0.16980765031883777,
                            0.12121431076261427,
                            0.18554180066257128,
                            -0.06791449329083253,
                            -0.08215838164606787,
                            -0.07576306557506365,
                            -0.09090816464141538,
                            0.10253038387549017,
                            -0.13005382236343782,
                            0.03095220691470633,
                            0.07328746723905094,
                            0.022941159908735163,
                            -0.003962175508062434,
                            0.09606801677619398,
                            0.0372269689051218,
                            -0.08385806077573509,
                            -0.11991005573904863,
                            -0.034623078953366644,
                            -0.16958464664393694,
                            0.03638634632669555,
                            -0.15992011958588503,
                            0.16741060174599226,
                            0.05134106781671217,
                            0.025749986402929054,
                            -0.024876430741172222,
                            -0.20253954858108103,
                            -0.07495702686323115,
                            -0.11851900587776541,
                            -0.05190398706149738,
                            0.012035721074252853,
                            0.005782182342956253,
                            0.026922044952288587,
                            -0.08989955040384175,
                            -0.08739906856774098,
                            -0.09797780113536222,
                            0.0896338284765704,
                            -0.1646164701360441,
                            0.10905671681991622
                        ],
                        [
                            -0.036258012460949646,
                            -0.0037908388994441354,
                            0.16652356248908548,
                            0.12160335543735576,
                            -0.1959444719920679,
                            0.12902310677188214,
                            0.10919373610194873,
                            -0.10345188019545937,
                            0.12637604054656892,
                            0.1209931312734408,
                            -0.013760863307516512,
                            -0.0865886776993004,
                            -0.042892015342860655,
                            0.08738513022123054,
                            0.10894767557803917,
                            -0.05662743575585524,
                            -0.03771404372039477,
                            -0.06931467914966644,
                            -0.13989151570430133,
                            0.0012247050834714934,
                            -0.08039577822237952,
                            0.01114739289614475,
                            -0.030151071283796658,
                            -0.11622985533261561,
                            -0.14537604950415423,
                            -0.0013888801100071435,
                            0.15305990530781052,
                            0.0887396585814558,
                            -0.14092189569308178,
                            -0.0503715680210944,
                            0.16574442822674545,
                            0.015196504474265769,
                            0.18885094801506888,
                            -0.1393205232870806,
                            0.055532447962842006,
                            0.11356776668131963,
                            -0.13290566496364983,
                            0.03200370743495484,
                            0.03233480724695699,
                            -0.023255217041831977,
                            0.06962727738443039,
                            -0.002203214875779201,
                            -0.06699980880226422,
                            -0.10424818228449227,
                            0.18335022050579022,
                            0.16714187837651495,
                            -0.1908962300835201,
                            -0.08134319366560427,
                            -0.08873976624344466,
                            -0.12791677429206502,
                            0.037165063946747116,
                            0.08325932028677739,
                            -0.08577078689418317,
                            0.11894972494603477,
                            0.05068443209426569,
                            -0.1527788209760346,
                            -0.10038282496978594,
                            0.053959436992521495,
                            -0.044675421662288474,
                            -0.1524088662742698,
                            0.17375708637104978,
                            -0.03201447054300673,
                            -0.1502789864919374,
                            -0.06765640276733251,
                            0.0014968340738647893,
                            0.031110479053114863,
                            -0.03822990861003969,
                            0.19975537905001411,
                            -0.19312651916638301,
                            -0.1896054930054882,
                            -0.1527463545206647,
                            -0.060044209184506675,
                            0.02287376391763097,
                            0.14564581929399614,
                            0.049410331321654996
                        ],
                        [
                            -0.026212467319436435,
                            0.0069218979136188175,
                            0.1570814915831366,
                            -0.04558655810699834,
                            0.0018043589337095778,
                            0.18405321282996118,
                            -0.18539871756114212,
                            -0.033480188326481045,
                            0.10957684742371909,
                            0.17030792020265903,
                            -0.12298462363744934,
                            0.14793679687463418,
                            -0.14911834176584438,
                            0.08673267255309078,
                            -0.14901255883956818,
                            -0.12158424723215906,
                            -0.11959684555263474,
                            0.06963215133997089,
                            0.18140313808007338,
                            -0.15178866177525488,
                            -0.05241498300387181,
                            0.09715919437927246,
                            -0.02504519733113384,
                            0.18459028156647814,
                            -0.04966112386218968,
                            -0.19122250389644213,
                            -0.04554996262462081,
                            0.0316014666636843,
                            0.06067338573363804,
                            0.17322630518586077,
                            0.10971082889314074,
                            0.07240989689848853,
                            -0.055659832668741006,
                            0.13496361048384148,
                            0.020125515761414192,
                            0.05876603560811096,
                            0.16222475249742183,
                            0.010285807340588803,
                            0.1600430816675616,
                            -0.0016496509053464921,
                            0.06493746464289325,
                            0.150101842058295,
                            0.0740135155210439,
                            0.11133198379130896,
                            0.06403915415083347,
                            0.03234312651214959,
                            -0.1040002020782559,
                            0.040736255026657606,
                            -0.013130643446433613,
                            -0.0034106474368761877,
                            0.08007707233237703,
                            0.20626375591290586,
                            0.14728757246522856,
                            -0.1309064485620583,
                            -0.1065586860614754,
                            -0.07704569540107678,
                            -0.14853361500385148,
                            0.08479020617599405,
                            0.18553156862201997,
                            -0.00621656473113791,
                            -0.03757085811425548,
                            0.1562646473942653,
                            -0.081779564303089,
                            -0.023235359624290592,
                            -0.033888013189679204,
                            -0.13463134285720785,
                            0.1435833098747179,
                            0.08689005380127371,
                            0.051727507377496686,
                            -0.054312866923557815,
                            -0.1492818934486394,
                            -0.10876136819197685,
                            0.08903976809199858,
                            0.16574007498879179,
                            0.024580695035706243
                        ],
                        [
                            -0.16980129285839235,
                            0.09273819924842916,
                            0.01796355449470754,
                            0.167714011808964,
                            -0.012286746973257604,
                            -0.1719003995725681,
                            -0.09870679524670681,
                            0.17974676824825286,
                            0.04096286336380314,
                            -0.05689644817293575,
                            -0.19144719226568527,
                            0.17616076303566552,
                            0.10344817333800223,
                            0.18918381458215772,
                            0.12209913126990822,
                            0.11585901587114392,
                            -0.09515627370763673,
                            -0.12211867197319022,
                            0.06547923486853628,
                            0.10793518427847934,
                            -0.10817512946199691,
                            -0.07371306741784765,
                            -0.10529236642640978,
                            -0.019210788543735133,
                            -0.092208874351552,
                            0.17959926401226867,
                            -0.059524839227115295,
                            -0.1649755614236797,
                            -0.01365062474293253,
                            0.06812505718759204,
                            0.045453633472186845,
                            -0.15879972161290892,
                            0.1594660063948321,
                            0.14614424509888352,
                            0.10326546136754561,
                            0.08361115594891329,
                            -0.06468238283831526,
                            -0.1202069966998847,
                            0.1541068707514122,
                            0.15766249361988804,
                            -0.19740831123480407,
                            0.1736089057235297,
                            0.1386637424385704,
                            0.12061397894259916,
                            0.12349249193879391,
                            0.1976391470165934,
                            0.16652173992996938,
                            0.0466417071357067,
                            0.12634185112269689,
                            -0.11067311366107778,
                            -0.19250338604705816,
                            0.14253013632374206,
                            -0.1175535069892969,
                            0.11044106860247756,
                            0.10012003656292683,
                            -0.05060195120317452,
                            0.1755866535354755,
                            -0.17044051688574463,
                            -0.02130819995329816,
                            0.15300095669281102,
                            0.046293037449528396,
                            -0.021453551145911708,
                            -0.1518026408138945,
                            0.20055658429242565,
                            0.14092792788812825,
                            0.1642801429277305,
                            -0.07339615854134798,
                            0.16398465682862712,
                            0.04492154686998906,
                            -0.13148121479610567,
                            -0.04318346087314554,
                            -0.007026785241271883,
                            0.04255196260490876,
                            0.049839353073659755,
                            -0.0435295253443847
                        ],
                        [
                            -0.12395786762688855,
                            0.10049513388289504,
                            -0.08823057675123902,
                            0.03197512057632244,
                            -0.1372466649091172,
                            -0.05109829061198578,
                            -0.02488513212488746,
                            -0.14382595500531858,
                            -0.15853173039848695,
                            0.011731694350645822,
                            0.06096483748298809,
                            -0.1424129536339421,
                            -0.031207842209303786,
                            -0.11069125106947196,
                            -0.011493956083530339,
                            0.17792049771260832,
                            -0.11363990571007397,
                            0.1526771717045769,
                            0.08174152147228926,
                            0.20116740768804603,
                            0.127060435884017,
                            -0.018938201046547514,
                            0.012943623373846797,
                            -0.023240494809562542,
                            -0.16250875940609302,
                            0.14246545826416898,
                            0.08442407108316714,
                            -0.04014342133720325,
                            0.16801535912992044,
                            -0.1161125241066827,
                            0.15093181775788936,
                            -0.15755024356868716,
                            0.14923344240830333,
                            0.10561415913989528,
                            -0.11149122473012933,
                            -0.17176963149941457,
                            0.08150654310085692,
                            -0.14760209008333267,
                            -0.19213080511777117,
                            0.03632025905646624,
                            0.13492088312025655,
                            -0.1031218872447416,
                            -0.12857696189633294,
                            0.19576370860773912,
                            -0.15139231353565025,
                            -0.13503105996688433,
                            -0.08559350627709765,
                            -0.022275349593220632,
                            -0.18502021554002865,
                            -0.12994242790154856,
                            -0.11982584170965037,
                            0.03814712099370754,
                            0.101142469946252,
                            0.14141747818782135,
                            -0.1386054492974435,
                            -0.1013099137297322,
                            -0.052174698307365375,
                            0.014449233547416942,
                            0.1742260181924178,
                            -0.038558091031743034,
                            -0.17163123167845312,
                            -0.07764990242766817,
                            -0.11525512520665114,
                            0.14094865576419768,
                            -0.12401401357809391,
                            0.015087842625223785,
                            0.18897802160343444,
                            -0.07215069812743113,
                            -0.04863344598379092,
                            -0.1734059914497036,
                            -0.13930804015311446,
                            -0.036632781626839354,
                            -0.06886973743870711,
                            -0.029762369143110402,
                            0.02365963336173754
                        ],
                        [
                            0.035098316975405885,
                            -0.015911462763272537,
                            0.0307694220929234,
                            0.10929703713346176,
                            -0.12292992977791778,
                            0.16141569069166917,
                            0.1576707773383029,
                            0.1829696305338778,
                            0.057007105186048755,
                            -0.06674337668021582,
                            -0.08586128774097017,
                            -0.02040093691781002,
                            0.12797703523302448,
                            0.06280061770306702,
                            0.0448525690722772,
                            0.0642429288075372,
                            -0.15132786894983902,
                            -0.10716726281449039,
                            0.10506603947346772,
                            -0.12528734671845104,
                            0.016481794949289554,
                            0.1375592199607871,
                            0.010936084305112434,
                            0.019767836078477107,
                            -0.1914155479757796,
                            -0.12725109660540898,
                            -0.1468517505862541,
                            0.014880308567658564,
                            -0.12884727804812016,
                            0.15563476640552248,
                            0.051742081905370704,
                            -0.04038943519067395,
                            0.15322017413871594,
                            -0.10506490051805838,
                            -0.014344430662688978,
                            -0.01487018542667786,
                            -0.0505086304687412,
                            0.02590987415184397,
                            0.09188856869309808,
                            0.060532527860717555,
                            -0.0016409792200283281,
                            0.04052382844422843,
                            -0.11870392998636714,
                            0.1690550640024847,
                            -0.08437784721484397,
                            -0.10057184832249408,
                            -0.11426811683688788,
                            -0.01845838804127904,
                            -0.011949143482178856,
                            -0.053324642144341204,
                            0.1775750042644591,
                            0.009021783631154164,
                            0.020733372714614978,
                            -0.06198666095694442,
                            0.17328839872155638,
                            -0.13972700945970015,
                            -0.04794656341610859,
                            0.07501787244923766,
                            0.1657287885469868,
                            0.1151771990345543,
                            0.03639235272449014,
                            -0.009386550519888267,
                            0.17662595322594069,
                            0.2233751110241492,
                            0.13932417875536687,
                            0.16876766257037923,
                            0.15199943844820887,
                            0.14780002997088407,
                            0.19339435358472645,
                            0.14543269793953012,
                            0.10663401749779329,
                            -0.1010601066163597,
                            -0.014917771529129212,
                            0.12160906840784175,
                            -0.09482946174873577
                        ],
                        [
                            -0.12004239799275826,
                            0.20158300780120322,
                            -0.02744900947490691,
                            -0.09475892790743942,
                            -0.17044219633615118,
                            0.09026526233720052,
                            -0.06988430801365285,
                            -0.09441494241431582,
                            0.08225087466227857,
                            -0.1544977656253187,
                            0.13757112620913206,
                            -0.17797524609688753,
                            0.032819066121255736,
                            0.06889975309825683,
                            -0.06358859706298449,
                            -0.1606043831880721,
                            -0.17798816303917767,
                            -0.07313321987790408,
                            0.10452945157052501,
                            0.15279507415772908,
                            0.15625349886041803,
                            0.08850437818028446,
                            0.02845865540753056,
                            0.08607941526205408,
                            -0.06589243424237802,
                            -0.09735823708702407,
                            -0.10377239831874169,
                            -0.155905333474499,
                            -0.029085267547033385,
                            -0.17047134294824012,
                            0.01180051059592061,
                            -0.04983879290844348,
                            0.103377390815904,
                            0.16229875239227234,
                            -0.16656960425684977,
                            0.10256995138774727,
                            -0.1809843741360002,
                            -0.05114508197374856,
                            0.014956409627103963,
                            0.08379494694050062,
                            -0.1207386675021124,
                            -0.020521316092261113,
                            0.013373647843940871,
                            0.11120324685670195,
                            -0.037344412551923015,
                            -0.18003373428459166,
                            0.06566215076772176,
                            0.04244634107545445,
                            0.10773469199264686,
                            0.19037529726226668,
                            -0.18066872239747905,
                            -0.0851043471568651,
                            0.17835465048447974,
                            0.11309700328699607,
                            0.005550941481959732,
                            0.08274838647444831,
                            0.09904264152900717,
                            0.11735189134189306,
                            -0.07095900348217843,
                            0.15828866438059877,
                            -0.04277785022064848,
                            0.10534856670954464,
                            0.15353154359524,
                            -0.1734717552778377,
                            -0.14736880069701067,
                            0.0463941708762979,
                            0.1673975272165671,
                            0.07717185955578,
                            -0.03067106781546806,
                            0.10349088369097169,
                            -0.07066746496077116,
                            0.09550996894130583,
                            -0.08454364499547695,
                            0.14088384294106174,
                            0.03677627568415062
                        ],
                        [
                            0.0245159528809912,
                            0.16696972061401555,
                            0.13587575024314932,
                            -0.15340074460643505,
                            0.03804988512253119,
                            -0.18482111366734427,
                            -0.06179168611290799,
                            0.0986412712199627,
                            0.1758908577295429,
                            -0.10073518354791038,
                            -0.1468557630086869,
                            -0.06794544063269882,
                            -0.17279660636749072,
                            0.17713191889132784,
                            0.019041159698127735,
                            0.02760385342283002,
                            0.024772655606754634,
                            0.014642389325199023,
                            -0.17587782974842162,
                            0.014396310621075903,
                            0.17046600075352505,
                            0.09560051735506547,
                            0.04860942739317894,
                            -0.19797606199233095,
                            -0.02821793762362658,
                            -0.17163717684985283,
                            -0.03557097443852195,
                            -0.07869283032743536,
                            0.02065585438524855,
                            -0.11721552447078348,
                            -0.09361275605592762,
                            0.10674664003319763,
                            -0.0949238211331714,
                            0.16825079923875433,
                            0.02101835843787137,
                            -0.0025536353020627514,
                            0.17716536289589765,
                            0.14607604223609794,
                            0.08976028380717581,
                            -0.17237379486511228,
                            -0.10607791676358036,
                            0.17017748121465126,
                            0.19408034437589305,
                            -0.18591049089003658,
                            -0.1798638159582325,
                            -0.02933107625836846,
                            -0.15121305225990225,
                            0.1900520825409511,
                            -0.008207809632707742,
                            0.0352346625783669,
                            0.04777875213502542,
                            -0.05546154635677567,
                            0.12763514197921058,
                            -0.026044309279203134,
                            0.04054327326382467,
                            -0.07307354372332689,
                            0.13562848384103512,
                            -0.05574406822256699,
                            -0.014428500520387744,
                            -0.19090626824595078,
                            0.11025380295929225,
                            0.0939260576997729,
                            0.1078696152683534,
                            0.1597129450906647,
                            0.1152066206021004,
                            -0.11086375885797056,
                            -0.1695497557526206,
                            -0.01774160513255377,
                            -0.1622909995149527,
                            -0.06448654972064424,
                            -0.016139119841561758,
                            0.13019665314693094,
                            0.05852835821549775,
                            -0.16921058144284348,
                            -0.014354715094024825
                        ],
                        [
                            0.09189678557840612,
                            0.12432938018857256,
                            0.14239751744644072,
                            0.1752362003774156,
                            0.06287752094625294,
                            0.16527673491497494,
                            -0.17821193286669035,
                            -0.005203484255765556,
                            0.03379898647552658,
                            0.08181847255366974,
                            0.0734127985655168,
                            -0.15472325395575454,
                            0.19079498417667093,
                            0.029777614806860937,
                            -0.1814840923245433,
                            0.07233122057492154,
                            -0.053688361614169615,
                            0.1512135817274152,
                            0.07027042858663281,
                            -0.11952576370461034,
                            -0.01650439461754793,
                            0.184367859156885,
                            -0.0666890255490805,
                            0.12386338978176764,
                            -0.11784876442036182,
                            0.003742392840345087,
                            0.02980710421752306,
                            0.10396141931910176,
                            0.026748355113183,
                            -0.051782078263080095,
                            -0.02990591966266248,
                            -0.11467446513416274,
                            -0.13144660485587004,
                            -0.021028438182102586,
                            -0.13326118271562726,
                            0.0065170777389256885,
                            0.1261392989861599,
                            0.038489028885644046,
                            -0.006146498950536169,
                            -0.05283759208433774,
                            0.053388534283200936,
                            -0.048802412500988636,
                            -0.13291697490018076,
                            0.05696897518397393,
                            -0.16729503947251842,
                            -0.03408221016089398,
                            0.16867754152491266,
                            0.09908333955430325,
                            0.011436476497881433,
                            0.03614363907761821,
                            -0.22549953213928728,
                            -0.06079709371921385,
                            0.014881253138703674,
                            0.194864601376064,
                            -0.14323423528427962,
                            0.14863121237517007,
                            0.02479901323619227,
                            0.10889957047454779,
                            0.18400397759127968,
                            0.03728242894660891,
                            -0.12603202256115795,
                            -0.19034096187080038,
                            0.16211521418188565,
                            -0.013340498798633547,
                            0.1580504881462044,
                            0.06902025593604842,
                            0.15131273033880352,
                            0.054415628150658125,
                            0.13985608846384218,
                            0.09905215888348842,
                            -0.17597293703519712,
                            -0.09613792646046679,
                            -0.014333544798190191,
                            0.09146852433000502,
                            -0.1661036281676972
                        ],
                        [
                            0.048249133402381336,
                            -0.022465951328949105,
                            0.16593135173853205,
                            -0.06020539385314251,
                            0.015873741689416562,
                            -0.04160187649031352,
                            -0.15268049498827738,
                            -0.09807652009008908,
                            -0.18344931995722913,
                            -0.1847693179746212,
                            -0.13576603775165355,
                            0.1701902018538665,
                            -0.07265056529209431,
                            0.09885676453284724,
                            0.01511700284892896,
                            0.048926409546765665,
                            -0.0789669104946461,
                            0.17628841312084723,
                            0.15661306956429286,
                            0.01979830367351573,
                            -0.14852791345489047,
                            -0.09077442622748076,
                            -0.19096742452994517,
                            0.04388333714167581,
                            0.10927079795966241,
                            -0.13269780085996585,
                            -0.19753736962429788,
                            0.17851030566527454,
                            0.19462658663535168,
                            0.026812636925298384,
                            -0.15235484454153508,
                            0.1302040490803172,
                            0.17693667634620683,
                            0.057472830332312284,
                            0.08533843274855976,
                            -0.12576701328773662,
                            0.051317855653637265,
                            0.15977304802862186,
                            -0.11790059875831807,
                            0.11453053372690411,
                            -0.024111196933864022,
                            0.05161452891377406,
                            -0.1570421674004962,
                            0.03471711375231279,
                            -0.04633727549734589,
                            -0.20881221346571582,
                            0.1492451400760881,
                            0.04488396218404221,
                            -0.18264497471269583,
                            -0.16640384363261274,
                            0.03504397558420048,
                            0.04857990473626595,
                            0.08911792257106745,
                            0.19004035164414582,
                            0.07179867984285693,
                            0.10898439020084129,
                            0.11281618045207081,
                            -0.0450337180894235,
                            0.03197622903458935,
                            0.17279516203919426,
                            0.11948674225768421,
                            0.19457337378638823,
                            -0.17334130010492585,
                            0.1897007387154358,
                            -0.14723724009230524,
                            0.028550840371726095,
                            0.006581522936206072,
                            0.1924370161721571,
                            0.08939300106355955,
                            0.1789039588058873,
                            -0.17784211664146082,
                            0.09652207648971564,
                            -0.07686424068813709,
                            -0.03889138878215074,
                            0.1531014875574867
                        ],
                        [
                            -0.1298669875719423,
                            0.09878015216677019,
                            -0.050861449785331726,
                            -0.13099520509050402,
                            -0.08537130656560035,
                            0.12819230928689251,
                            -0.17375594709925948,
                            0.10501270056711831,
                            -0.14707814955390663,
                            0.06516700642966185,
                            0.14251651142924263,
                            -0.17864333087577342,
                            0.1259995600103206,
                            -0.0869672537360364,
                            -0.031017524511886198,
                            0.10118168397305699,
                            -0.0232301564520362,
                            -0.025378284277177882,
                            0.16664127693419412,
                            -0.07462469247591776,
                            0.17078140935232944,
                            0.06482744575767817,
                            -0.09431557226146403,
                            -0.007265904412631167,
                            -0.16490800635889963,
                            -0.04742174120380392,
                            -0.1097172170941939,
                            -0.09532529422307365,
                            -0.19301436376368925,
                            -0.09333260068080942,
                            -0.08363173043386943,
                            0.11076265554834716,
                            -0.07208696754543148,
                            0.1505442063244449,
                            0.03747998341386547,
                            -0.0504229962639048,
                            0.006166896445558748,
                            -0.09749121809129492,
                            -0.08978050571685729,
                            -0.0331412386203729,
                            -0.15341283554191643,
                            -0.13833529014752968,
                            0.1099926699690518,
                            0.0030196861288913886,
                            -0.054561740821811984,
                            0.06595159823487404,
                            0.09299412708566483,
                            -0.06793200488997617,
                            0.12335135151528094,
                            -0.1431839371698166,
