[
    {
        "Score_Train": [
            0.9694928983146038,
            0.9722895861598998,
            0.9720512248834366,
            0.9698481009286305
        ],
        "Score_Val": [
            0.9468457581803293,
            0.9528103757644276,
            0.9419057865967772,
            0.9430606434472569
        ],
        "Wl2_Train": [
            0.030895168479255435,
            0.028835600988523235,
            0.028608553398652904,
            0.029366493979821162
        ],
        "Wl2_Val": [
            0.04405857756427241,
            0.04194993182231437,
            0.04626924238428413,
            0.04735439461277644
        ]
    },
    {
        "Score_Train": [
            0.9729301163014028,
            0.9734415449048698,
            0.9750346393999803,
            0.9760961707379523
        ],
        "Score_Val": [
            0.9091331458830175,
            0.9119977920832517,
            0.9083373241936601,
            0.9092044924741358
        ],
        "Wl2_Train": [
            0.028113198559462545,
            0.02764057841033373,
            0.02788075932155826,
            0.027265556588116833
        ],
        "Wl2_Val": [
            0.06191254363888763,
            0.06082912090940591,
            0.06031116522043637,
            0.060737864837610865
        ]
    },
    {
        "Score_Train": [
            0.9580829960533344,
            0.9591191151553162,
            0.9590449149332171,
            0.9583679426467234
        ],
        "Score_Val": [
            0.9324878252245131,
            0.9364902458826373,
            0.9292528708590732,
            0.9382719250748532
        ],
        "Wl2_Train": [
            0.0360081023900657,
            0.03517444656748342,
            0.03458706068233017,
            0.03519087231890961
        ],
        "Wl2_Val": [
            0.05919606900246913,
            0.05557846319792826,
            0.0595831926038207,
            0.051639822725625346
        ]
    },
    {
        "NN_PROPERTIES": {
            "alpha": 0.001931666535492889,
            "batch_size": 22,
            "epochs_per_training_set": 2,
            "epsilon": 0.02872678693613251,
            "hidden_layer_sizes": [
                55
            ],
            "learning_rate_init": 0.06651629336077657,
            "loss": "wasserstein_loss",
            "training_sets": 2
        },
        "Score_Test": [
            0.958091987667919,
            0.9625943126416764,
            0.9532745745465793,
            0.9626436769305986
        ],
        "Score_Train": [
            0.9711634383289465,
            0.9721477904778965,
            0.9681529783730531,
            0.9699255143720013
        ],
        "Wl2_Test": [
            0.034181223848264164,
            0.03316776769559411,
            0.03807830010004275,
            0.032449710395277984
        ],
        "Wl2_Train": [
            0.02939893014594907,
            0.029410423450171985,
            0.03185650479702077,
            0.03038080456893549
        ],
        "__getstate__": {
            "_no_improvement_count": 2,
            "activation": "relu",
            "alpha": 0.001931666535492889,
            "batch_size": 22,
            "beta_1": 0.9,
            "beta_2": 0.999,
            "coefs_": [
                {
                    "Corder": true,
                    "__ndarray__": [
                        [
                            0.49012894325839057,
                            -0.03663191955973568,
                            -0.013857874980112315,
                            0.248729282914899,
                            -0.02481078357426747,
                            0.2680483390939134,
                            0.11880285795451222,
                            -0.014659184041669961,
                            -0.31768872685460553,
                            0.03160658523617097,
                            0.4048125378877473,
                            0.23107324512770558,
                            -0.23239175680791926,
                            -0.4844392048734176,
                            -0.045795572546400876,
                            -0.5520273107373097,
                            0.0019633708932336896,
                            -0.03813385456532781,
                            -0.008751043654426926,
                            -0.0008357212748334478,
                            -0.004083436465007553,
                            -0.07011361748401959,
                            0.05971569392866457,
                            0.059623662254570574,
                            -0.37051449432887457,
                            -0.21657157740273356,
                            -0.21221804423241686,
                            -0.23813404328058088,
                            -0.29183624649442635,
                            0.5357478714499653,
                            -0.1384653495351813,
                            0.00038678152337243236,
                            0.055968327917241545,
                            -0.1449914179934126,
                            0.11065385503187478,
                            0.0004284263169996973,
                            0.05132371554655745,
                            0.42695019342888424,
                            0.021931661517924715,
                            0.016442295662009346,
                            -0.1367391758470771,
                            -0.1310021753011939,
                            -0.00375536907864256,
                            -0.24459451924955644,
                            -0.024162144315829283,
                            0.2794514971317206,
                            -0.2371431461647878,
                            -0.37345639401101255,
                            -0.42824560521484617,
                            -0.31893830506837223,
                            -0.14267763192771513,
                            -0.08961153431122723,
                            -0.09213424250427948,
                            0.24267131300653602,
                            0.12489657433764734
                        ],
                        [
                            -0.43617043505964104,
                            0.14082757227173923,
                            -0.13655058874388976,
                            -0.24162392086637616,
                            0.10800808014537819,
                            -0.07557212572161087,
                            0.14833216181525014,
                            0.07773708213888439,
                            -0.3779327818624868,
                            0.07296026079884431,
                            -0.24982598573636502,
                            -0.16004394209897008,
                            -0.11685291838687949,
                            -0.4534244998131821,
                            0.09804709617170536,
                            -0.5787483520290886,
                            -0.0006000680340670317,
                            -0.1891886801020501,
                            0.058799361139346,
                            0.0013032958565223605,
                            0.04952929850244732,
                            0.09914205517744161,
                            0.0794634570554386,
                            0.03279998992194171,
                            -0.6398467904935842,
                            0.09214748561714232,
                            0.018502159953056298,
                            -0.35304907191901913,
                            -0.14744647519807996,
                            -0.4598001064286747,
                            -0.004578811472211938,
                            -0.0010308852646915827,
                            -0.02127497166408171,
                            -0.09574580837875556,
                            -0.13017274469594195,
                            0.10179339555990455,
                            0.07009243413796327,
                            -0.3501768852260556,
                            -0.12622722918230558,
                            0.03996473721946916,
                            0.06464104827537594,
                            0.15335033497651415,
                            0.07801317101090004,
                            -0.2516544957915276,
                            0.033195094263615554,
                            -0.0823553032350169,
                            -0.1049594987287162,
                            -0.3511170420377302,
                            0.05313009834703045,
                            -0.24885628253426595,
                            0.07438304578750445,
                            -0.22535259725180345,
                            0.1479020973727768,
                            -0.26599741228502966,
                            -0.08962768094228973
                        ],
                        [
                            0.12205059005838657,
                            0.3341013773776276,
                            0.19158120804954554,
                            0.12613750818738315,
                            -0.19266668449204208,
                            0.021438262681557282,
                            0.20442525918139554,
                            -0.1437705270389921,
                            0.1961386611596276,
                            -0.03618470241957397,
                            0.12492696519056054,
                            0.11219747697139835,
                            0.06337860881823451,
                            0.44118804513225973,
                            0.09222214422351054,
                            -0.07201484004981576,
                            -0.0008088618108149019,
                            -0.44886576033716163,
                            0.031193104237626848,
                            -0.0019244454066165587,
                            -0.03220623538051503,
                            0.2941586781370347,
                            0.018735747068530133,
                            0.08556737238082594,
                            -0.43141779268036196,
                            0.6605614863701942,
                            -0.14474246040628166,
                            -0.3663231951091672,
                            -0.15752673958956379,
                            0.2596463436311025,
                            0.06709063168566222,
                            -0.002408444266623335,
                            -0.16605238986514423,
                            0.16533060818401504,
                            -0.0009124908768798775,
                            -0.16288821828919725,
                            0.10292947237426278,
                            0.14861259908880897,
                            0.10311881917004899,
                            0.3243081652792158,
                            -0.3057471228964812,
                            0.5578065448254184,
                            0.03476195764138963,
                            -0.18252000084872952,
                            -0.11420333594075426,
                            -0.011953203252000425,
                            0.4176315278132821,
                            -0.36604726355982226,
                            0.10383580059249808,
                            -0.11038080481961697,
                            0.5059651788273688,
                            0.0610068900726284,
                            -0.18672950182695383,
                            0.017706986330283413,
                            0.01925095397381927
                        ],
                        [
                            -0.09133777332035889,
                            0.028425405319640027,
                            0.4320431913872354,
                            0.03277638457230821,
                            -0.37007071767916827,
                            -0.0006455328630398383,
                            -0.34832175403414406,
                            -0.6843096503254775,
                            0.19595802180108451,
                            -0.28082935176466345,
                            0.007716706468972744,
                            0.06008316282015611,
                            -0.28845397771671616,
                            0.20023295169092872,
                            -0.1558952918233069,
                            -0.6329718210118878,
                            -0.0031392121951497416,
                            0.025670673703299993,
                            -0.06103429951032441,
                            -0.002638759550464294,
                            -0.012894358691532626,
                            -0.04135360942280185,
                            0.04489252113432241,
                            -0.02891714834764433,
                            0.3234733645740772,
                            -0.03515609610773596,
                            -0.4636134921015222,
                            0.3346889839109783,
                            -0.3799469182288639,
                            -0.06639092985413149,
                            -0.2164566729365682,
                            -0.0013322883101643088,
                            -0.4423195900308997,
                            0.11481655668728533,
                            -0.11366835565008582,
                            -0.611417134272863,
                            0.05329274488673232,
                            -0.05082485803456493,
                            0.04556876744781123,
                            0.05211918397482893,
                            -1.1530834150812155,
                            -0.0019778702983775376,
                            -0.20460501847834903,
                            0.27170240329565304,
                            0.03402252880638019,
                            0.02506394778602187,
                            -0.0021879893007499276,
                            -0.6720892955063098,
                            -0.15414390224793187,
                            -0.46165136478381,
                            -0.08186952147532002,
                            0.35694217895538227,
                            -0.8431628606136625,
                            -0.09536057112384609,
                            0.011122796556262804
                        ],
                        [
                            0.0713984290510664,
                            -0.00015109138711849363,
                            0.10356587335903618,
                            -0.09599464108537584,
                            0.059454026087193135,
                            -0.11004632857527755,
                            0.06274470233776229,
                            0.18967107935823496,
                            0.025183745132256966,
                            0.04495082607059251,
                            -0.06483207518755471,
                            -0.06724759105232865,
                            -0.0225868744276389,
                            0.13355212417720644,
                            0.09106248315616916,
                            0.15452341033419661,
                            0.0034572754455881333,
                            0.275777608224079,
                            0.10125549552611618,
                            0.0005612002748657668,
                            0.07483772120086399,
                            0.06928322135917551,
                            -0.03750607111039041,
                            0.05090002888870933,
                            0.24283841840204842,
                            0.2904253909576051,
                            0.03785797374757282,
                            0.4113484963812354,
                            -0.03626616785164356,
                            0.10007609120983839,
                            -0.035709238585364136,
                            0.006259300981496999,
                            -0.005124038732467835,
                            -0.022690393356614224,
                            0.0313840596030671,
                            0.3104251795059024,
                            -0.032943912111177705,
                            0.031810532236677756,
                            0.0003744072958107868,
                            -0.03551695471891324,
                            0.34105812188651924,
                            0.20034613304395799,
                            0.09899111058317997,
                            0.1071861996069283,
                            0.18118974659516432,
                            -0.10037513791717767,
                            -0.01607501095099689,
                            0.17478491434671162,
                            0.07768345562338543,
                            -0.04898795384954091,
                            0.28346390898705265,
                            0.01648333640896734,
                            0.3219684675783696,
                            -0.03925730355703511,
                            -0.057176824213607425
                        ],
                        [
                            -0.1398359920847492,
                            -0.0095199985115446,
                            -0.12970399856644563,
                            -0.20842655917387576,
                            -0.02757585041677517,
                            -0.18657108256963703,
                            -0.05565537187637421,
                            -0.03405211993136559,
                            0.02134206739138556,
                            -0.0596213269333181,
                            -0.13616689778163776,
                            -0.08867278639139911,
                            0.023658906158559583,
                            -0.03855740911746227,
                            -0.044087975053405885,
                            0.01914825370716376,
                            -0.002466076075917251,
                            -0.07021582107388546,
                            -0.0323551521681195,
                            0.0035011966625713297,
                            0.004894770906855351,
                            -0.038185764375718544,
                            -0.013783426912398719,
                            -0.041327483311933144,
                            -0.09912812854655899,
                            -0.10639266849637553,
                            0.05685893710585786,
                            -0.15947395679588885,
                            0.09173401119741507,
                            -0.17381137412484332,
                            0.021367845748362296,
                            0.0008094513539986626,
                            -0.029317474668594086,
                            0.025179729690394156,
                            0.050730754201102284,
                            -0.10577504869069992,
                            -0.014265225133006883,
                            -0.20028471454039515,
                            -0.006782221599507011,
                            -0.022228136142283906,
                            -0.05363977859070257,
                            -0.10769316074879348,
                            -0.035996560135215,
                            -0.01768748620297625,
                            -0.020983883697385002,
                            -0.0661042845915964,
                            0.03647573347465216,
                            -0.0012581784490967992,
                            0.08851633381622362,
                            0.05436825417490508,
                            -0.1305778182571521,
                            -0.048645622096943154,
                            -0.131065518985701,
                            -0.14378682863363323,
                            0.048023124056505245
                        ],
                        [
                            0.033666612990926194,
                            -0.015100472258503781,
                            -0.11331493347922214,
                            -0.015438028066251526,
                            0.21902562406571138,
                            -0.025246055086627178,
                            0.050740139120648446,
                            0.19454185716029332,
                            0.14078128831628559,
                            0.10915672680005448,
                            -0.060187756076137064,
                            -0.03267180731597943,
                            -0.042377778661062085,
                            0.07675581671333448,
                            0.04294411299976359,
                            0.02639653433724883,
                            -0.0009768319208537889,
                            0.12966997244937237,
                            0.03185266574776777,
                            -0.005036358893532705,
                            0.07411888840318956,
                            -0.02735255397460873,
                            -0.029058658909115152,
                            0.011764155223430878,
                            -0.019158081953252238,
                            -0.06033545195905316,
                            -0.017228127044735416,
                            0.18681512214997503,
                            -0.02147534508720197,
                            0.008602872518959678,
                            -0.01995967889181093,
                            -0.003390382426897045,
                            0.05140191775336503,
                            0.055088588970326244,
                            0.023757423610873903,
                            0.26836090364971965,
                            -0.014739081138012264,
                            0.0033309735954458737,
                            -0.02851721634840058,
                            0.056569987701564725,
                            0.22647567646112815,
                            -0.06410799733459939,
                            0.08705694955104493,
                            0.12585879234889488,
                            0.20407154664604302,
                            -0.03851664661603462,
                            -0.01557902954247232,
                            0.08588009865039069,
                            0.023471154074921674,
                            -0.035086885144388215,
                            -0.10235285192949922,
                            -0.009715841754002358,
                            0.25388579594094857,
                            0.029453805884848232,
                            -0.021279791942158125
                        ],
                        [
                            -0.058932273602824,
                            0.20520441626682742,
                            0.1468787651035415,
                            -0.09384483263409774,
                            -0.11066120402118435,
                            -0.15211190691693982,
                            -0.10872148915134607,
                            -0.25943251412810325,
                            0.058871714378655945,
                            -0.12470331405746989,
                            -0.07498807744460015,
                            -0.07982361322784393,
                            0.04627399660655957,
                            0.09187256692424295,
                            -0.06455031833922764,
                            0.07498691492013891,
                            0.0032292656506010885,
                            -0.36324050493691495,
                            0.007579210136167625,
                            -0.0031042773899358548,
                            -0.045764012088869085,
                            0.07786841536647232,
                            -0.0023976987449095934,
                            -0.020255065208011916,
                            -0.04180098890208294,
                            0.05160690103158685,
                            0.10498986078356949,
                            -0.33153038382903044,
                            0.0030832139436892864,
                            -0.07641494627370989,
                            0.0675583185400586,
                            -0.005189477158020266,
                            -0.09103696982333105,
                            0.12443464931972724,
                            -0.02971330686052771,
                            -0.3111295201046251,
                            -0.008937232412467798,
                            -0.05086113624917025,
                            0.03931493676578461,
                            0.1196059695735821,
                            -0.17466041624174766,
                            0.07044480083157179,
                            -0.052010458668338144,
                            -0.02037181930429225,
                            -0.176514581283143,
                            -0.028363525634502906,
                            0.1603952205940435,
                            -0.09353263243696364,
                            0.24137063997239394,
                            -0.011042384366257683,
                            0.02472616860571037,
                            0.07800208794906095,
                            -0.24254714750959708,
                            -0.05690799690111301,
                            -0.025707906233074444
                        ],
                        [
                            0.017626977856690658,
                            0.13093513459920775,
                            0.19503262958022213,
                            0.04871469423380728,
                            -0.04519263923554003,
                            0.06478724674195847,
                            -0.035527194575190164,
                            -0.0674338932679678,
                            0.026540159794950953,
                            -0.04121603113181931,
                            0.02152871358381847,
                            0.07242051084884069,
                            0.04732214454559351,
                            0.07578257342239723,
                            -0.01042590497709477,
                            0.05005013890509519,
                            0.005095062598439903,
                            -0.15167160567693638,
                            0.006003163138209818,
                            -0.004022896404692507,
                            -0.02969986049473149,
                            0.05513267999105736,
                            0.0269227264509738,
                            0.014473960163658678,
                            0.12642484739981988,
                            0.06763819111280928,
                            -0.049789552062717776,
                            0.09556851078395309,
                            -0.023942713092021034,
                            0.06300620893236626,
                            -0.0037629613724422554,
                            0.0006702690527835327,
                            0.007213067215610318,
                            0.02353280269171214,
                            0.001974608039891224,
                            -0.012853232123973603,
                            0.04205449264591031,
                            0.02756480516667883,
                            0.0038433270543421216,
                            0.09305275451018548,
                            0.037261597894682794,
                            0.11230547872416567,
                            -0.016378513652433365,
                            0.06079401283686857,
                            0.000889457836123366,
                            0.04551978649147624,
                            0.052776346703865745,
                            0.03048271143861169,
                            0.01562545664817937,
                            0.01237858294196156,
                            0.03740415152067834,
                            0.04666390462370935,
                            -0.02241791670684135,
                            0.0158628826802852,
                            0.035403328671156
                        ],
                        [
                            -0.0449424781186112,
                            -0.17574430374505381,
                            -0.24863562934222588,
                            -0.07031469864503223,
                            0.0026528704651338822,
                            -0.08269078381552324,
                            -0.06416542857164595,
                            -0.004467282753181989,
                            -0.04473601090818793,
                            -0.00018517470616412378,
                            -0.06143055144894286,
                            -0.04629936473559292,
                            0.04865729079981046,
                            -0.12731010230112308,
                            -0.015541983700102334,
                            0.010136529802921703,
                            -0.0017786812588806856,
                            0.07187844776387148,
                            -0.028301437304455997,
                            -0.0036649285645190344,
                            0.019242383003767943,
                            -0.13563419753594846,
                            -0.02745867560054822,
                            -0.04023267139742646,
                            0.05083209655365295,
                            -0.20234353987842968,
                            0.18758323902287813,
                            0.03484578838478553,
                            0.10826705829203354,
                            -0.0671168227180117,
                            0.033374032106615194,
                            0.006320897948656782,
                            0.0062573279285599165,
                            -0.06981890935923311,
                            -0.03661695392021591,
                            -0.047209654195022106,
                            -0.034172939591999116,
                            -0.05872070001677141,
                            -0.019356176817964938,
                            -0.1373252389287123,
                            -0.026077328520356775,
                            -0.15602067353132062,
                            -0.06471859262757274,
                            0.04415564869843496,
                            0.0318396624017126,
                            -0.04332575969231442,
                            -0.11379581895597404,
                            0.0050943619881531005,
                            0.07872978083495587,
                            0.10224917065403998,
                            -0.20264689392853585,
                            -0.06530332857927387,
                            -0.055474743827543645,
                            -0.05758322351690179,
                            -0.027141049768486924
                        ],
                        [
                            0.00957202112056836,
                            0.04069527757406614,
                            0.17543989785908462,
                            -0.0036218875610396937,
                            -0.10697232595584795,
                            0.014879506073741038,
                            -0.08914776124518935,
                            -0.0923716118488713,
                            0.04314611966232527,
                            -0.11651871914164866,
                            -0.021647773008604432,
                            0.05196912158498095,
                            0.01374350212929541,
                            0.05794724098198346,
                            -0.01808933109784968,
                            0.08815641490593748,
                            -0.0005648566757257251,
                            -0.17425796534104376,
                            -0.024267567620003764,
                            -0.0015143226184684301,
                            -0.022795782050758096,
                            0.004625454123403278,
                            -0.00028344304648695304,
                            -0.019673446914722278,
                            -0.03357159075101576,
                            0.031196372641050577,
                            -0.0583443356682807,
                            -0.11384864224024159,
                            -0.04049286358981786,
                            -0.0011482797116114788,
                            0.003099121936796234,
                            0.005833930573432275,
                            -0.10556681021418814,
                            0.0466098105336929,
                            -0.006056359995388384,
                            -0.09155299039473005,
                            -0.0001294903308507731,
                            -0.003928234434784922,
                            0.012991789780138098,
                            0.02840212477794836,
                            -0.08170311151629442,
                            -0.0032075382407391823,
                            -0.027236237748271806,
                            0.01917122356904234,
                            -0.10824060465486089,
                            0.010028722641295855,
                            0.06508922356968527,
                            -0.007101718575422783,
                            0.03497454916478532,
                            -0.03166556786211075,
                            0.020423277982007035,
                            0.09509254742559284,
                            -0.094655464857107,
                            -0.004032582485307763,
                            0.021605488487674365
                        ],
                        [
                            -0.015836901607750007,
                            0.01971204332343935,
                            0.01300294668759888,
                            -0.04941679741953831,
                            0.042350394290882554,
                            -0.0989108354147236,
                            -0.005367940792764853,
                            0.011497722879742526,
                            0.0010587945258506625,
                            -0.020926488636301074,
                            -0.05933706259770345,
                            0.0005541563429865154,
                            0.045929625183782706,
                            -0.010695401945609067,
                            0.029171073667288036,
                            -0.005537643001935235,
                            -0.0053194062777879745,
                            -0.043732257662151656,
                            0.02657230259236765,
                            -0.005895953345055016,
                            0.011615904544685038,
                            0.020576881550542565,
                            -0.008763906329055937,
                            -0.0010943944113215231,
                            0.016182239662382622,
                            0.03805026826404713,
                            -0.011178149627236575,
                            0.009249016514425092,
                            -0.0027299035036329514,
                            -0.04335000348398993,
                            0.012541547538561681,
                            0.003608303110515557,
                            -0.04121040930577325,
                            0.014952172478619151,
                            -0.010505608574586206,
                            0.03152171279073401,
                            0.002588103819670361,
                            -0.03297100622730875,
                            -0.0064094926791052175,
                            -0.0030247635809887755,
                            -0.006626585385992134,
                            0.04403732667588559,
                            0.04518862897026883,
                            0.009331805460259667,
                            0.00670894467472456,
                            -0.0029197057393160705,
                            0.010939131774125527,
                            -0.011220899070823631,
                            0.032145214694171496,
                            0.009113146522634775,
                            0.020806108773988523,
                            -0.019511766676980943,
                            0.08158101907873501,
                            -0.04275294799354182,
                            -0.02335760448400974
                        ],
                        [
                            -0.03316001227809626,
                            -0.10161754431405379,
                            -0.05353656360237682,
                            0.028496575931592424,
                            0.06106181510025187,
                            0.08117244568804853,
                            0.006694708843808695,
                            0.06780846379416179,
                            0.027857381401351442,
                            0.06892279740036938,
                            -0.04549428246917698,
                            0.03607798052513583,
                            0.008384993766135586,
                            0.03284650127091227,
                            -0.014204267428914502,
                            -0.002051546101576833,
                            0.00030648781864255005,
                            0.004714776775208542,
                            -0.03342945980858885,
                            0.0023978174263859908,
                            0.0008750776917374499,
                            -0.06455709432728231,
                            0.0029762839959456906,
                            -0.03116654461598691,
                            -0.03609494730480632,
                            -0.06635908034124327,
                            -0.05283683638830981,
                            -0.004972948020225017,
                            0.01072950075648053,
                            -0.06372162184195454,
                            0.012605816870890017,
                            0.00031045665238864454,
                            0.07245995347256687,
                            -0.007467229263605484,
                            0.04274599900154587,
                            0.036125483149968655,
                            -0.0074408309960535745,
                            -0.04898963674814364,
                            -0.010350202595074277,
                            -0.034943593999354525,
                            0.0379842115657877,
                            -0.11237517437914925,
                            -0.02082101981886234,
                            -0.06615990121940075,
                            0.04654666030109679,
                            0.019363759976546747,
                            0.008025572842130943,
                            -0.03474617019067279,
                            -0.13094123271372418,
                            0.01487104590085626,
                            -0.0749909637613273,
                            -0.04053181022778907,
                            0.029070544995898447,
                            -0.014601622157911795,
                            0.029025084101456537
                        ],
                        [
                            0.016609345372964643,
                            0.09099640884832406,
                            0.07268862280946918,
                            0.04843768975882481,
                            -0.11571765892063868,
                            0.04933210575386927,
                            -0.03893316902558892,
                            -0.15266006254008097,
                            -0.038133091412176016,
                            -0.158062479671185,
                            0.016693315192135672,
                            0.05093384205593949,
                            0.037944325451519476,
                            -0.06441877468220616,
                            -0.0026800024490260758,
                            0.06116820482477664,
                            -0.0013764633202848508,
                            -0.05549019288344064,
                            0.037878976576296575,
                            0.0014076646245364598,
                            -0.0255929529411545,
                            0.04203643933422685,
                            0.03602788600438756,
                            0.04654565434193957,
                            0.07808545537226388,
                            0.0805592557094828,
                            -0.09430526935689286,
                            -0.02772765110173114,
                            -0.007781383361461599,
                            0.01921394347251101,
                            0.0012085809459905623,
                            0.0053964192991473574,
                            -0.14039815947890763,
                            -0.04177789558096307,
                            -0.0015948024645922399,
                            -0.1275342718696195,
                            0.023247273386732693,
                            0.015408462042644271,
                            0.0008891467016148761,
                            -0.010265719311125394,
                            -0.16184354931819547,
                            0.12000434863454296,
                            -0.00470374952118581,
                            -0.006230697053811364,
                            -0.11824674217785922,
                            0.03321993902133593,
                            -0.04106605421529099,
                            -0.023155232777506078,
                            -0.006606923399385471,
                            0.05691270054874171,
                            0.07661107996476194,
                            0.012495112676324435,
                            -0.1549936764163074,
                            -0.012059114151903716,
                            0.029553894798711025
                        ],
                        [
                            -0.013975730502188574,
                            0.24856766463347052,
                            0.05736857305357978,
                            -0.0037009807327863463,
                            -0.076704769235922,
                            -0.013969956467618361,
                            0.12047707987691052,
                            -0.17165911282058513,
                            -0.04128931710679915,
                            -0.07237358235006787,
                            -0.021009741904644528,
                            -0.022792061722758442,
                            0.03182664593608962,
                            -0.0011647769035335867,
                            0.01918362710743092,
                            0.03241459698241423,
                            0.005227773175119691,
                            -0.28250328112215156,
                            0.08807994286028427,
                            0.0045853013829549915,
                            -0.0037698467638552294,
                            0.11365653854162404,
                            0.039338924811804565,
                            0.04494407369736446,
                            -0.04851154175944176,
                            0.08059969979791197,
                            -0.047995549521590915,
                            -0.16167744018314795,
                            0.008528451935642624,
                            -0.005098205603612838,
                            0.02940295828173012,
                            -0.0033630880595480615,
                            -0.10184170706897269,
                            0.03686305234164945,
                            -0.02796117380543151,
                            -0.05727032570309777,
                            0.04436951068371613,
                            -0.022085617667471184,
                            -0.016514237684022375,
                            0.14279239781362313,
                            -0.10241532260863667,
                            0.17392240660010064,
                            0.060854791621134344,
                            -0.10488387988668255,
                            -0.02884589727189629,
                            -0.05147411400479307,
                            0.06401701895262651,
                            -0.025826049000881254,
                            0.08947762047430532,
                            -0.0003800057822829378,
                            0.04320039162997407,
                            -0.058631917263072424,
                            -0.08015341899907714,
                            -0.033926434908265954,
                            -0.017859880531259167
                        ],
                        [
                            0.06283280394217487,
                            0.13834908169464852,
                            0.13628874699378665,
                            0.08715736243048881,
                            0.026821880647979884,
                            0.08904782949462176,
                            0.12272294086784925,
                            0.055827110614783446,
                            0.0343884272871983,
                            0.019600415847556434,
                            0.09371031879800418,
                            0.08306965830636366,
                            0.004877056308587246,
                            0.03120694172791653,
                            0.03500293142897405,
                            0.022837384913488325,
                            0.0024640927347949967,
                            -0.020290993353947684,
                            0.0522499436258341,
                            0.0032824081096499013,
                            0.011037618624422074,
                            0.09424919245645047,
                            0.015815618738940263,
                            0.03583165033323711,
                            0.02602142398489666,
                            0.09812333601770915,
                            -0.07646846498733095,
                            0.09013693724972367,
                            -0.02516925996894489,
                            0.07533047219763524,
                            -0.009278434516872266,
                            -0.0008195443184516292,
                            0.021563183189079533,
                            0.01805091866884103,
                            0.03735109082680352,
                            0.10171361159930095,
                            0.017905114920008,
                            0.060779267143071206,
                            0.034763182669925355,
                            0.1053577581634645,
                            -0.01729271273531255,
                            0.15053727231100728,
                            0.053294511928021635,
                            0.06810811291563904,
                            -0.00615858746810106,
                            0.06800946189114876,
                            0.005494021876503962,
                            -0.004178665162350982,
                            -0.04924841622241239,
                            0.0015894308267093652,
                            0.11283817498118313,
                            0.09849653745566071,
                            0.07091449006084485,
                            0.02815680272815625,
                            0.04494573359363984
                        ],
                        [
                            -0.005644794643696109,
                            0.050766885047574616,
                            -0.10442906868201243,
                            -0.03160236382392349,
                            -0.026840909417841355,
                            -0.03257199737739184,
                            -0.15125371592854492,
                            -0.15402627266940244,
                            -0.06406230960085782,
                            -0.14892407950507613,
                            -0.030570643447465663,
                            -0.03678278992722376,
                            0.030658872027820583,
                            -0.08509633071923467,
                            -0.04593687466058104,
                            0.07695501111642955,
                            -0.0020640219708954743,
                            0.0996957655418459,
                            0.03268826634583455,
                            -0.00031490305672706164,
                            -0.008859481978322077,
                            0.006120059890062852,
                            0.012624941403650761,
                            0.026194044552770863,
                            0.07890128986298028,
                            -0.040301889846587176,
                            0.019334930066057947,
                            0.053675386452998505,
                            0.07510820115436179,
                            -0.019381714436787864,
                            0.013249511019906358,
                            0.003417812758642606,
                            -0.12228870633492366,
                            -0.03972029113671364,
                            -0.005251447880017391,
                            -0.09565009184560135,
                            0.018334159363941158,
                            -0.009246660148619718,
                            -0.027072569532273497,
                            -0.06624664890601369,
                            -0.0744745710696769,
                            0.07425466020847887,
                            -0.06245966560207302,
                            0.030769207784448308,
                            0.028353369493099485,
                            5.353607393248561e-05,
                            -0.09330947575928199,
                            0.042791992915579,
                            0.08663126679801436,
                            0.08008258996884544,
                            -0.07861205063387626,
                            -0.07910013278552826,
                            -0.07029633906337887,
                            0.004614735557195442,
                            0.006773997149391837
                        ],
                        [
                            0.020070070305185532,
                            0.09793885008662176,
                            0.01770197361923776,
                            0.011458952083257045,
                            0.004343420324528578,
                            0.03798523226511585,
                            0.05764010021419923,
                            -0.004898837742325492,
                            0.0024692707935670393,
                            0.013848691882766096,
                            0.021919097261480565,
                            0.017006110693172826,
                            -0.007834366222030412,
                            -0.003209893828377693,
                            0.021490185312093762,
                            0.030455640706013833,
                            0.00013628553850564647,
                            0.09226916827158409,
                            0.03518615386089619,
                            0.0015185455910114935,
                            0.003301944203127432,
                            0.08973325862569921,
                            0.023555449608316854,
                            0.04231890473420607,
                            0.04208739057429838,
                            0.08855382212065892,
                            -0.04194097390657235,
                            0.05256602875396153,
                            0.010799891047663207,
                            0.034331084360465836,
                            0.006496041367344818,
                            0.0020851955696436467,
                            0.005454454983515833,
                            -0.0032269633396760857,
                            0.004617979302611482,
                            0.01826514870477177,
                            0.045238306652161026,
                            0.02356446631384258,
                            -0.0018069080833845123,
                            0.055819382291733416,
                            0.04671813364879905,
                            0.0971587651606965,
                            0.040348659476913025,
                            -0.005996929146294253,
                            0.017532576851276165,
                            -0.004545829795940845,
                            -0.011253056455112856,
                            0.016714078937719444,
                            -0.026250354687113505,
                            0.005086898140578024,
                            0.09483039705123968,
                            -0.023599022993147804,
                            0.03002268856407695,
                            0.0011315020305300869,
                            0.0050392349007409515
                        ],
                        [
                            0.0029680319901649885,
                            0.04794204987202505,
                            0.0042629388374696145,
                            -0.0287390650512958,
                            -0.042181418002498375,
                            -0.032331523696827895,
                            -0.02364261074440676,
                            -0.01803922459515435,
                            -0.01504955516344864,
                            -0.0487311615202333,
                            -0.025855577693508484,
                            -0.05719875458223309,
                            0.001099461162010319,
                            0.00020594754640455135,
                            -0.00949142484419714,
                            0.026577175912430483,
                            0.003472699383247053,
                            -0.0031981797646399744,
                            0.005421591585715484,
                            -0.0025072510965527973,
                            -0.013139240774935772,
                            0.03177950515672741,
                            0.0028360180969696216,
                            0.014552541042200402,
                            0.002771596809675198,
                            0.036157121421282294,
                            0.026837925359781092,
                            -0.011734297132754378,
                            -0.004954159729931415,
                            0.005488669167488057,
                            0.006882191237126593,
                            -0.0029873631123741467,
                            -0.046849372044643116,
                            0.00031723628641604717,
                            -0.02919699366182945,
                            -0.018941731052903463,
                            -0.0009492750516891176,
                            -0.014473740971190897,
                            -0.017504480230909406,
                            0.02908384403782351,
                            0.011192991424755083,
                            0.042001287165870115,
                            -0.002101780408696314,
                            -0.022629354893586456,
                            -0.008140670601504023,
                            -0.05424092004669234,
                            0.011598534562372958,
                            0.023068969165126987,
                            0.057215246612368265,
                            -0.0010762778023291068,
                            0.03043015510794556,
                            -0.01981323149022269,
                            -0.013322617297296824,
                            -0.014862848611189498,
                            -0.039080756356143165
                        ],
                        [
                            -0.030870056075396446,
                            -0.06265773877567837,
                            -0.05055755549155986,
                            -0.048829343604846476,
                            -0.01372327725229102,
                            -0.014241127289149296,
                            -0.02056438745713042,
                            -0.03168537471107401,
                            0.012088169101601173,
                            -0.027022270750870214,
                            -0.04298110530151278,
                            -0.01965548391462643,
                            0.01758271018792141,
                            0.0011037652272805657,
                            0.009539830626117537,
                            -0.0044065896679924355,
                            0.005859605848707006,
                            0.040886583330938794,
                            -0.00657293492743165,
                            -0.003363388246547474,
                            -0.0004496184286384861,
                            -0.026725207714063042,
                            -0.021422945844790625,
                            -0.006302321544616629,
                            0.015441099390420987,
                            -0.030547926843072865,
                            -0.02828942190676989,
                            0.04083551601474276,
                            0.02272495995043732,
                            -0.052710165648456285,
                            0.0023921235785726697,
                            -0.006122374804767356,
                            -0.012405789722724719,
                            -0.013132795287187042,
                            -0.0042488932573354725,
                            -0.028716801814509064,
                            -0.018560217022152423,
                            -0.04428145605254254,
                            0.004714465383560829,
                            -0.08091553982532607,
                            -0.019257729209972298,
                            -0.02986795385952399,
                            -0.004863309598552788,
                            0.04688231768292447,
                            0.00822312069464931,
                            -0.016678497744080048,
                            -0.009638653655500165,
                            -9.37169726991934e-05,
                            0.0027048858417766477,
                            0.05340896942528126,
                            -0.027382038698916488,
                            0.014199105861086777,
                            0.025784020404401628,
                            -0.008332236782072127,
                            -0.008074787820347179
                        ],
                        [
                            -0.0010808197794059645,
                            -0.21193910206552105,
                            -0.22030874189496502,
                            -0.051987371553002024,
                            -0.040039711696965304,
                            -0.05568629380523671,
                            -0.19299982837028326,
                            -0.1686840106739847,
                            -0.06534090079873388,
                            -0.0989335790645171,
                            -0.030835346631097247,
                            -0.07622121557538142,
                            -0.015673529081844533,
                            -0.06341268327498242,
                            -0.07313249178499906,
                            -0.03697176514472175,
                            0.00481851842566578,
                            0.08907655804538787,
                            -0.05018182815215233,
                            0.001892862033164042,
                            -0.004907432775185991,
                            -0.13893581188943507,
                            -0.03712065685541821,
                            -0.036211275511623384,
                            -0.019955716724570888,
                            -0.16199846111209948,
                            0.04972250018489177,
                            -0.03674059437973473,
                            0.025667071112543585,
                            -0.042667989742292384,
                            -0.0017421060710481105,
                            0.00011389739952250111,
                            -0.08077154647971706,
                            -0.06907559417194102,
                            -0.00972624710227801,
                            -0.20785184924255623,
                            -0.036921905356463135,
                            -0.01515125571966793,
                            -0.028485330469184347,
                            -0.2090354353913649,
                            -0.14114945810871368,
                            -0.13784553372270023,
                            -0.11262521394070617,
                            -0.0263936799888135,
                            0.013729352428675665,
                            -0.005697492008053613,
                            -0.08725209331235337,
                            -0.026430109070579532,
                            0.04677262887752814,
                            0.004305046778537037,
                            -0.15515419718302423,
                            -0.11646359231876564,
                            -0.17743356930773893,
                            -0.0030673351303516297,
                            -0.023854567479982807
                        ],
                        [
                            -0.007692458763028851,
                            0.1829195874706249,
                            0.09602674084780959,
                            0.018775645582644898,
                            0.004749149613144093,
                            0.04211539565037695,
                            0.09828344862492601,
                            0.03626229637143035,
                            0.0035327346269623697,
                            0.03353880536813548,
                            0.02055474469121132,
                            0.04233355157414246,
                            0.004129256126417616,
                            0.005078002451294469,
                            0.04665155105685398,
                            0.05041813029789989,
                            -0.005938272829114575,
                            -0.09427037967396154,
                            0.046129980890832964,
                            0.0023612772676493143,
                            0.012264830535115815,
                            0.10353430825844243,
                            0.023327375835806394,
                            0.04204793907651037,
                            0.008987397500104789,
                            0.14025770440030547,
                            -0.023194629482928778,
                            0.06421045323428082,
                            -0.001280949611967829,
                            0.03144464348740078,
                            0.004473976646571195,
                            0.0041098903471004245,
                            0.02314128036352598,
                            0.02125252062534638,
                            -0.004303231458361302,
                            0.07984487297222906,
                            0.03713817189458733,
                            0.016021328971561957,
                            0.006282233733959273,
                            0.14938061391182397,
                            0.0380187732258031,
                            0.1685558178520601,
                            0.05866097655178876,
                            -0.01756112305778709,
                            0.024382821612362042,
                            -0.0068382312849895,
                            0.026405186276096327,
                            0.018205425712658187,
                            -0.01680527287690645,
                            -0.00761474949730367,
                            0.13050195710922682,
                            0.009739206385741252,
                            0.06263627939171275,
                            -0.01907164172026676,
                            0.00862427759841422
                        ],
                        [
                            0.001197950230192532,
                            0.1419442717379439,
                            0.174439229366262,
                            0.019719688501931454,
                            -0.031895307385405816,
                            -0.0022551118019583363,
                            0.15193132501089027,
                            0.05347590231964686,
                            0.04473132624287772,
                            0.038229432257505934,
                            0.018945626366866218,
                            0.05864852394318377,
                            0.0006946386085843246,
                            0.04781837629926857,
                            0.039668829352139744,
                            -0.015574679677711919,
                            -0.005787775606040708,
                            -0.23727428013663432,
                            0.025700159640017636,
                            -0.006175022618113063,
                            0.006307811452150462,
                            0.08011456994059932,
                            0.025419098815390367,
                            0.02338253517636132,
                            -0.07550693044856276,
                            0.13812676764334017,
                            -0.06427995062585702,
                            -0.11332453426053829,
                            -0.05158700605430805,
                            0.05223413363260279,
                            0.0023337526292776466,
                            0.005306693164505697,
                            0.0342115766692141,
                            0.05905886109393966,
                            -0.016770810751896837,
                            0.04645504208181597,
                            0.0292401349869654,
                            0.00855316768789319,
                            0.019454769879865413,
                            0.15294791680071113,
                            -0.05210731323463514,
                            0.10625748176823663,
                            0.07646966077794363,
                            -0.019596135154780717,
                            -0.07619792402035419,
                            -0.025454405728224036,
                            0.057612646036661254,
                            -0.0452997500985723,
                            -0.02436621037446876,
                            -0.056049961848848064,
                            0.12917006516325827,
                            0.10342492010263188,
                            0.013913052573111285,
                            -0.026282261017724712,
                            0.00906343033202376
                        ],
                        [
                            -0.02120746017469562,
                            -0.010870992237086367,
                            -0.026757156832385373,
                            -0.05983627295965219,
                            0.023375153878539577,
                            -0.04106315711755022,
                            -0.025928891695231344,
                            0.001838411186354064,
                            -0.015988736325906878,
                            -0.026124244972783674,
                            -0.0579701319255369,
                            -0.02255392974906073,
                            0.025280908177147326,
                            -0.011416135208730173,
                            -0.004962257401407701,
                            -0.003087785056324655,
                            -0.005604581884563394,
                            0.0023141033870239724,
                            -0.005869673324974653,
                            0.0041191053344183095,
                            -0.0018910986654906467,
                            -0.009172700440673339,
                            -0.0015203047497165483,
                            -0.001840955307912756,
                            0.018194557748193646,
                            -0.03474618610084785,
                            -0.0021934326511340433,
                            0.008232145123679846,
                            0.0124957919834077,
                            -0.03683322417825361,
                            0.013253921024271717,
                            -0.0039187491958751035,
                            -0.03322863137288836,
                            0.009838687619938766,
                            -0.008914057717782474,
                            0.024914542406417765,
                            -0.0050356995912920356,
                            -0.03206024058092099,
                            -0.0212090910030612,
                            -0.021385983490181497,
                            0.06463635373836646,
                            -0.017220492567055164,
                            -0.008265224092959808,
                            -0.005354872813396632,
                            0.0185803034158146,
                            -0.014059530285381303,
                            0.0031646235212418545,
                            0.04049967816407504,
                            0.025313565050221122,
                            0.02631487309732238,
                            -0.0390490118458016,
                            -0.01746765590821009,
                            0.03204115276877585,
                            -0.02476964992430496,
                            -0.0036496223679665877
                        ],
                        [
                            0.04799763752092616,
                            0.02863937349297536,
                            -0.020911968650649575,
                            0.028246422359250747,
                            -0.0010655875809316396,
                            0.027973544719871776,
                            0.048166637694339265,
                            0.018917098056248863,
                            -0.011170520746440746,
                            0.028245471949007936,
                            0.046812065090791395,
                            0.02730421269732148,
                            0.016206209372914296,
                            -0.029315884507102524,
                            0.004856755739469019,
                            0.005545896810187382,
                            0.0006626886166657769,
                            0.020307041906892784,
                            0.01504984093629083,
                            0.00608873058552889,
                            0.0007021840185717019,
                            0.009897045923809434,
                            0.0007637411415604736,
                            0.006698589076924428,
                            0.0013625148678807141,
                            0.005923032903133034,
                            -0.012640811590084998,
                            0.000923214310678717,
                            -0.014759511955378536,
                            0.04386657450122835,
                            -0.007445057633529936,
                            -0.0023027838142399937,
                            0.029389737894907682,
                            -0.0185520309709684,
                            0.024941731454869182,
                            0.0003018486658923601,
                            0.005453321917523221,
                            0.045972462254258946,
                            -0.0029340850282446843,
                            0.006459553362671407,
                            -0.017857061135570514,
                            0.02121176979139477,
                            0.007572693624586661,
                            -0.01296940071850282,
                            0.006799262179562692,
                            0.024890572304161186,
                            -0.018931730987168056,
                            0.00614476711750207,
                            -0.03158222587619602,
                            -0.007215800134767793,
                            0.003905099956130792,
                            -0.004422835560212569,
                            -0.0036970335184266265,
                            0.023137116738838268,
                            0.018047113351785635
                        ],
                        [
                            -0.017817649950954424,
                            -0.013944762344535313,
                            -0.02138190463119207,
                            -0.018116985819764873,
                            0.017915370504654745,
                            -0.0039337161423534436,
                            -0.015109302534721187,
                            0.028454677430405525,
                            -0.0032639878999605053,
                            0.011041195580526283,
                            -0.03171920084328142,
                            -0.014093781472493728,
                            -0.005480590636086044,
                            0.008941059105078655,
                            -0.00027150490288623376,
                            -0.019600840922350052,
                            -0.004108525350474595,
                            0.08367682146992886,
                            0.0008842726047835196,
                            -0.006056393059620461,
                            0.004785270889643311,
                            0.006649908453546118,
                            -0.0015415112653643526,
                            0.0012159160249905006,
                            0.0691099307563095,
                            0.009543059904363495,
                            0.030926352731692468,
                            0.08099089632134232,
                            0.036704918940729137,
                            -0.028357760922984893,
                            0.00014860315344932857,
                            0.004385405351011764,
                            0.0030141059463658203,
                            -0.018130717806116952,
                            0.00209174252119716,
                            0.030091694552421312,
                            0.002823372660953236,
                            -0.010404568929903976,
                            -0.009914422717440087,
                            -0.013821773162936158,
                            0.04877623070941452,
                            -0.014478142830982074,
                            0.012210739358013355,
                            0.024801712686929912,
                            0.030534880098103026,
                            -0.001501931381314163,
                            -0.0011648988502752822,
                            0.026618764269521946,
                            0.002427496825310591,
                            0.03644497598505885,
                            0.017093226191773257,
                            -0.018229956467311105,
                            0.03255240517337075,
                            0.009089306998090393,
                            -0.01696320951775357
                        ],
                        [
                            -0.016508398420404396,
                            0.038332333857940826,
                            -0.09262129875454497,
                            0.008808800448999508,
                            0.0696490734100255,
                            0.024642051771692836,
                            0.033459589411149036,
                            0.1404799033522,
                            -0.04060467640709206,
                            0.05404464165011885,
                            0.005350728454124015,
                            -0.02749344686043821,
                            0.029774587122627004,
                            -0.07087088203238204,
                            0.02041556232654171,
                            0.06680532061075349,
                            -0.004156054404345409,
                            0.12508627948761983,
                            0.028551872940995524,
                            0.0011603131413178676,
                            0.013522429737131171,
                            0.021470337804624335,
                            0.0057454343748043965,
                            0.022919751696205956,
                            0.045090241894941374,
                            -0.0274814432143204,
                            0.0890013282099514,
                            0.09042104576468758,
                            0.06711050744962471,
                            -0.023132800533008695,
                            0.01829789398830775,
                            0.002980937797484588,
                            0.08979670612390782,
                            -0.043799375743193474,
                            0.025079151979599243,
                            0.11499551851846722,
                            0.013096344412735307,
                            -0.009133630908056441,
                            -0.015396432362791151,
                            -0.03501321221640577,
                            0.08819175482829913,
                            0.06155671105916807,
                            0.02895004064944511,
                            0.025024755635978602,
                            0.02650103615748403,
                            0.013033965738910984,
                            -0.04015852506605961,
                            0.0683495835269312,
                            0.04413185860408525,
                            0.06491530868623835,
                            -0.02531449434042618,
                            -0.04366670054044265,
                            0.134269090009468,
                            0.012682206384809578,
                            -0.0001786419277873214
                        ],
                        [
                            -0.0038010005684974003,
                            0.02033328801439984,
                            0.010116163604598164,
                            -0.006125719947094385,
                            -0.020168064523526624,
                            0.004054842405979986,
                            -0.046520644956579774,
                            -0.08410738314222495,
                            0.01323542772958501,
                            -0.02602598843411662,
                            0.01210944223863465,
                            0.008631776498075547,
                            -0.006249618601854598,
                            0.026129301438708303,
                            -0.014133120141451933,
                            -4.6142188647735826e-05,
                            -0.005235806963140898,
                            0.0536381008138145,
                            0.00012353287520940824,
                            0.004846134312106735,
                            -0.004754007915372674,
                            0.012276504302187706,
                            0.0026366189421124946,
                            0.009937663688240991,
                            0.0402880963674979,
                            0.03717202445563908,
                            -0.01869460853439049,
                            0.06843300905804132,
                            -0.01330347910758057,
                            0.004108938094055794,
                            -0.013826295131589037,
                            -0.002929862693913755,
                            -0.030662255252186688,
                            0.0030823147388030912,
                            0.0004247153225265667,
                            -0.04678435435140913,
                            0.004494495649680134,
                            0.004320455736977314,
                            0.011626306397526874,
                            0.0244734742380838,
                            -0.043621000410392206,
                            0.028470278665665667,
                            -0.022644080644919573,
                            0.021406312734616014,
                            0.016858824200013143,
                            0.016890860590328245,
                            0.018002588523064793,
                            0.0016891310387244821,
                            -0.011834208224715759,
                            -0.005906037239641774,
                            0.0357900035495446,
                            -0.00889035664537282,
                            -0.05020116210124341,
                            0.004202445072859796,
                            0.005804671940638696
                        ],
                        [
                            0.0203025697101118,
                            0.011609636891848877,
                            -0.07498115261988705,
                            0.005876387195251769,
                            0.0047243437454809,
                            0.005355181052660892,
                            0.12052938327885329,
                            0.049813173184421654,
                            0.002347884621687884,
                            0.07841166851205603,
                            0.007342476974345706,
                            -0.013831090860669368,
                            0.006985683228652977,
                            0.02141595975201603,
                            0.027927536348200416,
                            -0.018070485087882487,
                            -0.0011198221839122636,
                            -0.03480737596870522,
                            0.020425780059595805,
                            0.002693092619821172,
                            0.006247018721503999,
                            0.030862349182814358,
                            -0.0037577228806854844,
                            0.011043256579681235,
                            -0.03873421472954423,
                            0.04812618494493603,
                            0.043575692022949176,
                            -0.06105411124397239,
                            0.022382976334671012,
                            0.03380826031902555,
                            0.013800976668122302,
                            -0.006304232788514766,
                            0.057144084523773515,
                            -0.00607750641535191,
                            0.006685017231154813,
                            0.021920403328501765,
                            -0.006951596837479547,
                            0.019227588618564332,
                            0.008183068202127454,
                            -0.004586851623870427,
                            -0.022764968744375152,
                            0.0027032334299330048,
                            0.046752563784283135,
                            -0.04177549202656707,
                            0.0034240200588055232,
                            -0.020123434562612365,
                            0.02671021649662106,
                            0.013480452894299841,
                            0.015708785961082796,
                            0.024734079833908646,
                            0.06323514763229815,
                            -0.03727520575983522,
                            0.022388832150180945,
                            0.006884206544815978,
                            -0.014806106847997248
                        ],
                        [
                            -0.000575289718768976,
                            0.04280564052078892,
                            0.07536219484915518,
                            0.03443731569730128,
                            -0.01565930236814767,
                            0.047092681873087225,
                            -0.028522721948945146,
                            -0.05091736772021912,
                            0.02383422333936401,
                            -0.03040746399738903,
                            0.00979650083480844,
                            0.045642105899907054,
                            -0.01023097447292156,
                            0.023667574345898893,
                            -0.006254791105996105,
                            -0.012408437312706369,
                            -0.005904295188061287,
                            -0.012115931815396086,
                            0.0013979889014176178,
                            6.0468578020111495e-05,
                            -0.010456167997460342,
                            0.012749690761074262,
                            0.008188554349135065,
                            0.005197874161783495,
                            0.013637002078460215,
                            0.023452233928747186,
                            -0.06074643329164173,
                            0.022617016699315595,
                            -0.03281022219606752,
                            0.003843874308183982,
                            -0.02285394879936066,
                            -0.004755090598807487,
                            -0.03488338043521901,
                            0.010147552062194686,
                            0.00019448614231568808,
                            -0.04192213224761066,
                            0.007295322164126416,
                            0.0054157824208989945,
                            0.0024122513143234204,
                            0.04873936852670051,
                            -0.035718008938989604,
                            0.03345270448311239,
                            -0.01261614438337208,
                            0.021856729432437026,
                            -0.012506211137861786,
                            0.025019713594721067,
                            0.006531534958605547,
                            -0.0037194699028135257,
                            -0.04072905282958263,
                            -0.024310870722121247,
                            0.02971119535195528,
                            0.028091135545970404,
                            -0.0396730597578708,
                            0.012186337466155633,
                            0.01799230237869025
                        ],
                        [
                            0.019964369053580414,
                            0.06579609139851365,
                            0.010660651680871942,
                            0.03826516789540094,
                            0.0010046851918145685,
                            0.03179609537154697,
                            0.07316217140726512,
                            -0.00915906836822163,
                            0.022299318246169313,
                            0.004152177861497424,
                            0.026231439952758635,
                            0.019833720822176694,
                            0.006467640993587064,
                            0.035405495257600506,
                            0.027813178018248022,
                            -0.023066400967827465,
                            -0.003052748015517785,
                            -0.05691214733603108,
                            0.01477743953062777,
                            0.0005011501183198814,
                            0.007335072175128984,
                            0.04408985795050148,
                            0.004065539724974103,
                            0.00792479134781191,
                            -0.020655784289927655,
                            0.0663003246415271,
                            -0.011013849417304818,
                            -0.022710964719549392,
                            0.0025962481200148594,
                            0.04433783864233991,
                            -0.00018755876826288055,
                            0.005022796546867868,
                            -0.007033113920112795,
                            0.027551949783607595,
                            -0.0032759712240850183,
                            0.011056889616453125,
                            -6.865617451254763e-05,
                            0.02458059759794484,
                            0.008957520181540387,
                            0.0606302266931147,
                            -0.016194203428107845,
                            0.03840198683119228,
                            0.03465468928601046,
                            -0.009099436607519782,
                            -0.0021531579028330554,
                            0.007959162342177823,
                            0.03833981841061851,
                            -0.005616510785295856,
                            0.0210525773036099,
                            0.002349235010861211,
                            0.07021516181506673,
                            0.012786101833968897,
                            -0.0027850390462205933,
                            0.006354250749288674,
                            0.004486112453252357
                        ],
                        [
                            -0.012872262308355932,
                            -0.03633151841661881,
                            -0.09331839851341296,
                            -0.02592356336646459,
                            0.020434094228660864,
                            -0.06289561098770066,
                            -0.02296856883458915,
                            0.02694274447427763,
                            -0.021286264194204117,
                            -0.00815039417208734,
                            -0.025867829947312283,
                            -0.08061497001704625,
                            0.02932747907450193,
                            -0.0338483209705301,
                            0.00349536102125754,
                            0.03244446056848066,
                            -0.0015862157373268595,
                            0.027632836252154187,
                            0.0021380490807285397,
                            0.0024813755457337655,
                            0.00513282575383856,
                            -0.029950283828011737,
                            -0.006017346218003935,
                            0.00247701931928358,
                            0.04094110450318399,
                            -0.0463725235146139,
                            0.11845890320592982,
                            0.008391287117477431,
                            0.05347271533533264,
                            -0.038710829051495775,
                            0.03177121167066975,
                            0.0008818741896574652,
                            0.012499957938724179,
                            -0.02024885630288646,
                            -0.011779779496442995,
                            0.018080201277597564,
                            -0.011127886274083504,
                            -0.016850557529553594,
                            -0.016125830174632715,
                            -0.05770878412444027,
                            0.0571711768748649,
                            -0.011644732295770477,
                            -0.006459815843067164,
                            0.011054551373250274,
                            0.002746739499899226,
                            -0.03542063989808458,
                            -0.031060725727941576,
                            0.020927642741371967,
                            0.0891065267318679,
                            0.04331818911813423,
                            -0.05330831665889653,
                            -0.04729355892379432,
                            0.03640242213646539,
                            -0.013257635191500595,
                            -0.03239761969656464
                        ],
                        [
                            -0.0006584551718272556,
                            -0.03935213372237669,
                            0.01197147174054851,
                            -0.028500169909031547,
                            0.025873886631566433,
                            -0.04863019937546607,
                            -0.1411801088775928,
                            -0.017606850371297642,
                            0.037435654980535464,
                            -0.04224552115763034,
                            -0.022940587744206285,
                            -0.04099692028331227,
                            0.01967811773061193,
                            0.048805856608751606,
                            -0.020013776764172854,
                            0.05364853677733086,
                            -0.0004369350510837756,
                            0.10738682940562852,
                            -0.011249685885059448,
                            0.002384166883974417,
                            -0.0023739851331575166,
                            -0.030418278757256025,
                            -0.003758064505548008,
                            -0.016064127552789173,
                            0.07103466835818988,
                            -0.009397562932860575,
                            0.07214969291436187,
                            0.07751583937914362,
                            0.05962068673996389,
                            -0.016112516457056494,
                            0.018146486591420465,
                            -0.0014275153977461356,
                            -0.018707385018411026,
                            0.013476857479961659,
                            -0.016099886405261665,
                            -0.03261108325161996,
                            -0.005443180983448522,
                            -0.009266106143239798,
                            0.01547173851977281,
                            -0.04275604317403761,
                            0.04036848586085506,
                            -0.012423207360604677,
                            -0.05185658945912921,
                            0.09456166451049393,
                            0.007396254747186896,
                            0.018180044249300073,
                            0.018761568272784496,
                            0.04806781946235948,
                            0.048332830303099275,
                            0.06962896133207615,
                            -0.023949187479782138,
                            0.03310906535133513,
                            -0.0035185891830901224,
                            0.0013765081110710014,
                            -0.0031737853261232336
                        ],
                        [
                            -0.013420050305963348,
                            -0.07499793742672996,
                            -0.10977522410181208,
                            -0.000852878131779225,
                            0.019502998434813852,
                            0.01686386785028744,
                            0.008643857485585068,
                            0.04584379877131041,
                            -0.07459755048698608,
                            0.03420045069429352,
                            -0.016165091603823425,
                            -0.02460153407808783,
                            -0.010743425269732813,
                            -0.09546529029851307,
                            0.004879250088588309,
                            -0.02059984633912715,
                            0.0026878398717834324,
                            0.0465023786245376,
                            -0.006551699844545359,
                            -0.0025460226869848997,
                            0.007268453398583858,
                            -0.05574333071796696,
                            -0.0044872444558010805,
                            0.0068236069586335,
                            -0.03308382983033553,
                            -0.10236897733667161,
                            0.036441017186155104,
                            -0.018651668663055853,
                            -0.0034323089359372433,
                            -0.027102607403329104,
                            0.00443968962201767,
                            0.0023675582972302973,
                            0.05578679011750075,
                            -0.05886462006720655,
                            0.009936478696356481,
                            0.041068754717060965,
                            -0.008580118193313245,
                            -0.0004540502222282537,
                            -0.02835027741331652,
                            -0.09527607787801802,
                            0.013472119427432922,
                            -0.04082928340017353,
                            -0.010953822511162873,
                            -0.04758072880920833,
                            0.005081153360302657,
                            -0.001198136254839591,
                            -0.08166981882179525,
                            -0.010342100160141324,
                            -0.0009784135599192247,
                            -0.015214718286434354,
                            -0.09309355828429836,
                            -0.0604339170217468,
                            0.03454710856754645,
                            0.02090139321462444,
                            -0.011647824365023075
                        ],
                        [
                            -0.007709770168483311,
                            0.02358707563284235,
                            -0.04736899468850237,
                            0.0009366052623299931,
                            0.005381723206452457,
                            0.016955657023624553,
                            0.09206775989138354,
                            0.0835303349016676,
                            -0.03410404395649626,
                            0.06306537883485473,
                            0.003459499900202034,
                            -0.004525286637114399,
                            0.003281905283356108,
                            -0.04594084716587711,
                            0.0133988701720195,
                            0.011996795000318129,
                            0.0015168351394381165,
                            -0.01769522398795213,
                            0.017789298583038064,
                            0.0037285293036815937,
                            -0.005301084434561766,
                            0.005112896016375873,
                            0.014387672036465361,
                            0.00910642270149061,
                            -0.01121158785184878,
                            -0.024536771103978217,
