[
    {
        "Score_Train": [
            0.12343453088921807,
            0.27702464061381893,
            0.42246747395100404,
            0.5056163432641325,
            0.549867430741351,
            0.5723946781480613,
            0.5952864326366436,
            0.6007228084338312,
            0.6057827682814958,
            0.6276701432357106,
            0.6420637424920094,
            0.627121826729977
        ],
        "Score_Val": [
            0.12316330234478812,
            0.27385933666027706,
            0.4117815892726746,
            0.4952882201578346,
            0.5249742241733648,
            0.5232743807697473,
            0.5667725310108009,
            0.5605466267625345,
            0.5761185006364284,
            0.570727182092952,
            0.5965190612039644,
            0.586491707997548
        ],
        "Wl2_Train": [
            0.19695357075281994,
            0.16838535284927508,
            0.14288976433568484,
            0.13066742936192272,
            0.12420522490979997,
            0.12326229620171453,
            0.11621863756110151,
            0.11755981284290373,
            0.11503475972356894,
            0.11105246527449876,
            0.10852372299193458,
            0.11332661373094134
        ],
        "Wl2_Val": [
            0.19681862219547794,
            0.1668665103831682,
            0.14118200156250774,
            0.1307783672483444,
            0.12589746661341397,
            0.13178895194192078,
            0.11707225684764298,
            0.12235559343785726,
            0.11564517325630584,
            0.11659117616415687,
            0.11076115834028676,
            0.11429244738139027
        ]
    },
    {
        "Score_Train": [
            0.1337273353324524,
            0.29694634989094226,
            0.42145332366319244,
            0.517826136492141,
            0.5602745898886401,
            0.5867948170974833,
            0.5879725739889697,
            0.6042073277861013,
            0.6189741619490317,
            0.6281119749648583,
            0.6264000511913905,
            0.637455934206308
        ],
        "Score_Val": [
            0.13153419749071926,
            0.2725938666540969,
            0.4003467230546499,
            0.49358947764052286,
            0.51094964357896,
            0.5543478473489992,
            0.5657323237895442,
            0.5722891176288916,
            0.5742491283718869,
            0.5773668468238581,
            0.5856225437866398,
            0.5910384487642344
        ],
        "Wl2_Train": [
            0.19631715601756103,
            0.16300659649975194,
            0.13925105715696603,
            0.12821620519081123,
            0.12050785153859837,
            0.11537118481634656,
            0.11365774011836288,
            0.1120813180720297,
            0.10734065557544752,
            0.10646229130815522,
            0.105831908614406,
            0.10663702623302297
        ],
        "Wl2_Val": [
            0.19567566771794118,
            0.1675644530804957,
            0.14694094217796275,
            0.13699267692307607,
            0.13365580162027899,
            0.1266359571828535,
            0.12439085276535984,
            0.12292351350006714,
            0.12172504877802907,
            0.12115105085026245,
            0.11982090937526578,
            0.11837068705048105
        ]
    },
    {
        "Score_Train": [
            0.19206607142179632,
            0.36188483616702405,
            0.45705688670096856,
            0.5076511263097114,
            0.5554400691546519,
            0.5852846838765666,
            0.6002154013505987,
            0.6059638868033348,
            0.6073802667737784,
            0.6239276983930113,
            0.6335358693650213,
            0.6293973822517616
        ],
        "Score_Val": [
            0.1882517262910527,
            0.34000477793604267,
            0.42789853947695033,
            0.4819538669665384,
            0.5164703289002086,
            0.538252303463284,
            0.5529228172019798,
            0.5696309033805765,
            0.5748661246469313,
            0.581956466617195,
            0.5856768887813604,
            0.5922028773451113
        ],
        "Wl2_Train": [
            0.18539554161784016,
            0.15140191409261997,
            0.1359349811113956,
            0.12698166886856566,
            0.11835915896552146,
            0.11300947353125093,
            0.10980001163117907,
            0.11031028790370731,
            0.10738737707271198,
            0.10522184684476556,
            0.10449129128952686,
            0.10407886142202596
        ],
        "Wl2_Val": [
            0.1882122840717514,
            0.1574879541188438,
            0.14633218439957538,
            0.1367858102203866,
            0.13068363007651318,
            0.12874835526380557,
            0.1255815079033203,
            0.12260037469150263,
            0.12127238728993073,
            0.12032977820260721,
            0.11933875222832258,
            0.11843398129114739
        ]
    },
    {
        "NN_PROPERTIES": {
            "alpha": 1.3013124659231689e-05,
            "batch_size": 1637,
            "epochs_per_training_set": 1,
            "epsilon": 1.7093999040853667e-08,
            "hidden_layer_sizes": [
                30,
                45,
                139
            ],
            "learning_rate_init": 0.0015031798166605138,
            "loss": "wasserstein_loss",
            "training_sets": 12
        },
        "Score_Test": [
            0.09833523002749045,
            0.23177252422234274,
            0.3298640561050943,
            0.4294819812329792,
            0.4881209297216641,
            0.5389435719873471,
            0.5732934277165077,
            0.5853341860760416,
            0.5963985126432167,
            0.6005010425722173,
            0.6039666118914764,
            0.6125287685150544
        ],
        "Score_Train": [
            0.1083568146369226,
            0.24544197331120676,
            0.3518701039449461,
            0.45997614440455536,
            0.5030302908285738,
            0.5593139409230623,
            0.5849162747638005,
            0.5906099002383607,
            0.5992632636064115,
            0.6219635382171005,
            0.6172888433081554,
            0.6272295833471253
        ],
        "Wl2_Test": [
            0.2014192676519195,
            0.1721257477868863,
            0.15319493536045944,
            0.14309775713577705,
            0.13456680050155684,
            0.1270573769576175,
            0.12215414886466897,
            0.11977353689284669,
            0.11800287618614891,
            0.11729696781817056,
            0.11692869794281498,
            0.11502355479907998
        ],
        "Wl2_Train": [
            0.19847936410602124,
            0.1656281681010081,
            0.14678963274960333,
            0.13437342406022693,
            0.12893514367901318,
            0.12102191926988153,
            0.11644511256215209,
            0.11430739350055806,
            0.11273008305400833,
            0.10798183881115082,
            0.11135586046547649,
            0.10848979423645169
        ],
        "__getstate__": {
            "_no_improvement_count": 2,
            "activation": "relu",
            "batch_size": 1637,
            "beta_1": 0.9,
            "beta_2": 0.999,
            "coefs_": [
                {
                    "Corder": true,
                    "__ndarray__": [
                        [
                            0.03841799074153835,
                            -0.16182933710812447,
                            0.17816543411973645,
                            -0.13365075156232947,
                            -0.10778474506863887,
                            -0.015220383914423465,
                            0.23790538200054212,
                            -0.21382274653213582,
                            0.022759383139172334,
                            -0.030643592511483412,
                            0.17102048748303925,
                            0.02872902469178816,
                            -0.13782549196564517,
                            0.09811657982111326,
                            -0.05718476466503341,
                            -0.24238868859630094,
                            0.10214995566951411,
                            0.24179738572846196,
                            -0.1625107099481036,
                            -0.08321985106049413,
                            0.19748890048101392,
                            -0.17991023550462545,
                            0.07963135291906573,
                            -0.13838651741101,
                            0.22270435541041714,
                            -0.1058942969115301,
                            -0.14824385849765184,
                            0.12853975051124142,
                            -0.16978415430880353,
                            0.19053746751242776
                        ],
                        [
                            0.18125364438579925,
                            0.016746805888291635,
                            0.22114484748298863,
                            0.06323646185419483,
                            0.2232853290069117,
                            -0.08060913638243694,
                            -0.1499942289799761,
                            -0.12649753918610301,
                            0.11655578199001543,
                            -0.07446101921401017,
                            0.024837668126371032,
                            -0.04654662627171187,
                            0.12479379706207719,
                            0.20392823362353182,
                            -0.1531279237266967,
                            -0.048731569259930975,
                            -0.19589370492798308,
                            0.05503610384031688,
                            0.015864520204349856,
                            -0.09428489287815321,
                            0.03841860658553097,
                            -0.0019617483529559628,
                            0.08994480351227957,
                            0.13201259184749603,
                            -0.16740494237222134,
                            -0.020958162565759098,
                            0.179841577196508,
                            0.10203586942801936,
                            0.041778554212101214,
                            -0.22047623880151465
                        ],
                        [
                            -0.26460640102111627,
                            -0.16888623549123377,
                            -0.2128226742998942,
                            -0.22773514646723975,
                            0.1876343607120153,
                            0.1932659482827615,
                            0.25183334053531437,
                            0.12838483359425729,
                            -0.09999822756222078,
                            -0.0724320392246,
                            0.20005258852131957,
                            -0.11066526235570197,
                            0.20523947693355596,
                            0.059739582825581394,
                            0.18737000211089572,
                            0.015026603557442151,
                            -0.12201429108241532,
                            0.1164081179615058,
                            0.07580423631834779,
                            -0.14548784588400038,
                            -0.2699541958241457,
                            0.15659066588189638,
                            -0.1538839719860891,
                            0.015138114398411064,
                            0.11537657988759364,
                            0.1130120860456455,
                            -0.14536321354982357,
                            -0.020072722167051308,
                            0.15247429363843232,
                            -0.1551428327278713
                        ],
                        [
                            -0.11462528199112643,
                            0.2265147866583694,
                            -0.014161344098665693,
                            -0.053868684080098636,
                            -0.24299561228351538,
                            0.1005427801324097,
                            0.04359326732721167,
                            -0.28148114091838855,
                            -0.17566992041780496,
                            -0.10330750497753029,
                            -0.23584438108438863,
                            0.03312018993962665,
                            0.1663182400568519,
                            -0.034238208760913436,
                            0.17773685672687212,
                            -0.2889526578288465,
                            -0.13591565867694552,
                            -0.1474069903047376,
                            0.1360711687006439,
                            0.18013751173237158,
                            -0.06993880490235842,
                            0.08241332472400588,
                            0.06377796388247202,
                            0.09462800322509474,
                            -0.16979821536768167,
                            -0.046528308504762285,
                            0.191267268513527,
                            -0.18461466368784996,
                            0.25265382438599215,
                            -0.15429088009865138
                        ],
                        [
                            0.2513678383518601,
                            -0.12710829664838666,
                            -0.010752642869604017,
                            -0.08142737238964447,
                            0.2462699953825509,
                            -0.24042531174259651,
                            0.08960173791451888,
                            0.1831863365266485,
                            -0.048021712245270895,
                            -0.23789789164310046,
                            0.2804428293873423,
                            -0.12967316105527552,
                            -0.2014323369991836,
                            -0.02767212094415021,
                            -0.2103246568691785,
                            0.14764231523284327,
                            -0.18104604412451714,
                            -0.10246545586354057,
                            -0.03761050446703411,
                            0.26047789631542323,
                            0.20957282421534865,
                            0.1509318868704201,
                            -0.0012259328839939832,
                            0.022561227330918743,
                            0.028154583346898653,
                            0.26683776913724,
                            0.1760216685715122,
                            0.0737783493757767,
                            -0.22651500175016914,
                            -0.06904925100362412
                        ],
                        [
                            0.30768123503640504,
                            0.08563402112075356,
                            -0.06070352446301342,
                            -0.15897239208222896,
                            -0.06915515443807045,
                            0.2712206356658223,
                            0.07639928002123436,
                            0.202185225133162,
                            -0.14318326293751432,
                            0.21250017798526735,
                            0.1707183048085669,
                            -0.040880305311200266,
                            -0.11535102205535752,
                            0.13984348102530528,
                            0.24499978511301912,
                            -0.14262948237612413,
                            -0.19920119689981,
                            -0.13601722243740957,
                            -0.17455190838238877,
                            0.1107343690110342,
                            0.045966816043425465,
                            -0.18260011742096663,
                            -0.05246895145254982,
                            0.10564697324251683,
                            -0.06161951995655852,
                            0.06296235377752735,
                            -0.04663971943563369,
                            -0.09682442839462768,
                            0.08167599316254597,
                            -0.026476451164020347
                        ],
                        [
                            -0.08842603973010153,
                            -0.08617474497893018,
                            -0.008997664861833283,
                            0.061144825157220285,
                            0.03554313952420065,
                            -0.022765632955180637,
                            0.17463973572928787,
                            0.018105967832225813,
                            0.14385472768410465,
                            0.18780809269382343,
                            -0.12120598746018126,
                            0.013996516783838132,
                            0.188576687397247,
                            0.017348828628962806,
                            -0.13217431471473867,
                            -0.02623764419362026,
                            -0.06488825938683307,
                            0.07181927149973358,
                            0.1190777167295857,
                            0.12831112537876743,
                            -0.037355231171789474,
                            -0.10576646559148342,
                            -0.0904474992213859,
                            -0.16753874171996938,
                            -0.18008165788278896,
                            0.09432910107234614,
                            -0.13611799250971207,
                            -0.07071634454674783,
                            0.17889855384524958,
                            -0.02887318102791497
                        ],
                        [
                            -0.16592575233547704,
                            0.07704179014608416,
                            -0.18023233849344253,
                            0.07990753534864614,
                            0.08728870057682642,
                            0.28934516686055983,
                            0.16462512575244037,
                            0.05498550997588087,
                            -0.1660738172843987,
                            0.11536212347180598,
                            -0.11171500473281418,
                            -0.10403696541464087,
                            -0.005759283541661202,
                            0.09925889420464652,
                            0.16335007982535085,
                            -0.052441088973006325,
                            0.10294648193230337,
                            -0.14845739718680734,
                            -0.03907167652468265,
                            -0.17770970876877162,
                            -0.003175040294236378,
                            -0.07619273736732173,
                            0.21267155307642502,
                            -0.11646478250103047,
                            0.15437382480925627,
                            0.13098197671105416,
                            0.24844162381884868,
                            -0.09180001732233269,
                            0.1511135174911699,
                            -0.17337050701270235
                        ],
                        [
                            0.06246752019352192,
                            -0.06046354374785384,
                            0.2269711220830424,
                            0.14496282111989608,
                            0.13135048803800659,
                            -0.20529071244308836,
                            0.2171257948311768,
                            -0.14300485514259698,
                            0.04608385024507667,
                            -0.09512460347501461,
                            -0.08446852454284146,
                            -0.024947322093213212,
                            -0.0842157923104179,
                            -0.051910559060675564,
                            0.19630442292365832,
                            -0.27107982445422746,
                            -0.13297401953155383,
                            -0.14218990509257365,
                            0.24036906191153723,
                            -0.06007765242264096,
                            0.18957029190493088,
                            0.10205680697294248,
                            0.030134056314639255,
                            0.12381586520839166,
                            -0.09707899601284925,
                            0.11798994443447694,
                            -0.2163694272514138,
                            -0.14337554032275443,
                            0.035047554439881924,
                            -0.16550867014831094
                        ],
                        [
                            -0.20955027790111191,
                            0.07483202316221295,
                            0.08264298259552082,
                            0.17503466825083955,
                            0.14405198494850752,
                            0.1640778731665893,
                            -0.18001924058237154,
                            0.2789910500023846,
                            0.020091991573372086,
                            0.08139573961801434,
                            -0.11474126367143228,
                            0.09790542082324852,
                            -0.10706313922505678,
                            -0.08402558474674199,
                            0.037407897460793954,
                            -0.10601322658766557,
                            -0.12655207806040195,
                            0.1579882161142894,
                            0.06830085991123047,
                            -0.0980856824606769,
                            -0.29374821522848,
                            0.17872125746296375,
                            -0.3029248377631068,
                            -0.15349081915783763,
                            0.19100217542175915,
                            -0.06085869685538031,
                            0.149633298536197,
                            -0.1498133863476698,
                            0.25118809745745685,
                            -0.06468696816033094
                        ],
                        [
                            -0.22585279004595246,
                            -0.07721210415528218,
                            0.11869023925935131,
                            0.15063382641350104,
                            0.19034196269594433,
                            0.05686954591710456,
                            -0.2331786164628914,
                            -0.1838996242191552,
                            -0.10783186818774833,
                            0.07663994674018633,
                            -0.1704012168064181,
                            -0.06112701876804011,
                            0.20909110452424795,
                            -0.02856838789988543,
                            -0.18628079715446874,
                            -0.17011141580190708,
                            0.0474556001007409,
                            -0.046044310708545116,
                            -0.0819378613029789,
                            -0.15384046602600712,
                            -0.2538289661227555,
                            -0.0033667210527054707,
                            0.15548387518283655,
                            0.057921945162497455,
                            0.007688488307370404,
                            -0.06812943451882637,
                            -0.16826585482274334,
                            0.0748391768180263,
                            -0.05414864916529863,
                            0.006415724319530288
                        ],
                        [
                            -0.08180017644903154,
                            0.02077768130337145,
                            -0.05199906055960716,
                            0.1418085646422554,
                            0.0016039938030277252,
                            -0.288703794849476,
                            -0.21624518176685326,
                            0.15384995768466359,
                            -0.23589108997934216,
                            0.03853578483805254,
                            -0.11686176223841938,
                            0.14517946609413085,
                            -0.06787827855200189,
                            0.2552889954734671,
                            0.1226262197743645,
                            -0.23362773760175085,
                            0.21261671118211564,
                            -0.09637544002063303,
                            0.04906677718666955,
                            -0.09742825608285814,
                            0.06224382085326844,
                            0.2165837767815053,
                            0.18527980144373538,
                            0.15331969129235407,
                            0.1276785839195458,
                            -0.17584284481665552,
                            0.03624721762238483,
                            0.13696791321709229,
                            0.07272648594559937,
                            -0.061359697512011466
                        ],
                        [
                            0.06910769867467191,
                            -0.15748399798941023,
                            0.21767510253771585,
                            -0.11727567410867604,
                            0.2111903157372825,
                            -0.038274002506563036,
                            0.07880563690353219,
                            0.13130691514271278,
                            -0.04772616585457315,
                            -0.14312382969101164,
                            0.1435133448951228,
                            0.11351117998648395,
                            0.13248539093014183,
                            -0.007209259074390852,
                            -0.06066816855612645,
                            -0.15308723968992202,
                            0.12841063538947547,
                            -0.06564817470301917,
                            0.26266939337279116,
                            -0.1953544900027191,
                            0.044439781843520224,
                            -0.16557507985235423,
                            0.19529128260533346,
                            0.07525574190559413,
                            -0.04785306680923572,
                            0.15432481707414844,
                            0.05533760668324368,
                            -0.013532325347426426,
                            -0.029838320088047286,
                            -0.03633710321321384
                        ],
                        [
                            0.06659880755406439,
                            0.1658389106241915,
                            0.022815632133676173,
                            -0.10255538260861502,
                            -0.04589221056764408,
                            -0.024747451314258255,
                            -0.2212514300748027,
                            -0.07968797079062083,
                            -0.05878293969853739,
                            0.02294640248423734,
                            -0.066910066079811,
                            -0.04693169961121036,
                            -0.08475827558371551,
                            -0.12455492429385381,
                            -0.1526239187245308,
                            -0.02171186772183487,
                            0.23742932487452956,
                            0.07667020913347572,
                            -0.22981703237854628,
                            0.08099896226455966,
                            -0.13492757424099258,
                            -0.0872947401101754,
                            0.07994247195437428,
                            0.15064365712302352,
                            0.004006314363767506,
                            -0.24574680242583027,
                            -0.09906048509432235,
                            0.2726820817349775,
                            -0.09909368646125506,
                            -0.10061577144965
                        ],
                        [
                            0.1386315780378103,
                            -0.02667112041528222,
                            -0.03522227794883195,
                            0.032258051997286596,
                            -0.0036281294941641886,
                            0.04210478245731805,
                            -0.12556245791695586,
                            -0.20472999609540482,
                            0.23343778147696723,
                            -0.03998292268492895,
                            -0.18324663354264495,
                            0.005164189705984653,
                            0.23691695640004523,
                            0.15614208219954853,
                            0.14860166080779696,
                            0.12733782058793533,
                            0.01939240504966245,
                            -0.07392930383893498,
                            0.310392169961552,
                            -0.0679291443097988,
                            -0.12525831538460527,
                            -0.054016231497653625,
                            -0.08257396307979341,
                            0.2203340464867066,
                            -0.06419918985247126,
                            -0.1760916688307772,
                            -0.027208907336249963,
                            0.1676042417080099,
                            0.22089433092860666,
                            -0.10323007875093876
                        ],
                        [
                            -0.004262380704627847,
                            -0.12073305017236582,
                            -0.0752453730635678,
                            0.18541807398699292,
                            0.12905730161082893,
                            0.17435560033733252,
                            -0.12897435288803963,
                            0.180274621867376,
                            0.1967186916000214,
                            -0.014683619395562368,
                            0.23102282990763334,
                            -0.20897905401107644,
                            0.16743874367558456,
                            -0.0492478760452381,
                            0.16756150718832474,
                            0.12529810556334653,
                            0.09568106679292165,
                            -0.10464650175218046,
                            -0.09788704513538585,
                            0.22861292246461268,
                            0.08438886601979556,
                            0.14976454680334386,
                            -0.17802579644707936,
                            0.05385223136917085,
                            0.14595434950694583,
                            0.023651957241934134,
                            -0.21005609352136329,
                            -0.05495015983849402,
                            -0.08174249568980768,
                            -0.18243740146924403
                        ],
                        [
                            0.15917647220571282,
                            -0.07796640109841654,
                            0.16782073544973017,
                            -0.12103486509988251,
                            0.045763444817943214,
                            -0.12931332994161962,
                            -0.17041981486347135,
                            0.14152846148776713,
                            -0.21730423283670655,
                            0.1855378702819676,
                            0.09067078343147378,
                            -0.026940294841154854,
                            0.07659185125243517,
                            -0.04304125835672977,
                            -0.05384819278675794,
                            0.021514075750533747,
                            -0.25897009843858226,
                            -0.05755944080591603,
                            0.335690441288329,
                            -0.2658296576803709,
                            -0.01568983301173707,
                            -0.16268404113178678,
                            0.15923726806802652,
                            0.20419903266639144,
                            -0.11655178260115819,
                            0.22407388256636074,
                            -0.22879694890857558,
                            -0.17436165201399803,
                            0.10648388149005154,
                            -0.18757746743608392
                        ],
                        [
                            -0.0857043869908753,
                            0.009302535131507065,
                            -0.1300832297760179,
                            -0.043721481871444035,
                            -0.03706061854736342,
                            -0.2688548213168681,
                            0.07514352019333605,
                            -0.11761571760321239,
                            -0.276550634954476,
                            0.09309165182344058,
                            0.2257863797894064,
                            0.15448536548472322,
                            -0.16043680993113657,
                            -0.1908810829481764,
                            0.15009623402248903,
                            -0.002539691121349411,
                            -0.13871566268747815,
                            0.15514688078464753,
                            -0.14900075659085246,
                            0.0032205336476745115,
                            0.16405930960436418,
                            0.12380072807495246,
                            0.12043478312513194,
                            0.16540887467864165,
                            0.17222638659195205,
                            0.23577067147806793,
                            -0.06264924622273149,
                            -0.11580920473988873,
                            0.012871571681725421,
                            -0.04826635009439144
                        ],
                        [
                            -0.2078059378510475,
                            -0.09985344678461217,
                            -0.116934688835972,
                            0.1358687857679649,
                            0.10341939387687389,
                            0.0016903605024302707,
                            -0.17072826770156851,
                            0.1508309451598238,
                            -0.1504434189347146,
                            -0.17074509717326614,
                            0.04065368042154928,
                            0.15000456213737318,
                            -0.010308103788117185,
                            -0.05349441583837894,
                            0.21575126168516498,
                            -0.15905538065552763,
                            -0.24598571652199788,
                            -0.16796590382514787,
                            -0.11358379757961162,
                            0.11514032576926982,
                            0.06449215742753285,
                            -0.0067980761207067225,
                            -0.1408606526452632,
                            -0.24197984200475112,
                            -0.14798012986805495,
                            -0.21497724292858755,
                            0.015634095302108283,
                            0.10730555333681031,
                            -0.08708295720612658,
                            0.21277641492927876
                        ],
                        [
                            -0.2275673393345979,
                            -0.0814668846655975,
                            -0.20803335607947143,
                            0.16103474837867435,
                            -0.012489944157268519,
                            -0.02530290015704916,
                            0.003217079319623876,
                            -0.11760886264759529,
                            -0.040952021130235744,
                            0.09548812849006812,
                            0.15288957606817113,
                            -0.17664051955077723,
                            0.15029014481535397,
                            -0.04342368981667011,
                            0.22317137600708772,
                            -0.17753484701677327,
                            0.15103456531450765,
                            0.05299343630739739,
                            0.027006109492166804,
                            -0.0822908842315836,
                            0.05715250990157119,
                            0.15546266315779117,
                            0.06975161826377596,
                            -0.11224661860034182,
                            0.20555764107574895,
                            -0.08021637682314342,
                            -0.028780871184762854,
                            0.14834790505562898,
                            -0.19368091884936123,
                            0.15586998495419657
                        ],
                        [
                            -0.06457652566282147,
                            0.12161645805757071,
                            0.07702780252713735,
                            0.08856895842064019,
                            -0.2232150778496869,
                            0.03112763522491429,
                            -0.23224947763495898,
                            0.1918807223136678,
                            -0.08014283114690951,
                            -0.11574171205077274,
                            -0.16088482114110303,
                            0.05211949624280634,
                            0.14827924373541154,
                            -0.10874332626872125,
                            -0.224814016644838,
                            -0.15861095591970495,
                            0.09997973664056509,
                            -0.06847059964439317,
                            0.2506109126018194,
                            0.13318414023389305,
                            -0.11156302972028381,
                            0.015532354390989394,
                            0.08899326521662083,
                            -0.23651663632504355,
                            0.2375411819055946,
                            -0.16317706073922505,
                            -0.07627557901643546,
                            -0.010005385698376893,
                            0.007933167243943905,
                            -0.1116643471547283
                        ],
                        [
                            -0.06279355535498217,
                            -0.01995506371750612,
                            -0.20420105684362422,
                            -0.004351705317388036,
                            0.14320232302365624,
                            -0.06118615552613316,
                            -0.14551035441271346,
                            -0.06759689242748163,
                            -0.19211237105118384,
                            -0.033350656375435765,
                            -0.0007913286587809754,
                            -0.1602437480961982,
                            -0.06046729954633057,
                            0.0077911377799483724,
                            0.06852502867248773,
                            -0.16669676411461412,
                            -0.06964941661651733,
                            0.0983796695710182,
                            0.051181315040719565,
                            -0.16460010513170542,
                            -0.028030232712330037,
                            -0.13209241290889578,
                            0.12117906305766625,
                            0.14438842170821878,
                            -0.05833586032795724,
                            0.11516946973692568,
                            0.020264260973684466,
                            0.1861682708256283,
                            0.1959884346205982,
                            0.031695140609430406
                        ],
                        [
                            0.2150978694494884,
                            -0.1548884715237346,
                            -0.1560459558959464,
                            -0.16651199895399088,
                            0.14423309225624067,
                            -0.29704983629231824,
                            0.01529977353378257,
                            0.07812774258461867,
                            -0.035305063953162,
                            -0.1285463807318538,
                            -0.1743937205667476,
                            -0.10644346017839282,
                            0.1782306197153571,
                            -0.1268817201356088,
                            -0.14284414923984004,
                            0.08234612546508945,
                            0.0015827076286094631,
                            0.0928818823818372,
                            0.1733345238067141,
                            0.17524751779329312,
                            0.023262236389995052,
                            0.012447366290893791,
                            -0.08979240859872045,
                            -0.16530360753708398,
                            0.2231806257255535,
                            -0.11260246622548203,
                            0.15930991788785762,
                            -0.22297175750543438,
                            -0.03157338918231519,
                            0.20843768311648422
                        ],
                        [
                            -0.08647269300715874,
                            0.11417932833309727,
                            0.1676325547219694,
                            -0.1129959664714186,
                            0.05274128191486157,
                            0.01864023920617419,
                            0.038385809091531053,
                            0.16802673672984766,
                            -0.1075478949222575,
                            -0.21600502694974794,
                            -0.0243128970422654,
                            -0.012100453917782599,
                            0.019417298025291577,
                            0.13383122017882523,
                            0.07241561726214882,
                            0.053550117698871705,
                            -0.16691827277638,
                            -0.2030342219263083,
                            0.15709975924838948,
                            0.15095652462926087,
                            -0.04605461886805977,
                            0.20631200749692657,
                            0.026300354073984053,
                            -0.0627234952780372,
                            -0.1779019648473167,
                            0.14985961685794677,
                            -0.13492786667029713,
                            0.23412370255809634,
                            -0.20137314393659955,
                            -0.0753438177294449
                        ],
                        [
                            0.16520449169319845,
                            0.032601517731385136,
                            0.03586881437217425,
                            -0.20871762300580063,
                            0.13838506277922188,
                            0.11449907006097852,
                            0.11077014452711059,
                            0.04629851522921357,
                            0.008293155164616315,
                            0.19974485670060743,
                            0.02963530823997281,
                            -0.06671946622504814,
                            0.08323217590715996,
                            0.1204360112564258,
                            -0.22154816353939102,
                            -0.17906907731849708,
                            0.08181036016253078,
                            0.11290692950646278,
                            0.15075203045524715,
                            0.13044610126019576,
                            -0.12405906266349731,
                            0.12897528970293745,
                            -0.06083402248599013,
                            -0.10301966685366186,
                            0.1765432635151485,
                            0.11630914747157498,
                            0.16146446676700754,
                            -0.24819551989330998,
                            -0.13911767435671496,
                            -0.19512120622851656
                        ],
                        [
                            0.2123285546944356,
                            -0.09417648344276949,
                            0.1010412190780308,
                            0.1665485810298203,
                            -0.1618305833353734,
                            -0.14186214992685026,
                            0.03574477003211778,
                            -0.02539713149306053,
                            -0.17456098144755108,
                            -0.22506581457541944,
                            -0.18945079614328678,
                            0.18067608586921827,
                            0.07079390591928962,
                            -0.09431039876846826,
                            -0.07278252519150515,
                            -0.16265687451043914,
                            0.2654601081729638,
                            -0.15125832849832424,
                            0.16134199552743178,
                            0.07641432801377919,
                            -0.20692878388778216,
                            0.17464827485553053,
                            -0.09689435059666171,
                            -0.055884641943389934,
                            -0.02796243707554923,
                            -0.1377325395976355,
                            0.15308366894871708,
                            0.1956467734871649,
                            0.15721318649087157,
                            0.1425679087759321
                        ],
                        [
                            0.07328160180504979,
                            0.20593537924673785,
                            0.016852150433016955,
                            -0.1031748371463597,
                            0.031901656717484975,
                            -0.20613076672185776,
                            0.2495076492374257,
                            -0.0007864079028782852,
                            0.09272642689749633,
                            0.03756937577409429,
                            0.022743149783122512,
                            0.22379936789292154,
                            0.00442053949517881,
                            -0.05729421759768642,
                            -0.14587963020759417,
                            -0.08537684481302311,
                            -0.030784184721940104,
                            0.10020367566827261,
                            -0.10000807930260028,
                            0.07105525502888793,
                            0.1666316718442245,
                            0.007341272941749861,
                            0.13123731163251448,
                            0.15740404852124282,
                            0.10859792940248533,
                            0.19787068153061202,
                            -0.13015703082348007,
                            -0.07553794830394546,
                            0.04038720576117549,
                            -0.02998246640868258
                        ],
                        [
                            -0.021843859683346963,
                            -0.1685702675496856,
                            -0.13478181128715794,
                            -0.0757058788204323,
                            -0.1613989344658327,
                            -0.17039171219884253,
                            -0.1979683061789252,
                            -0.1373283344834222,
                            0.007083418561048457,
                            -0.03529411094266066,
                            -0.19596597849790856,
                            -0.1494248351488322,
                            0.0823862662016228,
                            -0.052611120865350476,
                            0.0457580620852129,
                            -0.08722192472468852,
                            0.11169112397319257,
                            -0.07372422765008241,
                            0.08717092260016275,
                            -0.05305506415294571,
                            0.1943882054001543,
                            0.1994851576174703,
                            0.09786044748562396,
                            -0.0811803041769024,
                            -0.10173105997835438,
                            0.09034910876596519,
                            -0.10154822266823062,
                            -0.17793204392531697,
                            0.05740972884502999,
                            0.08468366792324537
                        ],
                        [
                            0.02316015929750933,
                            -0.06366959549207486,
                            0.09963335138094133,
                            0.001028648510214461,
                            0.1878110064567451,
                            0.15002233689937794,
                            0.0904956268198176,
                            -0.27106933456720617,
                            -0.040369970177592286,
                            0.006244389171858275,
                            -0.1876630814121276,
                            -0.23161064946368493,
                            -0.08185074323881747,
                            -0.2631717973103103,
                            -0.11210751281548151,
                            0.17917193066714424,
                            -0.1742444777890027,
                            0.18270311360313488,
                            -0.09864846213171247,
                            -0.10882233356680503,
                            0.22882167354684718,
                            0.14775793630574313,
                            -0.11214158217072767,
                            0.006671582567587056,
                            0.19132446271456627,
                            -0.0888578860880237,
                            0.17282926414818958,
                            -0.12360056970278065,
                            0.07794340486307688,
                            0.028538143313802666
                        ],
                        [
                            -0.008342468335360231,
                            0.10399817519156564,
                            0.24456400761139632,
                            0.24011341159940675,
                            0.14734574453790233,
                            -0.0743170050360282,
                            -0.21396559079137759,
                            0.17779067866635181,
                            0.039870439705634475,
                            -0.0064562182320653475,
                            0.07981872329608276,
                            0.2411450953920352,
                            0.025493699718710728,
                            0.07818503361336743,
                            0.2618532116032299,
                            -0.0630760268832201,
                            -0.05499999089181314,
                            -0.09812047086891906,
                            -0.15202267948803921,
                            0.2770305742269006,
                            -0.13533270966872074,
                            0.1923671923638593,
                            0.10287855562365643,
                            0.24239229960853367,
                            -0.29995027630938315,
                            -0.19809198672945785,
                            -0.0419784788610252,
                            0.04857918510284878,
                            0.12307489538546484,
                            -0.09327302828700143
                        ],
                        [
                            -0.05947278480294007,
                            0.045522233016764814,
                            0.12593456029459515,
                            0.22040710957342893,
                            0.2116950674759059,
                            0.10638099821484155,
                            -0.015707844356264405,
                            0.11621740875883248,
                            -0.1616581649924728,
                            0.17545620061431713,
                            -0.24220304080282076,
                            -0.25147140436197646,
                            -0.03978368240406302,
                            -0.024230451591938925,
                            -0.16586070275083936,
                            -0.058760424265947214,
                            -0.006845309154347495,
                            -0.044905266897753746,
                            0.2631431811891671,
                            0.1264542381670543,
                            0.136654454745332,
                            -0.056428296465428796,
                            -0.010766069495925158,
                            -0.24906163982738774,
                            -0.14999080023208922,
                            -0.2873670502842946,
                            0.0009590928498571739,
                            0.038468759071741604,
                            0.24211375319852202,
                            0.12431469455522298
                        ],
                        [
                            0.21003420138032394,
                            -0.024246847770183582,
                            0.06512591526286844,
                            -0.17091371964512733,
                            -0.011012910537952718,
                            -0.05283447421076892,
                            -0.1762824851131825,
                            0.22527764238093692,
                            -0.10772172044602275,
                            0.053358860834849045,
                            0.02183783696654595,
                            0.10546029905804855,
                            0.16097066139075347,
                            0.16710424902481852,
                            -0.01336553386212246,
                            -0.0700844446711755,
                            0.0021885541148051937,
                            0.0405122269743529,
                            0.10226642890791109,
                            -0.23050351197508634,
                            -0.17959580846255171,
                            -0.062409044065389184,
                            0.033370981193202254,
                            -0.05565390623025429,
                            -0.12145231585251162,
                            -0.06120173891471133,
                            -0.23110784862912714,
                            0.06688064356340112,
                            -0.11001583092374327,
                            0.09897526496080138
                        ],
                        [
                            0.20694910125956406,
                            0.18418952076866182,
                            -0.008661222309726891,
                            -0.18449279502128857,
                            -0.0845437962140365,
                            -0.06210480284146609,
                            0.026076181213466734,
                            0.18253074632988134,
                            -0.04029244406440967,
                            0.10466913647514083,
                            0.17531854475452346,
                            -0.10736683165026673,
                            -0.05839068157325419,
                            -0.1477650925083693,
                            0.20580722907079896,
                            0.1653892129096845,
                            0.08657728709718411,
                            0.1590011480991603,
                            -0.11788032535136034,
                            0.2080138814852606,
                            -0.05001419086020518,
                            -0.28722496298420985,
                            -0.15451266186244692,
                            -0.148665971299983,
                            0.15700294643284488,
                            0.07750690732444081,
                            -0.12392823871473745,
                            0.17417157551856793,
                            0.042345356984579086,
                            -0.08954758848592398
                        ],
                        [
                            -0.08334686248295192,
                            -0.007660490312446633,
                            -0.1273572158048439,
                            -0.1009578304262877,
                            -0.23053121181924727,
                            -0.26541516270465026,
                            -0.023929016333958227,
                            -0.19876145788821253,
                            0.1065760723100897,
                            -0.065391503644698,
                            -0.18804038334184556,
                            0.017770326243472405,
                            -0.07676055184599334,
                            0.0151126088056128,
                            0.14329446647647887,
                            0.11821048613499557,
                            -0.13879926880118543,
                            0.07811477771624117,
                            -0.0780416232333606,
                            0.17140222969206412,
                            0.013421954221941599,
                            0.16528041232749816,
                            -0.16181882272794368,
                            0.19912445478443136,
                            -0.062371512627249215,
                            -0.08530834461224823,
                            -0.0572695838692375,
                            0.24013199273969635,
                            0.15032224521707407,
                            0.20119920491008814
                        ],
                        [
                            0.027881566979208617,
                            0.10680264836390392,
                            -0.17006526129791524,
                            -0.18830198250459845,
                            0.15231545635060337,
                            -0.05717500505102579,
                            0.14982387856959808,
                            -0.0916571531984554,
                            -0.044990697036330365,
                            -0.24780170532091392,
                            0.03460104614044812,
                            -0.14600386944659619,
                            -0.01986213951348455,
                            -0.2515197395167749,
                            0.010687785197682407,
                            0.10329036327568801,
                            -0.08511479010918431,
                            0.08329813031207464,
                            0.11434733887390047,
                            -0.1329730736313457,
                            0.04502195879750543,
                            0.1374278287350738,
                            0.2310940966278141,
                            -0.24287495058990496,
                            -0.055717364537086866,
                            0.13199064213392517,
                            -0.019475972655799655,
                            0.08070080697209238,
                            -0.10714687458740697,
                            0.0844084414434718
                        ],
                        [
                            0.16617988298268643,
                            -0.04313324960412632,
                            -0.23744437081343872,
                            -0.09079655309003372,
                            -0.1954483054881435,
                            0.042048168044239935,
                            0.086717771108949,
                            -0.19299208847217192,
                            0.15762451441408887,
                            -0.11311669744383532,
                            -0.2074012644652425,
                            -0.09044648731352378,
                            0.21354365797775132,
                            0.03999982898791974,
                            -0.013169240160602513,
                            -0.1539748070131189,
                            0.09494284825725749,
                            -0.1089716178341902,
                            -0.0073928954148852945,
                            0.04131270110421227,
                            0.05531738107584014,
                            0.16450862503392644,
                            0.07388118310169683,
                            0.1322448213962337,
                            -0.16978676891148303,
                            -0.1309853645923928,
                            -0.12250058255285949,
                            -0.17797259585616548,
                            -0.2325929825412778,
                            -0.07362346382569655
                        ],
                        [
                            -0.17687368842566906,
                            0.18742025320794736,
                            -0.056590793449866575,
                            0.22059773596718252,
                            0.038034586068168695,
                            0.25612345028420996,
                            0.06063311200402686,
                            -0.20910696686684113,
                            -0.11800447098355783,
                            -0.22484990272365984,
                            -0.2539998482247145,
                            -0.1468391949771637,
                            0.15013179937681254,
                            -0.13381853918857875,
                            -0.09717663853940421,
                            0.08031281302997437,
                            -0.10864120694567965,
                            0.07160851288399474,
                            0.10848591254580033,
                            0.0965416518880913,
                            0.18170636700435777,
                            0.21969119607455928,
                            0.11042420929626023,
                            -0.27671148194678236,
                            -0.15705679621861862,
                            -0.04721069057322314,
                            -0.22943450353813752,
                            -0.1942444319187124,
                            -0.16006598503374517,
                            0.03415222336958542
                        ],
                        [
                            0.15885981852301306,
                            0.21636896421884905,
                            0.1355541412937402,
                            0.08324506464164923,
                            -0.16944859553904407,
                            -0.18131223142864794,
                            -0.05588531635446294,
                            0.09958895582898059,
                            0.17419387580481194,
                            0.15850073958158017,
                            0.06476037388243273,
                            0.15435533199132626,
                            -0.025011918684685292,
                            -0.20796306585062369,
                            0.02830608238011158,
                            0.09053418715602805,
                            0.23075411283342495,
                            0.03173066908244935,
                            -0.14330527868531556,
                            0.013539781042395666,
                            -0.1505249829854372,
                            -0.13261102532058006,
                            -0.14030794181079873,
                            -0.06475804083118893,
                            0.17041231131983803,
                            0.008521047740734894,
                            -0.15818878986958476,
                            0.07098456674253523,
                            -0.1497437894033744,
                            -0.02452054654884103
                        ],
                        [
                            -0.3165293002338746,
                            -0.21282023102041742,
                            -0.19911357440325209,
                            0.14829989896114054,
                            -0.09347555086806372,
                            -0.23334283272147646,
                            -0.13171651797865805,
                            0.1084730884833799,
                            0.11102189319390962,
                            0.008336651058768683,
                            0.1851408437276375,
                            0.09297047938127151,
                            -0.2556006850659037,
                            0.1137702564453622,
                            -0.08371173126009653,
                            0.19378445896272317,
                            0.2257746599001822,
                            -0.06347249293775917,
                            0.01614365027181123,
                            -0.06960253651799296,
                            0.11153261837557893,
                            -0.15386974813003573,
                            0.1428978478836507,
                            -0.07037005183586496,
                            0.21286402830877707,
                            0.057094277743403574,
                            0.12126420562936387,
                            0.1708906941698856,
                            -0.17335571962417246,
                            0.153085117729451
                        ],
                        [
                            0.07313036177779976,
                            -0.09508631840732011,
                            0.1626093732492746,
                            0.27646567283551937,
                            -0.029827500053972375,
                            0.06693954618740804,
                            0.11585038951676793,
                            0.07057607346543238,
                            -0.00429654635318254,
                            -0.20508385158066353,
                            0.14697007976566245,
                            -0.10588213139025353,
                            -0.10794264296951632,
                            -0.2226368873850646,
                            0.20343360732143995,
                            0.11329495631277296,
                            0.12022113349827429,
                            0.025770582617611972,
                            0.23412925068939125,
                            -0.10146030146712143,
                            0.14170687309829447,
                            0.15986758524153868,
                            0.06691580251268933,
                            -0.14051298036852683,
                            0.0963437533973751,
                            0.04488172019231139,
                            0.04655548569374733,
                            -0.13548796351948983,
                            0.256791021948955,
                            0.18955038724820975
                        ],
                        [
                            0.2526662804327501,
                            -0.1258340352512536,
                            0.05889092892343647,
                            0.06533221148684552,
                            -0.06585973770044938,
                            -0.17083096630844077,
                            0.004073254662884561,
                            0.20433872823679766,
                            -0.05989600856031824,
                            0.04590289959469059,
                            0.0841772286439673,
                            0.10665328670980213,
                            -0.016175121405315823,
                            0.14516707625416475,
                            -0.051493865788719034,
                            -0.20474493079658052,
                            0.12620972432156577,
                            0.0595611217469701,
                            0.04683764351671374,
                            0.1159577251874847,
                            -0.047071287883115084,
                            -0.20730245432017172,
                            -0.19565266463092396,
                            0.21574381274319437,
                            -0.195579077648023,
                            0.09700290380084757,
                            0.21467007325501644,
                            -0.2387979687096834,
                            -0.1509868423549707,
                            -0.1404862916245875
                        ],
                        [
                            -0.1519048456940944,
                            0.1534136382889309,
                            -0.1503647885737233,
                            -0.11987050816611422,
                            0.07406898811891398,
                            -0.09584343455502341,
                            0.22606295581553185,
                            -0.018553459420664914,
                            -0.19244788412598526,
                            0.17730492521566196,
                            -0.07970605337273994,
                            0.1547270375628663,
                            -0.07012728815448102,
                            -0.24102460816233948,
                            0.10575107298363885,
                            0.1407147300746254,
                            0.16467776419892133,
                            0.03223434081032416,
                            0.21989614275079386,
                            0.046112139320668113,
                            0.10596999191749852,
                            -0.03193242072035049,
                            0.10475768801177464,
                            -0.16443879617121643,
                            0.011659427512022631,
                            -0.22591309500762946,
                            -0.22044988414721678,
                            0.14422773751808624,
                            -0.1233395539816317,
                            -0.20464431434348077
                        ],
                        [
                            0.1517466836180032,
                            -0.14489800404402606,
                            -0.23592964296300634,
                            0.011270683584096471,
                            -0.19718998975184004,
                            -0.0602566856995122,
                            0.042477189879519275,
                            -0.05790438235835145,
                            0.025948624046013665,
                            0.17055830179445916,
                            -0.09621523976115987,
                            0.22569105792626543,
                            0.012859561635290121,
                            -0.18895212654310165,
                            0.06308103853656026,
                            -0.21807445074505008,
                            -0.21838279432062635,
                            -0.24145761205334684,
                            0.015584492269370453,
                            -0.0969201957102643,
                            -0.12445611665930524,
                            -0.010730654488117655,
                            0.10823722417559832,
                            -0.002270288397929249,
                            0.049075802813367785,
                            -0.13617317804865509,
                            -0.10191896031969569,
                            -0.03436085781539049,
                            0.14117044177585636,
                            0.06150732207907506
                        ],
                        [
                            -0.011065546984304888,
                            0.18871000744981964,
                            -0.13715445900523196,
                            -0.04345912284063307,
                            0.10834565573963656,
                            0.0607823705696183,
                            0.1062517832132317,
                            0.1446197416817514,
                            -0.1405133152487861,
                            0.20866294318433545,
                            -0.16961751669808264,
                            -0.19406777542024745,
                            0.04964565245732744,
                            0.12248057299221743,
                            0.1834513596838466,
                            -0.09694926113189316,
                            -0.049069479631188094,
                            0.2371349171951806,
                            0.1621007521111632,
                            0.08657999150163469,
                            -0.03849712479446421,
                            0.1358547426096593,
                            0.1589061447097427,
                            0.08503722476410353,
                            0.2200555020937504,
                            0.09004558621289896,
                            -0.07442024089664966,
                            -0.11704873039917377,
                            -0.0901363162368289,
                            0.22391640140016825
                        ],
                        [
                            -0.19770075607687765,
                            0.13359504105176384,
                            0.14454859241487017,
                            0.10407553163483126,
                            -0.06904618429490986,
                            -0.11544539035857919,
                            -0.046840121014912084,
                            0.21668950956386926,
                            -0.04977068564761627,
                            -0.1894093509724427,
                            0.11494157300588946,
                            -0.13758354476267567,
                            -0.22805839501616512,
                            0.08961211964057293,
                            -0.1422302119053639,
                            0.1476105538751158,
                            -0.15041779891614424,
                            0.10589162337221379,
                            -0.04180853393376851,
                            -0.030895255504130706,
                            -0.16577460458674761,
                            0.038368459043647225,
                            0.2009466350764565,
                            -0.23289972394921002,
                            -0.01724429449931135,
                            -0.03992921027552523,
                            -0.10868538828702445,
                            -0.06172627705754381,
                            0.13390014465448424,
                            0.010133231969364683
                        ],
                        [
                            -0.0978354451299158,
                            0.09013112402249004,
                            -0.08155524980842388,
                            0.10267846299376875,
                            0.2448703530263109,
                            -0.19487355634870465,
                            -0.17761800034242894,
                            0.005257754107046045,
                            -0.1629659010793524,
                            -0.003600008429972187,
                            0.1347086315270961,
                            0.19497421637045542,
                            0.12363672970325988,
                            -0.1460121630664286,
                            -0.032130794268415426,
                            -0.17125353502380303,
                            -0.01266564096741292,
                            0.04259444395038853,
                            0.07592672267781081,
                            0.02345599018964069,
                            -0.0036572103445912,
                            -0.03950036873818569,
                            0.0568269124449475,
                            -0.009258670692334027,
                            0.09547511494501235,
                            -0.1482316023407514,
                            0.016082219698646538,
                            -0.15072347400952682,
                            -0.19023083720448475,
                            0.03925578575175728
                        ],
                        [
                            -0.3324540303226991,
                            0.09617084326383146,
                            -0.09032591697812563,
                            -0.12524140484119964,
                            -0.07927213772048353,
                            0.036357995940693874,
                            0.15143821753589856,
                            -0.05331378788257415,
                            -0.22751939063888799,
                            0.04838162738779594,
                            0.07459394121746908,
                            0.08716567526851154,
                            -0.10744059460112246,
                            0.1761011953842262,
                            0.24434440917777922,
                            0.011788657149787768,
                            -0.0634463153338702,
                            -0.15258465224884596,
                            -0.208120873642652,
                            0.02674228367807938,
                            -0.03948434606876756,
                            0.05368480059122874,
                            0.27214022487070355,
                            -0.06182590530182903,
                            -0.13014481981035134,
                            0.22196060404962117,
                            -0.050608029412753275,
                            -0.20123816917924098,
                            -0.13367315667600554,
                            -0.229425199205855
                        ],
                        [
                            -0.13226609532865125,
                            0.20019506085455607,
                            0.053382237568404774,
                            0.1418533028849279,
                            -0.016275448878870717,
                            -0.23787638958369015,
                            -0.04680695347235565,
                            0.20133347517330868,
                            0.023677738227526314,
                            -0.1116108503543572,
                            -0.12263986193041158,
                            -0.04550997154086062,
                            0.09237454679893264,
                            -0.20305806615576583,
                            0.2684287158738679,
                            0.17736464588080095,
                            0.019873070203904414,
                            -0.06261966474470369,
                            -0.30467097261045345,
                            -0.1521768362085595,
                            0.16251143870203674,
                            0.0012170292322721658,
                            0.26370980725177606,
                            -0.08570312073782813,
                            0.20989062908682152,
                            -0.1634104837378548,
                            0.20389911368079236,
                            0.03583894119878244,
                            -0.11560681917134831,
                            0.19549595592741678
                        ],
                        [
                            -0.34197600870154793,
                            0.08532864744541975,
                            0.10773007345757556,
                            -0.1315385104363461,
                            -0.06797566274658261,
                            -0.21157517042375168,
                            -0.2427156115645335,
                            -0.012857391175986081,
                            -0.36839338720443743,
                            -0.04700767933117293,
                            0.03225568925596642,
                            0.02758289815652483,
                            -0.19451595011106537,
                            0.005665406863962606,
                            0.23552847590909123,
                            0.13563823219054602,
                            0.26936980964206597,
                            0.02456961808419533,
                            -0.1777381724071209,
                            0.24375467057007127,
                            0.06418915621319564,
                            0.3185976597797423,
                            -0.04339333427697818,
                            0.19258907325370642,
                            0.07383829797445936,
                            0.11291014362130124,
                            -0.1440370526960646,
                            -0.06487967959938139,
                            -0.10103686187673505,
                            -0.19503361583071838
                        ],
                        [
                            0.3273577792379254,
                            0.15610758339425082,
                            0.11164706031807133,
                            0.03697918042082147,
                            -0.11099638500603413,
                            0.24733294584925683,
                            0.20272017258421546,
                            0.25004866598229486,
                            0.05154908428006944,
                            0.10105152972744438,
                            -0.028578155542808823,
                            0.1531121039299753,
                            -0.019114017411534026,
                            0.20553016001078436,
                            -0.18505052097506738,
                            -0.017298718334180996,
                            0.03939091633016578,
                            0.050648151666836685,
                            -0.06580015484045731,
                            0.10899536205635442,
                            -0.23379161477667432,
                            -0.36670837454839306,
                            0.13755239358335114,
                            -0.14790492182110124,
                            -0.16447395262172693,
                            0.1523223146331875,
                            -0.13046382761804856,
                            0.08812350445792015,
                            0.15623752124829782,
                            -0.061457711088201264
                        ],
                        [
                            -0.1415344664433335,
                            -0.038274997030746064,
                            -0.12798187904326763,
                            -0.051183010464606035,
                            0.06052479564227861,
                            -0.22419532537078546,
                            0.198252657873717,
                            0.1976957865750129,
                            0.03641362817432436,
                            0.09376871425451362,
                            0.08722344271106391,
                            -0.23112912478290956,
                            -0.2038804070809403,
                            -0.2562712744373803,
                            -0.11227621697336362,
                            -0.0827355491495334,
                            -0.2712673913481234,
                            0.10878816329002336,
                            -0.1589522894023298,
                            -0.043075811074969265,
                            0.18358119015455301,
                            -0.2322318433864446,
                            0.10341961769579262,
                            0.09938039399131944,
                            -0.21407819298074487,
                            0.24539913826076212,
                            0.0922323943936376,
                            -0.10312159765282312,
                            -0.1814816219111108,
                            0.2254152925765997
                        ],
                        [
                            0.12198765034109608,
                            -0.05167973229423757,
                            0.017149283006211397,
                            0.14463502433912895,
                            0.14675575267972238,
                            0.13436567852955358,
                            0.15337045334026658,
                            -0.008388483445062283,
                            -0.2596262256922555,
                            -0.22595897081721694,
                            0.19077138253885584,
                            -0.06531506628838411,
                            0.020992204469407742,
                            -0.19281202399704864,
                            0.042049719258445924,
                            -0.02922211525496102,
                            0.20440958754194405,
                            -0.11668677365592973,
                            -0.3089071031553189,
                            0.27682492929415875,
                            0.19786936744591963,
                            0.04400277820706016,
                            -0.10158357456480038,
                            -0.23686673626866753,
                            -0.11287866368802604,
                            0.19688449769482813,
                            0.03928988211007893,
                            0.05753789975717172,
                            -0.09527867984908056,
                            0.229887320363459
                        ],
                        [
                            0.06349978635971291,
                            0.024019834162048347,
                            -0.133658965167131,
                            0.08905059557712855,
                            0.1686496842247249,
                            -0.2680019681311632,
                            -0.2380851733412372,
                            0.015027334246864626,
                            0.19664038164877332,
                            -0.014468119752088398,
                            0.21836096554755696,
                            0.18327248950372102,
                            -0.16592389304546779,
                            -0.025672861872580003,
                            -0.05467452060695903,
                            0.024356975016523577,
                            0.17867508941581808,
                            0.1442569035596063,
                            -0.23484370631446294,
                            -0.008510588180155616,
                            0.06646836956360314,
                            -0.03751522216297244,
                            -0.07143456652229523,
                            -0.11279356696143412,
                            -0.11369336184267655,
                            -0.02990069143252209,
                            0.009159992692782535,
                            -0.18715567974415737,
                            -0.05114113968458168,
                            -0.08127461977503567
                        ],
                        [
                            -0.16981303954917198,
                            -0.1309335742235275,
                            0.03630436232329353,
                            -0.16144114224298337,
                            -0.10057288851921475,
                            0.04077353086771649,
                            0.20872224282348753,
                            -0.15034238358824947,
                            0.1752086147281174,
                            0.10500708048959144,
                            0.0049505925261017275,
                            0.12072053649570279,
                            0.11410087066088555,
                            0.19950695973729998,
                            -0.08955635490396532,
                            0.0684213917219253,
                            -0.005881426804059982,
                            0.1722787893598589,
                            -0.001504085681393519,
                            -0.027961868217327924,
                            -0.057367459793984076,
                            0.20677239764338287,
                            0.16240888831354697,
                            -0.14036788693446528,
                            -0.23032755023981294,
                            -0.06883442518954366,
                            -0.1455419100297295,
                            0.14755732061657587,
                            0.11760985317453301,
                            0.08507339784180809
                        ],
                        [
                            -0.2627574883008515,
                            0.14399942833871351,
                            -0.033323298022195975,
                            0.146994633727038,
                            -0.2414983621852082,
                            -0.15902210372733797,
                            -0.010272073002980438,
                            0.09455872181016135,
                            0.08918888129511467,
                            -0.24640909362139754,
                            -0.034710624986004815,
                            0.11435701107799748,
                            -0.2911583577359638,
                            -0.27645468671910395,
                            0.15895958107654476,
                            -0.08518925569820195,
                            0.2405617744707757,
                            0.03530390288561876,
                            -0.12709936557512963,
                            0.2807114676826767,
                            0.09383048475513416,
                            0.032065602611042215,
                            -0.17371415711032184,
                            0.050973296228453986,
                            -0.0063050872598594526,
                            0.04012116100726456,
                            -0.19353639285674915,
                            0.05516181284946333,
                            0.07387356513045754,
                            -0.1291868486191507
                        ],
                        [
                            0.1092185942350537,
                            -0.1030560963204564,
                            0.24448156648060895,
                            0.002246738458605042,
                            0.1703482967437771,
                            0.02628249730935994,
                            -0.34669030323486644,
                            -0.14566752640733965,
                            0.13201439131161,
                            0.046242101774165593,
                            0.024882462069608917,
                            -0.10979092995521197,
                            -0.0018555595977455075,
                            0.08177492548734822,
                            -0.08504300313875159,
                            -0.11345983955704148,
                            0.30215853942924026,
                            0.07219190188787156,
                            -0.21604927968378337,
                            0.11087259309803413,
                            0.3032165023574564,
                            0.11648784468913065,
                            0.12907307232332146,
                            -0.1298985106618897,
                            0.1781604477879996,
                            -0.08650772441631234,
                            0.05849926572723753,
                            -0.12928038336176714,
                            -0.11085192288126575,
                            0.19532161714712779
                        ],
                        [
                            -0.09056404909044011,
                            0.19781957500315644,
                            0.07950412996327036,
                            0.12426296503297579,
                            0.10249023177928987,
                            -0.0531516950279825,
                            0.018341228874178522,
                            0.21379283640408864,
                            -0.06180426708919201,
                            -0.20385954637594725,
                            0.03138651336475796,
                            -0.12057643601510744,
                            0.01885873206625622,
                            -0.2615306447550182,
                            0.12994488118927197,
                            0.07614314033237811,
                            0.045439420490748776,
                            0.05483450220839108,
                            0.019521321983982338,
                            -0.12793897463930082,
                            0.2949515410597798,
                            0.19260030830231933,
                            -0.028729568075534596,
                            0.21923387019931834,
                            0.22288303524609882,
                            -0.012396470871302995,
                            -0.12152006685287343,
                            0.0601345712834753,
                            -0.18611598947764774,
                            0.191588353329471
                        ],
                        [
                            -0.23107844106419362,
                            0.20543495698994912,
                            0.2391808513347184,
                            -0.03592207812011406,
                            0.013356037252600464,
                            -0.1419397935072434,
                            0.10772379320743063,
                            0.040564001245424405,
                            -0.1972617023418578,
                            -0.2407277299278296,
                            -0.10871168747924999,
                            0.08271013025587744,
                            -0.2794899368166405,
                            -0.15106074781073775,
                            0.1221585823821259,
                            -0.23865616434178397,
                            -0.046442252669546054,
                            -0.1153973570383177,
                            -0.12306130484862474,
                            0.26632796965979394,
                            0.11375991845613719,
                            -0.05197575081338353,
                            -0.23251539256054843,
                            -0.10369580085454123,
                            0.13718564938803698,
                            0.15472859235560985,
                            -0.1563880148070238,
                            -0.17819611465926696,
                            -0.06705380163981728,
                            0.2064822908984842
                        ],
                        [
                            -0.2261274933273152,
                            0.054055230992766504,
                            -0.04782971687032911,
                            -0.14017622299426974,
                            0.09739127506071261,
                            0.020829015241152986,
                            0.17049327512897977,
                            -0.19644752997360515,
                            -0.2126782488699485,
                            0.05723343412304383,
                            0.09461218125823863,
                            0.22738076142194977,
                            0.18934107229186423,
                            0.1725708682336319,
                            -0.07609354099896413,
                            0.08312045781805953,
                            0.12849673577000625,
                            0.027018375091190962,
                            -0.14714732324951152,
                            0.1391558702734155,
                            0.233534060879248,
                            0.0317949323873312,
                            -0.16097278694693976,
                            -0.01737471558491702,
                            0.29075663227446014,
                            -0.002127255860514838,
                            -0.20126037145128434,
                            -0.08660354906880549,
                            -0.18080394242175857,
                            -0.13587960237816832
                        ],
                        [
                            0.07847007481151488,
                            0.09274157493025718,
                            -0.020852304253545374,
                            0.04721489685795084,
                            -0.1481607546712629,
                            -0.11261952160865614,
                            0.002207561220122534,
                            0.055050575390859606,
                            -0.07710191653010262,
                            0.02289192689177461,
                            -0.1416363062861731,
                            -0.05299816803901589,
                            -0.13071545675873347,
                            0.20559230231469672,
                            0.03632146826695896,
                            0.2244054939950491,
                            0.04822196995095578,
                            -0.11033564408261265,
                            0.06218928504425365,
                            -0.11624153910592853,
                            -0.10397606916057668,
                            0.06895336211357482,
                            -0.028427308120480454,
                            -0.20525834826536837,
                            -0.17724710741694283,
                            0.03591991645397163,
                            -0.23672023780691026,
                            0.19346220712152523,
                            0.010461132554685042,
                            -0.05200785094747435
                        ],
                        [
                            0.07065571314079927,
                            -0.05281619658115211,
                            -0.06920914858623185,
                            0.06489664744642114,
                            -0.16464855952898905,
                            0.22058067499072675,
