[
    {
        "Score_Train": [
            0.7163569552214604,
            0.8522717080294864,
            0.9113049771008941,
            0.9242388357477462,
            0.92944164069142,
            0.937977144241471
        ],
        "Score_Val": [
            0.6768953156406934,
            0.8335079057594527,
            0.8924930875671468,
            0.9085719860036641,
            0.9116950466937881,
            0.9270640510125909
        ],
        "Wl2_Train": [
            0.09304109097416782,
            0.07100680775052257,
            0.05573329071270382,
            0.05039312348549888,
            0.048950042343369735,
            0.04404147701166085
        ],
        "Wl2_Val": [
            0.10212973936311978,
            0.07650573696381371,
            0.06061684034836484,
            0.05448252310649145,
            0.056034301534317585,
            0.04764246500414536
        ]
    },
    {
        "Score_Train": [
            0.7994386394029367,
            0.8715707522651441,
            0.9147806334801072,
            0.9314016765141379,
            0.9395364523947309,
            0.9449242917112535
        ],
        "Score_Val": [
            0.8056779045264828,
            0.8566240979562397,
            0.9084577712759463,
            0.9015542726171084,
            0.9173475107155191,
            0.9291834866183437
        ],
        "Wl2_Train": [
            0.08542647073305613,
            0.07019162213451999,
            0.05426983462592646,
            0.04727022472413777,
            0.043676899978884784,
            0.04152646012520654
        ],
        "Wl2_Val": [
            0.08374549342519093,
            0.07404538268783181,
            0.05603982142369235,
            0.05569604007030758,
            0.05131922444895247,
            0.048013306049990205
        ]
    },
    {
        "Score_Train": [
            0.7683283308108474,
            0.8702198742812592,
            0.9153188830577356,
            0.9351499538191919,
            0.9423160330016899,
            0.9456517572215153
        ],
        "Score_Val": [
            0.751425320315875,
            0.8613229937880573,
            0.893620474126947,
            0.9223517831452851,
            0.9257043237992745,
            0.9324916342943306
        ],
        "Wl2_Train": [
            0.08658641323571332,
            0.06993432632088305,
            0.05568465418682862,
            0.04734697652387544,
            0.043749082076410276,
            0.04271503888487074
        ],
        "Wl2_Val": [
            0.08910349237701162,
            0.07419161470689069,
            0.060816632902632554,
            0.05220502827398796,
            0.0490244447130368,
            0.04659004850823324
        ]
    },
    {
        "NN_PROPERTIES": {
            "alpha": 0.05,
            "batch_size": 600,
            "epochs_per_training_set": 5,
            "epsilon": 1e-12,
            "hidden_layer_sizes": [
                50,
                50
            ],
            "learning_rate_init": 0.005,
            "loss": "wasserstein_loss",
            "training_sets": 1
        },
        "Score_Test": [
            0.7062555846851752,
            0.7917106566867516,
            0.8491779385383762,
            0.8520157060702424,
            0.8567579575085196,
            0.8882590911458411
        ],
        "Score_Train": [
            0.7847514876262784,
            0.8613687223379531,
            0.9096060407652969,
            0.9289871075457588,
            0.9368631083846852,
            0.9406450302392786
        ],
        "Wl2_Test": [
            0.10442673838688175,
            0.09433537346381952,
            0.07960329950381032,
            0.08208640679529758,
            0.07896936709510706,
            0.06673697486800041
        ],
        "Wl2_Train": [
            0.08706045033414854,
            0.07230986784864112,
            0.05817026483299096,
            0.05037381653249378,
            0.04665305858684428,
            0.04711965853649977
        ],
        "__getstate__": {
            "_no_improvement_count": 0,
            "activation": "relu",
            "alpha": 0.05,
            "batch_size": 600,
            "beta_1": 0.9,
            "beta_2": 0.999,
            "coefs_": [
                {
                    "Corder": true,
                    "__ndarray__": [
                        [
                            0.004017143768339066,
                            -0.0017689319545727677,
                            -0.00346115320100914,
                            0.0012843021623664063,
                            0.000980268939191668,
                            0.0011097002939896403,
                            -0.0004822487120869246,
                            -0.003649856850255583,
                            0.0016019994622258303,
                            0.00037123516526420123,
                            0.0033373677634619524,
                            0.0015642189056696825,
                            -0.002431638581109396,
                            -0.001414650593546513,
                            -0.0004965368097601852,
                            0.005305542216714838,
                            -0.0008427163710174393,
                            0.00019461788337225616,
                            0.0013725475086643144,
                            -0.0032869448229835923,
                            0.00018909955377027408,
                            0.0016336498490261554,
                            -0.007875453342817976,
                            0.0004151850789241891,
                            -0.0019116092813854142,
                            -0.00012462287002263197,
                            0.0009237098655567977,
                            -0.0007553541236706302,
                            -7.252338544574326e-05,
                            -0.004967048265968898,
                            0.0013086642556044046,
                            0.00026186943322823445,
                            0.001698526350086912,
                            -0.0029344399443638315,
                            0.0004156924242769165,
                            -0.001619270556168155,
                            -0.005101016258697495,
                            0.0013775009448558605,
                            0.0015079475406359882,
                            0.0004444109669636926,
                            0.0012190093295941784,
                            0.001925522199821272,
                            0.0003887378138642376,
                            0.0015363672340212523,
                            -0.002471271029055532,
                            0.003590233259953706,
                            -0.003627843357381564,
                            0.003451923154486145,
                            0.00014076375546152273,
                            0.00243786890916014
                        ],
                        [
                            -0.0006566709608885874,
                            0.0050462731434264005,
                            -0.0022899647332552484,
                            0.003829578304078565,
                            0.0042442279203490285,
                            -0.001216161108450695,
                            -0.002817574926088596,
                            -0.002598252566154594,
                            0.004500982791382635,
                            0.0010446625089934715,
                            0.007222552487579253,
                            -0.00037279227333110964,
                            -0.0013736024267045589,
                            0.001937138429267648,
                            0.000844150306627594,
                            6.488096769042412e-05,
                            -0.0010738182938380058,
                            -0.001380420423273595,
                            0.0010249740407075065,
                            -0.00463390564269551,
                            -0.0015939715470881235,
                            -0.0002678824088819202,
                            -0.0066220892011637,
                            -0.00013115519147440636,
                            0.0022253394339956578,
                            0.004513459188729083,
                            -0.005352642337473938,
                            0.0010805464914949324,
                            0.0009385315821519691,
                            -0.002742570338663451,
                            0.0009051861068374825,
                            0.00024523867768858564,
                            -0.000336718546476804,
                            0.002056588384636025,
                            0.0017862916586482464,
                            -0.0015687444602134465,
                            0.0023170824338141723,
                            -0.004635691771229432,
                            -0.0007357455102794501,
                            0.0003740906397292431,
                            -0.0006221197448438903,
                            0.002538633296776831,
                            0.001985432798791557,
                            0.0028584806155601337,
                            -0.0006866622546304792,
                            0.004439436187500314,
                            -0.0010393127287256871,
                            -0.00013898800143888635,
                            -0.002190974146147244,
                            0.002749673559601215
                        ],
                        [
                            -0.0003336455004604688,
                            -0.0037789340973333097,
                            -0.0024751920123380596,
                            0.0006311289448779928,
                            0.004085215578922308,
                            0.0013510264357404734,
                            -9.176983060726787e-05,
                            -0.008343331232481982,
                            -0.0007137698994324198,
                            0.002294949873929571,
                            0.007117404510201573,
                            -0.00014643847604481344,
                            -0.002412032447743908,
                            -0.002009239129087944,
                            -0.005153196605693746,
                            -0.0011271307522300854,
                            6.145168166370358e-05,
                            -0.0018714710957341424,
                            0.00347774278464803,
                            0.0009082884162827051,
                            -0.0018933562530370313,
                            0.0005066242962941268,
                            -0.009602083669272978,
                            -0.0019303761044449268,
                            0.0008557447278705445,
                            -0.001519682947535908,
                            0.00017978625239429337,
                            -0.00022588071301227035,
                            -0.00048660495677455966,
                            -0.003372857106688749,
                            -0.000670210257139133,
                            0.004298705574404676,
                            -0.0015748315218082876,
                            -0.0028994163806011198,
                            -0.0013349488086020907,
                            -0.001663505229597022,
                            -0.002704812887058813,
                            -0.002394842920690096,
                            0.0035557435843425935,
                            -0.0033333931846570393,
                            -0.001977437146015051,
                            -0.0010491871768217715,
                            -0.0006187567879969537,
                            -0.00029733401481883063,
                            -0.0007156266496178587,
                            0.003439136224345441,
                            -0.0036123680016481334,
                            -0.0019371827512538696,
                            0.0003575469746731789,
                            0.0028334240139565392
                        ],
                        [
                            -0.0021353521107181092,
                            0.0016258465827395268,
                            -0.0038464877114898835,
                            -0.0007494243711469906,
                            0.0032464198021117207,
                            0.0013311653057289578,
                            -0.001263571815263103,
                            -0.001050862498335668,
                            0.003758288586128281,
                            0.006957742134703333,
                            0.0020175117028833184,
                            0.00015914889512467977,
                            -0.0022466456337033903,
                            -0.0004481832185878084,
                            -0.0036391818546856955,
                            0.0024205427414407013,
                            -0.0006325097610700722,
                            9.164020972003673e-05,
                            0.005691048993240185,
                            -0.0008446124605646203,
                            0.0022034975927566268,
                            0.0023434142317138623,
                            -0.00990428227517562,
                            -0.0026276818746079266,
                            0.0022642156569444697,
                            -0.00244572034400048,
                            -0.0025251533355330614,
                            0.0004715819762748577,
                            -0.0029820709775098815,
                            -0.004422805755519631,
                            0.0004716294588783933,
                            -0.00047064438768793616,
                            0.0003722443105016387,
                            -0.0018634158443190892,
                            -0.002691108788037161,
                            0.0031087091256901587,
                            -0.001193768190972765,
                            0.001351692677425656,
                            -0.0017134918117089816,
                            -0.004736224393602739,
                            -0.0008079089613577898,
                            0.0018353945090626783,
                            0.0010789830508013342,
                            -0.00021023982263357926,
                            -0.0008823553610285364,
                            -0.0008864470581561423,
                            -0.00042079408250206843,
                            -0.0033544301226469337,
                            -0.0009539995325805828,
                            0.0027659877567853233
                        ],
                        [
                            0.006963950966320963,
                            -0.004087754817766412,
                            -0.003980884592375537,
                            0.00214095765329317,
                            0.004921481966585907,
                            -0.00046432878509224866,
                            -0.00013645071503179455,
                            -0.0024654552864534452,
                            0.0038877723716746514,
                            0.0014709033263773106,
                            0.007210224529916666,
                            8.08690397097076e-05,
                            -0.0008427017127358215,
                            -0.00025000796268136784,
                            -0.0027965009753093814,
                            -0.0007222378371396451,
                            -0.004303745123984812,
                            -0.002961225354568385,
                            0.004747989302222371,
                            -0.004997404689518207,
                            -0.003494639411881025,
                            0.00045396096924071676,
                            -0.004964108459091416,
                            -0.0006697723348390443,
                            0.001742142426849691,
                            -0.0013982645624495372,
                            -0.0023143203574373526,
                            -0.0016035348294490286,
                            0.0011243851574405392,
                            -0.002360388120723429,
                            0.001094186951962887,
                            0.00028643290629178336,
                            0.00030035670314390497,
                            0.0023663641600798003,
                            -0.001685044250401042,
                            -0.0007755471361165016,
                            -0.00495750396422075,
                            0.0005614145182157263,
                            0.0007568282183061461,
                            -0.0013205526648147133,
                            -0.0013427994579181407,
                            0.0004369451082478212,
                            0.00914035321722138,
                            -0.0013858087055658528,
                            -0.00016833002062981145,
                            0.0003840699044355834,
                            0.0023132179193024855,
                            -0.00025141526088195775,
                            0.000672918718742982,
                            0.0006956129827330702
                        ],
                        [
                            0.0004654740970582487,
                            0.005877186325545605,
                            -0.005218388383393056,
                            -0.0007560030811055116,
                            0.0008573618177738715,
                            0.0029770509970864865,
                            -0.0013422967594337678,
                            -0.0031855880262614197,
                            0.0006312012722005647,
                            0.0012357333915164776,
                            0.007971447777742691,
                            -0.0019277811178271312,
                            0.004492605511185765,
                            -0.0018995563055966608,
                            -0.004259775498280624,
                            0.005074501013023519,
                            -0.003233659324575498,
                            0.00197398446479487,
                            0.0009721596535162204,
                            -0.005953292551681501,
                            -0.001698521136675944,
                            -0.0019263559325605594,
                            -0.008074888743334386,
                            -0.0018159073982442892,
                            -0.001768576832865331,
                            0.00373651328609681,
                            -0.006652982327307126,
                            -0.0018898538332529809,
                            -0.00022568766908002323,
                            -0.0015546153794940621,
                            -0.0026007013126779343,
                            0.0024218881255171285,
                            -0.0010379143928930855,
                            4.4025723807510726e-05,
                            -0.003845956196329883,
                            0.001535054250728926,
                            -0.0035579807626125175,
                            -0.0005227297485067803,
                            -0.00026765392330600714,
                            -0.0043106151625864715,
                            -2.8199260402627052e-05,
                            0.0015185385987019438,
                            0.002430471561416501,
                            0.0032653359705305416,
                            -0.0030437791782874746,
                            -0.0010654929533077267,
                            -0.003209554644637185,
                            -0.00013314216735700826,
                            -0.004225374000059515,
                            0.0022463104453537977
                        ],
                        [
                            -0.002633241469951262,
                            0.0003687036938722235,
                            -0.006113003501774339,
                            0.004672781946022731,
                            0.008183467966665468,
                            0.0009043728444904463,
                            0.0008381243418401277,
                            -0.008875054877738701,
                            0.002907408129531349,
                            0.0019459412575737632,
                            0.005255474591526108,
                            0.003107808574051166,
                            -0.0014212942686943739,
                            -0.0001871420328812362,
                            -0.0005937943027684415,
                            0.002073520033504828,
                            -0.00365513085592614,
                            -0.001414444087206356,
                            0.00581641874291677,
                            -0.0006657762601129553,
                            -0.0017440606830445111,
                            0.0031215938335064485,
                            -0.0108151404648761,
                            -0.0002328004443025039,
                            0.0015204400294331426,
                            0.0008085229002071548,
                            -0.0022447071433654387,
                            -0.0011198049032236392,
                            -0.003208721737951623,
                            -0.0018385665009918795,
                            -0.0035037471715135245,
                            0.0018827988148138633,
                            -0.000637039275557049,
                            0.00040708134500849497,
                            -0.0031432445941362965,
                            -0.0017734160146550475,
                            -0.002418795755688482,
                            -0.0015947732549384467,
                            0.0008951001186902306,
                            -0.0027119892350865728,
                            0.0007868698400002013,
                            0.0016498032441730369,
                            0.007024582120552008,
                            -0.0012108509460492431,
                            -0.00309481649396999,
                            0.0013148213805942905,
                            -0.0015054282001605206,
                            0.0006668780581633754,
                            -0.0017404634447359246,
                            0.0018520578995482237
                        ],
                        [
                            0.0063011682648588686,
                            0.0017629443443618739,
                            -0.005431118574763758,
                            -0.0018951062355070437,
                            0.0014267372359512255,
                            0.0011268775224684692,
                            0.00033078514085788595,
                            -0.0033505957996206068,
                            0.0030618311273851477,
                            0.006648926024229876,
                            0.004914005874553815,
                            0.002586461918559604,
                            0.000539720876705462,
                            -0.0006961463140408597,
                            5.725273710482318e-05,
                            0.0024751129866493215,
                            -0.003936914275243194,
                            -0.0032253337664139795,
                            0.004446080836243343,
                            -0.0063486094359430645,
                            -0.0020869692160998803,
                            -0.0023805845528276233,
                            -0.007571433336658696,
                            0.001783480597908844,
                            0.0010173663821217247,
                            0.004098907194012614,
                            -0.001391392769826072,
                            -0.000647591250190607,
                            -0.00426550546314906,
                            -0.002864463078455163,
                            0.000879683318981481,
                            0.0028856558182736966,
                            0.002872929300522158,
                            0.003192704064112666,
                            -0.002408657294338814,
                            0.0009843745699893926,
                            0.00303804149299794,
                            -0.0005878764258896928,
                            0.00028260398003621313,
                            -0.004954456276942393,
                            0.0012988012786955467,
                            0.0017088537179756756,
                            0.006523945943285457,
                            0.002273178061330299,
                            -0.0006596829969236801,
                            -0.0001279766655074711,
                            -0.0014771681450741136,
                            0.0008864748638876969,
                            -0.0016557471137917902,
                            0.0020170881747505424
                        ],
                        [
                            -0.004285219522695482,
                            -0.0009857501218451254,
                            -0.004823196736499154,
                            0.0003865182674290052,
                            5.275068525730463e-05,
                            0.00014174144259415287,
                            0.00187649048466204,
                            -0.003116862613582387,
                            0.0012707870314476607,
                            0.0001355459913411121,
                            0.006102745008977001,
                            -0.0005906491624080005,
                            -0.0013816327936394107,
                            -0.001586641373962545,
                            0.0011128287793728052,
                            0.006224279918296421,
                            -0.0013090797519248387,
                            0.0011860288789135283,
                            0.0036385255756536204,
                            0.0023702232071191225,
                            0.001775316611837258,
                            0.0009161087675569773,
                            -0.0015870854416451272,
                            0.0033399093831505133,
                            0.003935935947190798,
                            0.000736546427886756,
                            -0.0006505290960596264,
                            -0.002831017351897132,
                            -0.0018249276284914798,
                            -0.0065608532971128605,
                            -0.002594300996176714,
                            0.0005262667373718284,
                            0.0008844351957750733,
                            0.0031636708092891994,
                            -0.003608057242043614,
                            -0.0004644737984686323,
                            0.000492962011945117,
                            0.0009090287155087166,
                            0.003111578738156942,
                            -1.356185860428732e-05,
                            -0.0003944821189120684,
                            0.002468461273908308,
                            0.0010864464095870394,
                            -0.0025854875198228966,
                            -0.0026846080319413252,
                            -0.0022582540722768793,
                            0.001649275224276441,
                            -0.003463088553956182,
                            -0.0007125023707138499,
                            0.0034975210701406623
                        ],
                        [
                            -0.0014287850834116224,
                            0.002112656969691931,
                            -0.005883826913969976,
                            -0.0008042821922153997,
                            0.0015051163149067109,
                            0.0014544607083145113,
                            0.0013485832015254213,
                            -0.005382866634597658,
                            -0.0013005033494955796,
                            0.006602048136876186,
                            0.0026818462997254063,
                            1.0094692835822746e-05,
                            -0.0022735478462047,
                            0.0025304195064214993,
                            0.0002654900873456105,
                            0.006275996866851701,
                            0.00023649713273576277,
                            -0.0002296897571488867,
                            -0.00020268824199276808,
                            -0.002067671231929102,
                            -0.0019381467884910606,
                            0.0034812697192611528,
                            -0.0008146030225116779,
                            0.001155867678161162,
                            0.001675656438785163,
                            0.0015685690310390514,
                            0.00012520408228930142,
                            -0.0040089756083706435,
                            0.0002551135332678052,
                            -0.0054049563287813405,
                            -0.003884852775827692,
                            0.002481175364863113,
                            0.0010451345528669467,
                            -0.000605344777892862,
                            -0.0029436807916426327,
                            -0.0006791068480328556,
                            0.001696617352578153,
                            -0.00034068310956318696,
                            6.929566394338338e-05,
                            -0.0003314723962397063,
                            -0.00010934248979637942,
                            0.0017700827805691695,
                            0.0010468123259815216,
                            -0.0023143017261375892,
                            -1.0348706287678817e-07,
                            0.0015960335127437925,
                            0.0005646405356483902,
                            0.0031928459848094273,
                            -0.002809441054609562,
                            0.0010900612109210788
                        ],
                        [
                            -0.001920617015950407,
                            -0.00342976933278463,
                            -0.006905637025307885,
                            0.0009091181987275308,
                            0.0063311602703581184,
                            0.0011629438443353482,
                            0.00030871539257130304,
                            -0.006444874082323556,
                            -0.0016295833763228839,
                            -0.0014787559242765592,
                            0.0021043821630975343,
                            -0.001968649639325259,
                            -0.0016682855368155903,
                            0.0009049973829496072,
                            0.000689504785471102,
                            0.005163859476329482,
                            -9.247860334785757e-05,
                            0.00137481984097212,
                            0.00026841121988984497,
                            0.0007610764490937968,
                            -0.0012853268167274997,
                            -0.0014224356224248253,
                            -0.011094745402833695,
                            0.00020991304759049127,
                            0.0015295326899784165,
                            0.003993040033108177,
                            -0.0039058828476395777,
                            -0.0030616605339418247,
                            0.004877839796410074,
                            -0.0064222473286637966,
                            -0.004031866173616711,
                            0.000127724355584951,
                            -0.0010346193329537664,
                            0.0011951095838922442,
                            0.0015662759692917046,
                            0.004580770521927609,
                            -0.00294917840046456,
                            -0.0033086191567810288,
                            -0.00048304835350870183,
                            -0.002959847132696854,
                            -0.00040025276694521396,
                            0.0006480107121593177,
                            0.003122056531667909,
                            0.0015420425628789975,
                            -0.006181386509203496,
                            0.001169601917953555,
                            0.0017538758572799467,
                            0.00027193452939846104,
                            -0.001988668800953502,
                            0.0026092090461473107
                        ],
                        [
                            -0.002064060622332385,
                            -0.00481261062388603,
                            -0.00020123257664020306,
                            -0.0011595489533202995,
                            0.005383141273798634,
                            0.0012479301689916514,
                            0.0017445546739636953,
                            -0.006358197047454312,
                            -0.002062955009748197,
                            0.0015583433521067316,
                            0.004566609020236844,
                            -0.0027041897166781613,
                            0.00025666427140786285,
                            0.0021702081063079874,
                            -0.0018932443334865275,
                            0.004861252445635176,
                            0.00038193866314173674,
                            0.0008581841522477576,
                            0.004277304754860664,
                            -0.003428341897788213,
                            0.0003260236951190623,
                            0.003140905947382959,
                            -0.0019879619210738794,
                            0.002529830088586882,
                            0.0017619707386461595,
                            0.00598677511123494,
                            -0.005039152765857439,
                            -0.0034604084772855742,
                            -0.0018292730375554977,
                            -0.005482356130156302,
                            -0.00610373575071899,
                            0.0006025351677209428,
                            -0.000435113365721861,
                            0.0017114773016143007,
                            0.003319921697594669,
                            0.005543600612282147,
                            -0.003033043674633627,
                            -0.006917741119044895,
                            0.00287176687418851,
                            -0.002746603023710379,
                            0.00122447375499859,
                            0.0018678535372765996,
                            0.003954344122550831,
                            0.002177596787650906,
                            -0.006553075357358686,
                            0.0020923487905823625,
                            -0.002500349379269333,
                            0.0005306206087706501,
                            -0.004935592081208387,
                            -0.0001718862947505973
                        ],
                        [
                            0.0032020717853493176,
                            -0.006080966555091593,
                            -0.005584893204383176,
                            -0.0014261567585644006,
                            0.007714050734213636,
                            -0.0018446241335766148,
                            0.0031629648883253073,
                            -0.0036817960025319497,
                            -0.0036186962404313257,
                            0.005732826102693425,
                            0.0025496151178446033,
                            -0.0016500415379001006,
                            0.00520889435184408,
                            -0.002728051535768552,
                            0.0014820020222078764,
                            0.0059355924922295505,
                            -0.0005880983738193969,
                            0.0011310003401211422,
                            0.0024570588987554206,
                            0.0023311932279522943,
                            -0.0024100296659241207,
                            0.001698857800636487,
                            0.0022152900490676943,
                            -0.00050506617781112,
                            0.003074860503947484,
                            0.003374919235918509,
                            -0.0033733488157590653,
                            -0.004446422468412573,
                            -0.0009688045492067173,
                            -0.006470935239657616,
                            0.005075910309202839,
                            -0.0016068606505550936,
                            0.0003911919429552777,
                            0.0003617209920222309,
                            0.0017709567366294325,
                            0.004111551173122012,
                            -0.0021848890362346014,
                            -0.005823557581895542,
                            -0.000816482131335834,
                            -0.004797321747132771,
                            -0.0030474013255017553,
                            0.00037991944807786403,
                            -0.002748707957760086,
                            0.00013330762957194752,
                            -0.0037391696791767874,
                            0.0012004862626276314,
                            -0.0007059772738876849,
                            -0.0034145292808401275,
                            -0.0049121303514129125,
                            0.001472492074377464
                        ],
                        [
                            0.0018552121527318616,
                            -0.0006128147819051316,
                            0.006893628928560676,
                            -0.0026391790815918493,
                            0.003822900061689002,
                            -0.0013731060976021558,
                            0.00010820052364674871,
                            -0.00668295848821043,
                            -0.007727925019052423,
                            -0.0006239817811579092,
                            0.007370330898070753,
                            -0.0007594226103674985,
                            -0.00200022462359929,
                            0.000633958462874247,
                            -0.0019105208348609438,
                            0.008523047575123717,
                            0.0023711165536256305,
                            0.004042199118940944,
                            0.0030272467430366053,
                            0.00732172687610721,
                            -0.004446063858996132,
                            0.000845461351167311,
                            -0.003182049761370978,
                            -0.0013357687287949213,
                            -0.00451788302242983,
                            0.003995222731503145,
                            -0.0034600379435554434,
                            0.0004280373916311429,
                            0.00047339945905097095,
                            -0.007667189412673324,
                            -0.0006436819802899646,
                            -0.002159384520998201,
                            -0.0002458365477303096,
                            0.0006733583954824163,
                            -0.0021434464547316102,
                            -0.0004914778056730707,
                            0.003228560821012777,
                            -0.00818017496983692,
                            0.0006811536568558211,
                            -0.0032501653639215164,
                            -0.0010026857837385353,
                            0.0008082661659275351,
                            0.003244810829820663,
                            -0.0032256152962346967,
                            -0.005918036741161299,
                            0.006526956502343663,
                            0.0006685511603137191,
                            0.0032202263989581474,
                            -0.0038414706420868217,
                            0.0003165216970918237
                        ],
                        [
                            -0.0019657789575256964,
                            -0.0035396066264026345,
                            0.004180590518995293,
                            -0.0031730022590455553,
                            -8.488883115392406e-05,
                            -0.0012568912102906124,
                            0.0007032277609032073,
                            -0.00574740606054587,
                            0.001643728163078097,
                            0.0007372310939918331,
                            0.011593433801762353,
                            0.0015522235819220719,
                            -0.0002217857990512045,
                            -1.0725045854104371e-05,
                            0.005233008653913106,
                            0.00779755107608696,
                            -0.0024248877149836115,
                            0.0044558828994124495,
                            0.001880476749368496,
                            0.00417496982377626,
                            -0.0015905882777551685,
                            0.0008447170993496893,
                            -0.002069589864386674,
                            0.0002506300028908015,
                            0.0016392575676597175,
                            0.003207090581881709,
                            -0.004342545029387243,
                            -0.004402579526240284,
                            0.0011146819724342067,
                            -0.008568603086458033,
                            0.008484327149095262,
                            -0.0060881101731524835,
                            0.0017526041095166373,
                            0.002267334989650714,
                            0.0027592871201675075,
                            0.000645693553233692,
                            -0.0020403620198085294,
                            -0.0002674085797004536,
                            0.003217128077889785,
                            -0.003308667706769727,
                            0.00019161605351234178,
                            -0.002079246955946154,
                            -0.0006233401574924618,
                            -0.0025957046603157117,
                            -0.001941053145888096,
                            -0.0007304871936136875,
                            0.0004379106124111667,
                            -0.002379450897088664,
                            -0.004614083604713117,
                            -0.0035270584471522354
                        ],
                        [
                            -0.007488554846441936,
                            0.002909995191477175,
                            0.003954096870249463,
                            0.0022099401732089082,
                            0.007817446657619485,
                            0.0033579854578017474,
                            -0.00015684445085248962,
                            0.004698475485624947,
                            -0.008754672115586889,
                            -0.0027611636387351764,
                            0.004498789068509429,
                            -0.0002609139003115761,
                            -0.0030415809685462973,
                            3.5147142563177755e-05,
                            -0.0023392783238978475,
                            0.00980638423553376,
                            0.0025235993941548464,
                            -0.0036899540980190274,
                            0.0007072291090874926,
                            0.0011030790138625564,
                            -0.0005475292468394331,
                            0.002404466899130128,
                            -0.0060348112529337115,
                            0.0030050184969118024,
                            -0.0024526894851579746,
                            0.00574290367049736,
                            0.004303852729248963,
                            -0.004969449282655285,
                            0.004053368949071317,
                            -0.009034499010922011,
                            0.002639291368112556,
                            -0.0037448339753374644,
                            -0.0010358223483984967,
                            -0.0005612732701657226,
                            -9.214629531332933e-05,
                            0.0042395366616607534,
                            0.0014992722068679232,
                            -0.011496696426383126,
                            0.003319276952926833,
                            0.0021666901178784333,
                            0.00258754247151561,
                            0.0018706096081187815,
                            0.004961825657257688,
                            -0.0035272888856774974,
                            -0.0027814360647434744,
                            0.0009499771844403482,
                            0.0038225013474454017,
                            -0.0030775149100833593,
                            -0.005255825608288765,
                            -0.0010402830907160123
                        ],
                        [
                            -0.0027338662524372735,
                            -0.005590270577384236,
                            0.0065430684434560306,
                            -0.004782923473236973,
                            0.008448757214608162,
                            0.0062961629659702145,
                            0.0011139089966054022,
                            -0.005438141061927003,
                            -0.0001893656004977295,
                            -0.0039072906451470555,
                            0.008322356588861882,
                            0.0008707744142108641,
                            -0.0007680461812594535,
                            0.0001999192235937976,
                            0.004737386971203894,
                            0.010279404630633877,
                            0.00517315285401562,
                            0.003343458733054376,
                            0.0012597758776012606,
                            0.0034521622936590367,
                            -0.0026137912964068386,
                            0.005125784880108438,
                            -0.004204831541945753,
                            -0.003035763952552252,
                            -0.004840819975569843,
                            -0.001071199814550024,
                            -0.004742929173107565,
                            -0.00505490484372989,
                            0.005998490745150231,
                            -0.00940196207626062,
                            0.007901142863569272,
                            -0.004737976942707576,
                            -0.0007014660207675795,
                            0.003388584826808508,
                            -0.001523993567416138,
                            0.0052271023793451004,
                            -0.001046606781172201,
                            -0.008917208932514237,
                            0.002687193971523912,
                            -0.004639574011454606,
                            -0.00013386048431531376,
                            -0.0017303908517273775,
                            0.0037562446085638145,
                            0.0005258718901944284,
                            -0.009828253880079522,
                            0.0015141849129061366,
                            0.001506230964555091,
                            0.0005564554067862662,
                            -0.004089347958600197,
                            0.00015100765725098642
                        ],
                        [
                            -0.005213505606953842,
                            -0.003016919779921704,
                            0.005201230306564454,
                            0.0044637979465574655,
                            0.003680831206225599,
                            -0.0003555503245874199,
                            0.000794976171676345,
                            -0.003975587215251614,
                            -0.008071582701259026,
                            0.0028074108045284523,
                            0.007191415366780397,
                            -0.0015543238972573203,
                            0.003920318478257679,
                            0.0014841466203900494,
                            -0.003210194624153172,
                            0.008557536647693632,
                            0.004242584453951275,
                            -0.00416236359469314,
                            0.001377105099824332,
                            0.0003549631807215735,
                            0.0008959605167010666,
                            0.0014131893665235795,
                            -0.0024817879349977494,
                            0.0011591465081981392,
                            -0.0014495172089303485,
                            0.005410700122977652,
                            -0.006962879345486509,
                            0.002437315330284683,
                            -0.0004917460260102262,
                            -0.006439989169903558,
                            0.00019449151698125173,
                            -0.0040628711500572115,
                            -0.000534633969884218,
                            0.0033808171430441854,
                            0.0025875680873004517,
                            0.0032058875786382846,
                            0.0029895194915066795,
                            -0.009180728633011977,
                            0.0026217140458884972,
                            -0.001119450959913324,
                            -8.855034615505363e-06,
                            -0.0012865076885968637,
                            0.0006836352703878407,
                            -0.0010046625281428657,
                            -0.010737496674017145,
                            0.000373833469108613,
                            0.00027002480469742393,
                            0.0008034725476059238,
                            -0.005785227501017541,
                            -3.379029739461719e-05
                        ],
                        [
                            -0.0019276287093722344,
                            -0.00369081044557217,
                            0.0009634911791916433,
                            0.0006022495896390303,
                            0.002997056738787831,
                            -0.0015506131758993384,
                            0.004870627369976349,
                            -0.005372822503691817,
                            -0.00843846962937749,
                            0.0017242693758274946,
                            0.0036306842250150573,
                            0.0006345707883455463,
                            -0.0001986419049160672,
                            0.0011383237859141197,
                            0.00020929938217139731,
                            0.0072858581189443414,
                            -0.0008950378832050191,
                            0.0007130057054285725,
                            -0.0008877568075627092,
                            -0.0011049579981510856,
                            -0.0038235994862726667,
                            0.005559024667677125,
                            -0.0007848475512170331,
                            -0.00012726919589495356,
                            0.00034424136708415085,
                            0.004426346006652591,
                            -0.001041420828968555,
                            -0.0040618230441380404,
                            0.009876550368172018,
                            -0.007424675435686375,
                            -0.00011933704125838924,
                            -0.001862442376389844,
                            -0.0009852241288398256,
                            0.003999372740011945,
                            -0.002606769663403035,
                            0.0032727028496524445,
                            -0.001605692804878247,
                            -0.009981531527212718,
                            0.002532423488778054,
                            -0.005274780784578268,
                            0.0018459510093275597,
                            -0.001716169040082073,
                            0.003273280714243763,
                            -0.0018926156153042414,
                            -0.007639448044615476,
                            -0.0013094889663598694,
                            0.0016112458284735418,
                            -0.0018922656997216222,
                            -0.004631085782746756,
                            0.0036193932657925965
                        ],
                        [
                            -0.002058243739802528,
                            -0.0006910964415160264,
                            0.0070402978620972825,
                            -0.004192268670397328,
                            0.0051753409472603835,
                            -0.0011396808812492419,
                            -0.0011494705137843762,
                            0.0036117355766660713,
                            -0.0005069244341528812,
                            0.0003324528197467695,
                            0.005022485603670019,
                            0.00026887466449658623,
                            -0.00034083111959003274,
                            0.0020226598401111556,
                            -0.0024641767129475224,
                            0.008095798469465548,
                            -0.0005537484244740108,
                            0.006747204308632062,
                            -0.0013000141211912371,
                            0.003051174274260729,
                            -0.0027741370404780336,
                            -5.8066333542270635e-05,
                            -0.0006404434168378503,
                            5.722533887827816e-05,
                            0.002716485607797888,
                            0.003908588656167364,
                            0.0019126704377526288,
                            -0.006399935575839789,
                            0.0026394914329342972,
                            -0.008451095412770528,
                            0.002940665379175216,
                            -0.004562762449020486,
                            0.0008007957662365809,
                            0.00041331793799791996,
                            -0.002436970265714406,
                            0.005728099121749146,
                            -0.0013208804408096166,
                            -0.008869012545763447,
                            0.003455066668607067,
                            -0.002487959973061848,
                            -0.00012447947174568384,
                            -0.0008256212681025918,
                            0.0045666809621954544,
                            -0.0029011069276686824,
                            -0.00938148609844475,
                            2.0685849760280475e-06,
                            0.00204970016159754,
                            -0.0009292460255588527,
                            -0.006134684802638105,
                            -0.003954967675929935
                        ],
                        [
                            -0.0047341435969643466,
                            0.0013326038551889252,
                            0.003539829362305801,
                            -0.004212321514775102,
                            0.004442728818085431,
                            -0.0037583180656725404,
                            -0.001963954042696566,
                            -0.006078568130282611,
                            -0.008646433791092197,
                            -0.0022376736042289238,
                            0.00631157218182009,
                            -0.0032435844050926225,
                            -0.00039057060924417076,
                            0.00015392836569555197,
                            -0.003634578183431139,
                            0.004893710778594423,
                            0.0005615887406525569,
                            0.002722115243675433,
                            -0.0013080348611081084,
                            -0.0006888164220906334,
                            -0.004653598611768107,
                            0.005292198181971262,
                            -0.0017625826874326203,
                            0.00047509993985923117,
                            -0.000941365722489263,
                            0.005844474464873145,
                            -2.952370347538986e-05,
                            0.0025222953371852375,
                            0.0016223958008137701,
                            -0.0030632764885984193,
                            0.006669944556360743,
                            0.0001976025395725379,
                            -0.0013345123498193037,
                            0.00033345566785866396,
                            -0.002247774894429174,
                            0.005169327705822017,
                            0.0022916102802448594,
                            -0.010457233412084982,
                            0.003624990797210558,
                            -0.0025142532697149432,
                            -0.003364069225290644,
                            -0.002211340395896981,
                            0.00455488420825739,
                            -0.0036439874109462007,
                            -0.010700758777664982,
                            0.005028240461457076,
                            0.001565477738646338,
                            -0.00026623658469862317,
                            -0.0051608417792443064,
                            -0.0026199519897183994
                        ],
                        [
                            -0.003773428350617436,
                            0.0005755951646411561,
                            0.008233407265110876,
                            0.004002467474832533,
                            0.005666548541294416,
                            -0.002883181957039097,
                            -0.0023380397055208653,
                            -0.00778358920132649,
                            -0.0066866523568790874,
                            -0.001401338395702526,
                            0.008430058562579518,
                            0.0010331307899888388,
                            -0.00045711299570228963,
                            -0.0025809551821916943,
                            8.169669669931384e-05,
                            0.006182387960419419,
                            -0.0010050359191752,
                            -0.004031628269855749,
                            -0.0026493477366953816,
                            0.001875653582500174,
                            -0.004214266623224118,
                            0.0016147867582623346,
                            -0.00022017897393802644,
                            0.000909981385465965,
                            -0.003497649847770989,
                            0.007464140615967921,
                            -0.004292341713797049,
                            -0.004306568313405539,
                            0.0045365337828998775,
                            -0.00803247528664883,
                            0.0073139246426765425,
                            -0.006108772855081649,
                            0.0024067736319473474,
                            0.0001172982745276099,
                            0.002773486879495009,
                            0.0062663548931937195,
                            0.0030384844204673564,
                            -0.01190291156395616,
                            0.006691323940344135,
                            -0.001853110953812774,
                            0.0005040180187962015,
                            -0.0013334623067537636,
                            0.003357856494243445,
                            -0.004603652254444551,
                            -0.009919814024565972,
                            0.011076131267829746,
                            -0.0002865942525045955,
                            0.00028306894101170116,
                            -0.006813286552065595,
                            -0.002205255848457389
                        ],
                        [
                            -0.0014880662981393736,
                            -0.0005045140898078676,
                            0.008984944835274275,
                            0.000452485799050699,
                            0.008004935275760539,
                            -0.0028066559016836677,
                            -0.001951966804963434,
                            -0.0015310892144440745,
                            -0.006858703572671341,
                            0.0012664181070692754,
                            0.0107152836199568,
                            0.002654454053647393,
                            0.00401691346449584,
                            0.00014620498084214913,
                            -0.005272854943858355,
                            0.005910004855814604,
                            -0.0014973715129545152,
                            0.003360654296181193,
                            -0.004554357422144896,
                            0.0033400974936104344,
                            -0.0051617048616479,
                            0.0037394925081853285,
                            -0.0010517733412730144,
                            0.002995716522746947,
                            -0.002031565705674216,
                            0.007181352965254217,
                            -0.005496387860067161,
                            0.0002101803080715175,
                            0.010218145417311529,
                            -0.003523202366258295,
                            0.008294439050172162,
                            -0.010079371387182474,
                            0.009949379501611547,
                            -0.0005997552439691788,
                            -0.0002326941484889749,
                            0.002668123874839491,
                            0.0027419876438815882,
                            -0.011011122778226167,
                            0.0028133741252765426,
                            -0.0037494605655875833,
                            -0.003266486255839906,
                            -0.004409320138221367,
                            0.005098685600681287,
                            -0.004451093069247427,
                            -0.012338648368214213,
                            0.0023329437504313873,
                            0.004708061646037573,
                            0.00021688571337254403,
                            -0.007714422213008639,
                            -0.0030382469726077006
                        ],
                        [
                            -0.0011456836097069622,
                            -0.0009690762987407363,
                            0.008144483252330107,
                            0.0024873819180681565,
                            0.004903830256539469,
                            -0.004561076357433311,
                            0.005942223793640912,
                            -0.00791063801023418,
                            -0.004547146937610757,
                            0.0023404701770945915,
                            0.009179144564599815,
                            -0.0006235936747687913,
                            -0.002632601446207982,
                            -0.0018629293991393396,
                            -0.000992456031091753,
                            0.007501705022967215,
                            0.006278953678902809,
                            0.00031058924699377033,
                            7.080411483970098e-05,
                            0.002709933782238266,
                            8.634729905915607e-05,
                            -0.00016266596655713377,
                            0.00022238632308025177,
                            0.0032817510777200273,
                            -0.0012215834590842006,
                            0.002409079545020546,
                            -0.006318427527822038,
                            -0.005271064981671855,
                            0.0033073778196646177,
                            -0.00788616560749294,
                            0.008569908382336101,
                            -0.005762510512313217,
                            -0.0006076157535930449,
                            0.0045677388591513065,
                            -0.0012167636443654924,
                            0.0002599705118407113,
                            3.2188837666197526e-05,
                            -0.01244503215746133,
                            0.0072136743523121445,
                            -0.003126451491413374,
                            -0.0021348134841837397,
                            -0.003715396221050804,
                            0.004185283429293229,
                            -0.0032989587301154527,
                            -0.006262072163038487,
                            0.004387453346075949,
                            -0.0037724519098626674,
                            0.003197112388500385,
                            0.0003680977726084672,
                            0.0015962804163731806
                        ],
                        [
                            -0.0015008607553048591,
                            -0.0005937047304890387,
                            0.00581916556853104,
                            -0.0027693439699102733,
                            0.006672286396516801,
                            -0.003412304039048261,
                            0.00508659547085641,
                            -0.008313962680112884,
                            -0.01041843878726241,
                            0.0015889858445573145,
                            0.010564222327407852,
                            0.0012565114754996237,
                            0.006137302341864631,
                            0.0019608943054619282,
                            -0.002413319049660172,
                            0.005769865427034139,
                            -0.0018800684438541916,
                            -0.0018210659752199256,
                            -0.002391761092197476,
                            0.0052872493258005315,
                            -0.0022715303583702756,
                            0.00298178532813568,
                            0.0010757006761786302,
                            0.002026080421804952,
                            0.001535295020335813,
                            0.006424575279088362,
                            0.0008409395560599156,
                            -0.004456042893242287,
                            0.004481971366343265,
                            -0.005686680833186473,
                            0.008076964815235767,
                            -0.004109799479814658,
                            0.0030746565042141225,
                            -0.0024397904930526875,
                            0.0026857997572657093,
                            0.003991106529566242,
                            -0.0012820653074467696,
                            -0.012311166550786333,
                            -0.004175821768539766,
                            -0.0031799853177898406,
                            0.002042718268049517,
                            -0.004127003874892137,
                            0.00305539163520659,
                            0.0006923029236806931,
                            -0.01098736711214367,
                            0.010850608045152588,
                            0.004873362949266418,
                            0.0018766350477302752,
                            -0.0042157770761147,
                            -0.001575990642494941
                        ],
                        [
                            0.0018278306006707795,
                            -0.0006765496067512164,
                            0.005614691563730621,
                            -0.000687692128405313,
                            0.009691902852283333,
                            -0.004123159895385012,
                            0.005102235331704352,
                            -0.00923320211381809,
                            -0.0010586305266379861,
                            0.004905474086827654,
                            0.00977856689634525,
                            -0.00038284233886226447,
                            0.0046837884322482376,
                            -0.0027368534387420735,
                            -0.00545123599527076,
                            0.00553426567663065,
                            -0.0022845630842200718,
                            -0.003995394384832128,
                            -0.0028822082433271564,
                            -0.0006331134774757402,
                            -0.0030805904069994856,
                            0.002776034488754132,
                            0.002050496661793666,
                            0.0003782978522783701,
                            -0.0018203771526405016,
                            -0.0014985845685948052,
                            -0.00727645655879407,
                            0.0016930348234107694,
                            0.006488547494827825,
                            -0.0022489273099546483,
                            0.0047188604978016645,
                            -0.0013395426624498875,
                            0.0019280094420329771,
                            -0.003887735901277715,
                            -0.0010361416480474085,
                            0.005853941780978722,
                            0.0012007950487994967,
                            -0.010127025667845506,
                            0.001386757885357047,
                            -0.004851419691637869,
                            0.0012170823275632046,
                            -0.0015858187768055586,
                            0.0031561771900400683,
                            0.005815950744469883,
                            -0.0070689959830770675,
                            0.011769529208641693,
                            0.00012417936230647202,
                            0.002233075787967745,
                            -0.00397865186373581,
                            -0.0055873440801009495
                        ],
                        [
                            -0.0035369757752837456,
                            -0.0013519080999989186,
                            0.009666443404403452,
                            0.0028019780407030543,
                            0.0075915761343361195,
                            0.003537648536333557,
                            0.005214519524622237,
                            -0.009940031362962213,
                            -0.00714375314608215,
                            0.007116751105373582,
                            0.009737217943250933,
                            0.00021651815751906722,
                            0.0034273325373079823,
                            -0.00018725260068996007,
                            -0.00018873497020653664,
                            0.006010531718749566,
                            0.00493493251971482,
                            0.004648922296469023,
                            0.0027102670647466197,
                            -0.0041482415017191476,
                            -0.005190248983570158,
                            0.0030046062062532657,
                            -0.004062100963074759,
                            -0.0032058591203444715,
                            -0.00203602734878831,
                            0.005543473372667497,
                            -0.00828072865234989,
                            0.004003750496603277,
                            0.010546509678571828,
                            -0.003696301030450628,
                            0.008020870751947429,
                            -0.006135468211784116,
                            0.006766356365630944,
                            -0.002773463741534914,
                            -0.0009109879829175136,
                            0.00396357185209126,
                            0.003652748250269849,
                            -0.011931288568644557,
                            0.006362084858120161,
                            -0.005180683925521035,
                            -0.00292249788904155,
                            -0.003958171355129795,
                            -0.0008338034780151417,
                            0.0056883233209266216,
                            -0.005273801172032315,
                            0.012234084606115437,
                            0.0013133186004632537,
                            -0.0006510715853860817,
                            -0.004501918399470554,
                            -0.0012159536638749675
                        ],
                        [
                            0.006492473606069763,
                            0.0008335480655641544,
                            0.008603020753065096,
                            -0.0005974917296442293,
                            0.007519831250833218,
                            0.0018482315720946647,
                            0.0003569778469327176,
                            -0.010148090654443666,
                            -0.004002280374501631,
                            0.006419989845530256,
                            0.010074789875474131,
                            0.002165740543950399,
                            0.0013307244776497235,
                            0.003046782993219785,
                            0.0005933206252924192,
                            0.006256337715570987,
                            0.005468947468966257,
                            0.0003768353474594388,
                            0.0012215984059802017,
                            -0.0030503253308672073,
                            -0.005946018855705188,
                            0.0013376129651718979,
                            7.45235060373215e-05,
                            -0.002171259225282252,
                            -0.0009158787546453623,
                            0.004402428892914667,
                            -0.0018372146072896793,
                            0.002784547365171698,
                            0.0004874313230232204,
                            -0.0039454379460732,
                            0.0070768208162143645,
                            -0.0016639938892690092,
                            -0.0005532196148015814,
                            -0.0036281062122342075,
                            -0.0009113454883056195,
                            0.00833569788627704,
                            0.0020327081934423856,
                            -0.010672692893125493,
                            -0.0005105407539645946,
                            -0.004798647390506235,
                            0.00024223462346956647,
                            -0.003843976821693353,
                            -0.004348949094508535,
                            0.0062032573422547,
                            -0.008827576009035313,
                            0.009672568573110317,
                            0.0068355824644267095,
                            -8.937762036175819e-05,
                            -0.005666650046987616,
                            0.0020293480459554493
                        ],
                        [
                            -0.0034761521592896996,
                            -0.003935890822425204,
                            0.009291216119635437,
                            0.002630597232067301,
                            0.005255341980704664,
                            -0.005593652083389351,
                            0.003914262177113782,
                            -0.003916873719642664,
                            -0.00895681939661561,
                            0.0012273671009094909,
                            0.007893847814997088,
                            0.0022909187018978587,
                            -3.0625283307331993e-06,
                            0.0006420958090804904,
                            -0.0065511414717681574,
                            0.003264895361569674,
                            -0.002925473885708744,
                            -0.003114801907523461,
                            -0.0058540752864696295,
                            0.0011331618501163913,
                            -0.0011362956746464488,
                            -0.0019186290998686787,
                            0.012356756610031728,
                            -7.939143150743121e-05,
                            -0.004021688521539924,
                            0.005051851352061903,
                            -0.002072782538801066,
                            0.005725669379673721,
                            -0.00014138024663398752,
                            -0.003514352828374282,
                            0.00438515597779998,
                            -0.0004028073500619733,
                            -0.0001481457621524185,
                            -0.004480096844594215,
                            0.002279250088562549,
                            0.005344149789255142,
                            0.0025304266483547025,
                            -0.005680328509340552,
                            0.005949727547742878,
                            -0.0043347298192632335,
                            -9.588739489352284e-06,
                            -0.0038134569269928525,
                            -0.0059320861734564545,
                            0.006482258165958423,
                            -0.0031363261246255716,
                            0.008157568787626017,
                            0.006351030785290409,
                            0.00030739881999964844,
                            -0.003980107034401078,
                            -0.003331511527503071
                        ],
                        [
                            0.008212391614668425,
                            -0.007062339089313569,
                            0.004859740262946394,
                            0.0008463277621675018,
                            0.004099733682231906,
                            -0.0064883694770185895,
                            0.003174974854807405,
                            -0.009831376180472015,
                            -0.007109281583306776,
                            0.0053785986800018535,
                            0.007530227097577617,
                            0.00088140074620567,
                            -0.006249266025430949,
                            -0.003839556654928274,
                            -0.00043513067270188773,
                            0.00019072908301773233,
                            -0.002971584841647508,
                            -0.0013402707429173465,
                            -0.005720025394428204,
                            0.004302180360601969,
                            -0.006212007121921429,
                            -0.0008228916313164779,
                            -0.0008709738302149813,
                            0.00011865140774572104,
                            0.0030592882557505348,
                            -0.0026083587834784174,
                            -0.005515502586668807,
                            0.005774071174406321,
                            0.0010247792432547583,
                            -0.007084037443375561,
                            0.0014979857664444715,
                            -0.0026396307610902065,
                            0.0005110609927729854,
                            -0.005747091090196138,
                            0.0019890812249434495,
                            0.0032545584701420254,
                            0.0017980985489864476,
                            -0.008258320508919774,
                            0.00588882316121702,
                            -0.004319719861306532,
                            0.000187502074106885,
                            -0.005088004125558509,
                            0.00450690645611495,
                            -0.0004771046371126013,
                            -0.0057849457559172816,
                            0.009616199739629015,
                            0.004235493331423901,
                            -0.0006179262968107717,
                            -0.002512250583188184,
                            0.0022017945909837957
                        ],
                        [
                            0.017039155517564193,
                            0.002033457957652799,
                            0.0036809653024180438,
                            0.0037097743874006973,
                            0.007962986847774075,
                            -0.006538746257433665,
                            -0.0019440351828227682,
                            -0.009618957204210125,
                            -0.0034247950897328904,
                            0.017298262014559133,
                            0.004347071538604482,
                            -0.001571643933014043,
                            -0.0021765134431936434,
                            0.00165432121854553,
                            -0.007637100260310517,
                            0.005847411961350465,
                            -0.0031490436476945814,
                            -0.0032023365620761357,
                            -0.00551288614329718,
                            -0.001988178429993345,
                            -0.0002278052051053892,
                            0.0009223675036673009,
                            0.011699709900462634,
                            0.002655312113331488,
                            -0.003600599074973256,
                            0.004072065427548164,
                            -0.004669720128522347,
                            0.010274459004542992,
                            0.0010519938229891584,
                            -0.0013032417657433456,
                            0.0028284104093621743,
                            0.0013473871330504721,
                            0.006219997190314851,
                            -0.0025989490620009744,
                            0.0016772086833608956,
                            0.002647403561776447,
                            0.0009715273387262398,
                            -0.009364835345058484,
                            -0.00017963728269169982,
                            -0.0033816435233030248,
                            0.0008456439688828534,
                            -0.003830660065360353,
                            0.006965093901663111,
                            0.004747314678447206,
                            -0.0076694242659986495,
                            0.013445767499342799,
                            0.005632472795654781,
                            -0.0029208421224145506,
                            0.006980306896885269,
                            0.0010499692236611558
                        ],
                        [
                            0.010061299330341028,
                            -0.0066435055047186714,
                            -0.0009957474596448467,
                            0.0050720252417594406,
                            0.007844589349838482,
                            -0.007546219478668655,
                            -0.002504658785820714,
                            -0.010307075220177672,
                            -0.007217910278030537,
                            0.02198037397462459,
                            0.009744936298195244,
                            0.00016759766019516263,
                            0.0010627511466791573,
                            -0.0017721089748205165,
                            -0.004832865155466741,
                            0.002153259783434942,
                            -0.0007869222996359187,
                            0.0026944721433766233,
                            0.0006462701317695893,
                            -0.0019933083278487365,
                            -0.0006696038987204059,
                            -3.799181775924912e-05,
                            -0.002280587376896753,
                            0.0016495462507641096,
                            -0.0012114183736535171,
                            0.007165269603248519,
                            -0.009228109946860968,
                            0.010851508727662315,
                            0.0026355499365385373,
                            0.0007984010136204183,
                            0.003467235022508951,
                            0.0013866255278689363,
                            0.0024192828668841704,
                            -0.002764952940939688,
                            0.00218885072236052,
                            0.0032354916088725583,
                            0.0024550323446286436,
                            -0.008795300782966125,
                            0.003923074218635527,
                            -0.0014888469512296851,
                            9.793975293877932e-06,
                            -0.0007233084802735834,
                            0.007752703992747272,
                            0.010025847712667301,
                            -0.011650983978302124,
                            0.014745300280260012,
                            -0.0019534295185730274,
                            0.00047952519524075316,
                            0.008662570656020028,
                            -0.0017288429355009171
                        ],
                        [
                            0.007897909009999007,
                            -0.0065187759565413245,
                            -0.0025520577177881336,
                            0.005608260417684162,
                            0.007965352897849326,
                            -0.005784184300399088,
                            -0.003916748936228043,
                            -0.014839727780739628,
                            -0.004997284079840057,
                            0.015406300158803303,
                            0.015451095885726521,
                            -0.00038016913533961736,
                            -0.006388214413352832,
                            0.0016881258486184862,
                            -0.00532605524930248,
                            0.007943121583341956,
                            0.006666530419303225,
                            -0.0015258528210312006,
                            0.0010819073065598058,
                            -0.02031319626067768,
                            -0.005106849511532472,
                            -0.002675330289615486,
                            0.0005325416932541695,
                            0.00045151140390890343,
                            -0.0020017026340470867,
                            0.0020737006208205386,
                            -0.009021465821218313,
                            0.012872314700095942,
                            0.0031087591732915057,
                            0.00107722083784906,
                            -0.0009906145832075989,
                            0.00488346098185132,
                            0.0016760355228346516,
                            -0.009081045328120681,
                            0.001179314657313549,
                            0.00471553366251413,
                            0.0032830618692648765,
                            -0.00201002502236551,
                            0.0010028138861290247,
                            -0.004775794062317524,
                            0.0008350690360264945,
                            0.0004843604988388208,
                            0.009165332668611793,
                            0.011879641821765183,
                            -0.0036523095266210166,
                            0.013218154490434772,
                            0.005036083646015428,
                            0.0011961551622943455,
                            0.006488469965831561,
                            0.003577337403494897
                        ],
                        [
                            0.007936401933667167,
                            -0.009852202589821257,
                            0.014010906067818336,
                            0.00689727406153276,
                            0.007983809405766923,
                            -0.003996723719080735,
                            -0.005266617771821184,
                            -0.015504475482675913,
                            -0.0025574745656574437,
                            0.03377742414589544,
                            0.005890548063576281,
                            0.0027685466851920556,
                            -0.0041644687126881005,
                            -0.002297564394482124,
                            -0.0038297986559117803,
                            0.00891340105715258,
                            0.0049866829838798735,
                            -0.0032715042028391788,
                            -0.0012424427588667796,
                            -0.015358683319638865,
                            -0.007995448841401735,
                            -0.0013452702963901546,
                            0.02342621823436848,
                            -0.0027976360645821322,
                            0.001427595249749193,
                            -0.004602695919384748,
                            -0.012175281394932397,
                            0.021295175495690842,
                            -0.0007096106568466259,
                            0.0019890292182915812,
                            0.0027503450495070946,
                            0.006837988566597622,
                            0.0024118259424762666,
                            -0.004911975959700525,
                            0.0023005856425571693,
                            -0.0033002288079411503,
                            0.002615449097209613,
                            -0.01181085436179393,
                            0.003534772195494463,
                            -0.005586476725543267,
                            0.0028560566686621994,
                            0.0027186919527408793,
                            -0.00011625755509557777,
                            0.012268325044575243,
                            -0.00534654388685046,
                            0.007757837436632311,
                            0.005818449747140594,
                            0.0009637831127846761,
                            0.008703724815812526,
                            0.003432015237460845
                        ],
                        [
                            0.0013321147563903836,
                            0.006849877413203594,
                            0.006214506174987143,
                            0.009426575275605526,
                            0.008197808017852451,
                            -0.004139845434769331,
                            -0.0033154950137303275,
                            -0.009212259908662174,
                            -0.005575959107803085,
                            0.0319345380653897,
                            0.0032161677690843997,
                            -0.002948564187732168,
                            -0.006570556685263822,
                            0.00117480966304668,
                            -0.009180845863037315,
                            0.003447427308331241,
                            0.00027251274465018866,
                            0.006228749757261721,
                            -0.001606967841346061,
                            -0.0020812151489398418,
                            -0.008343891569769673,
                            4.760237012720975e-05,
                            0.01460526826736138,
                            -0.003097556572056487,
                            -0.0037696509009593876,
                            0.005115259106549157,
                            -0.009670740460020468,
                            0.01348861613425451,
                            0.0024691401525237097,
                            0.0022134199607221385,
                            0.0018461716257600954,
                            0.007185141940140444,
                            0.006278733286923261,
                            -0.010005982190755913,
                            0.0017060694200625227,
                            -0.0017538996718196585,
                            0.0014893915147081074,
                            -0.002781875012292329,
                            0.0030573196130749556,
                            -0.005626690748428573,
                            -8.541712765927792e-05,
                            0.0026082418989253394,
                            -0.013159701611062297,
                            0.012201801580237101,
                            -0.01215301454254596,
                            0.01261055633668046,
                            0.00017503016719279955,
                            -0.0034000753264892603,
                            0.012375690621420545,
                            0.0006518886656029363
                        ],
                        [
                            0.02430291050909134,
                            -0.02114348068782801,
                            -0.00817758704848227,
                            0.006489742952235056,
                            0.0061755786270403,
                            -0.009165070217365139,
                            -0.0031687134920365878,
                            -0.013572305111407989,
                            -0.0041355263519340804,
                            0.011935276824651066,
                            0.009049754256744015,
                            -0.0022706278430281155,
                            -0.00475075822152711,
                            0.0010928167783966914,
                            -0.009427304800084527,
                            0.01008083967752819,
                            0.000526691220297688,
                            -0.003724467486360021,
                            9.720962199078374e-05,
                            -0.007349392783819132,
                            -0.001692081539991807,
                            -0.00026944148075247227,
                            0.017431711526115327,
                            0.0014924839714379858,
                            0.0008123666962564351,
                            0.0018879910807805354,
                            -0.005976817310274775,
                            0.012659550522367355,
                            -0.0008453830607936943,
                            0.0014394699664832195,
                            0.008701414034222846,
                            0.00421178390799936,
                            0.006733558135789858,
                            -0.005512992845815901,
                            0.0013236196276675302,
                            0.00011693713730827424,
                            0.002612757272525925,
                            -0.010213170397110678,
                            -0.006688357776189566,
                            -0.002485095224424494,
                            -0.0019230520912334118,
                            0.0032594489811307464,
                            -0.011750699567375551,
                            0.012271498601892595,
                            -0.005826556798617097,
                            0.010200847003353455,
                            0.0030660645056960053,
                            0.0008965251502124949,
                            0.0071898655330503575,
                            0.004113661796979949
                        ],
                        [
                            0.01421836380441072,
                            -0.001232546564036875,
                            -0.004389984679585286,
                            0.005419383364367459,
                            0.0022469906511183636,
                            -0.0023274294896050707,
                            -0.00034243831793023203,
                            -0.010908836196580018,
                            -0.006583774925957419,
                            0.024128406959851655,
                            0.012203590707283283,
                            0.0018659574180254538,
                            -0.005476841655200558,
                            -0.0009743143050247354,
                            -0.0033430361032981437,
                            0.005585729916735499,
                            -0.0017940336096610387,
                            0.006690078328279766,
                            -0.002049886875557287,
                            0.008571124787008616,
                            -0.00676719874430516,
                            0.0010584596437114323,
                            -0.00037164399733151594,
                            0.0011294707550840082,
                            -0.0013528016229688484,
                            0.005306255184135151,
                            -0.0052937875903639135,
                            0.021116914399271526,
                            0.0045676696201431615,
                            -0.002305753638355658,
                            0.002195114634793935,
                            0.002890677263730781,
                            0.003951647826446084,
                            -0.008844126258103706,
                            0.002479151175412338,
                            0.004208497586832381,
                            0.002603662124565562,
