[
    {
        "Score_Train": [
            0.9583207477850968,
            0.9686308625988874,
            0.9713653553544417,
            0.9725892375318531,
            0.9732135179371743,
            0.9738530590738301
        ],
        "Score_Val": [
            0.933198393778053,
            0.9602977139576572,
            0.9613584930261576,
            0.9627452490602703,
            0.9627636742595823,
            0.9672817483806363
        ],
        "Wl2_Train": [
            0.03688694304680148,
            0.02937696021401278,
            0.02841532831565693,
            0.027605917634791498,
            0.02745530427960342,
            0.026716865169228412
        ],
        "Wl2_Val": [
            0.054891294099567424,
            0.03593251587294776,
            0.03716007884780994,
            0.03773966562656402,
            0.037571873605238046,
            0.03380150473157185
        ]
    },
    {
        "Score_Train": [
            0.9616802105602119,
            0.9699672477063146,
            0.9729462146966741,
            0.9741579733408904,
            0.9744096753936202,
            0.9746894649282954
        ],
        "Score_Val": [
            0.9571685938347497,
            0.9531067792995902,
            0.9586649785022283,
            0.9621419656098221,
            0.9645665297140733,
            0.9600976890826614
        ],
        "Wl2_Train": [
            0.03284145535799934,
            0.02912182544410351,
            0.027443909244555566,
            0.026421230276050537,
            0.02640826033995797,
            0.0263858156306628
        ],
        "Wl2_Val": [
            0.03815668327909063,
            0.04232717622246296,
            0.040208157125992794,
            0.037738611732339764,
            0.03694695908101501,
            0.03905248403291218
        ]
    },
    {
        "Score_Train": [
            0.9643202714135486,
            0.9710221157217931,
            0.9705159510763867,
            0.9737723732608143,
            0.9740892172438077,
            0.9751769131042886
        ],
        "Score_Val": [
            0.9530270542152763,
            0.9493007185582595,
            0.951835148957091,
            0.9625075109220016,
            0.9573719460429335,
            0.9557096246715117
        ],
        "Wl2_Train": [
            0.03244407009620288,
            0.028776943881993023,
            0.029259860640741413,
            0.026998125781302156,
            0.02725058754628024,
            0.027069623501387644
        ],
        "Wl2_Val": [
            0.04062307246649426,
            0.04239170362679195,
            0.042880049526386486,
            0.03460453179241093,
            0.03593883332544401,
            0.036391896196738015
        ]
    },
    {
        "Score_Train": [
            0.9627389932322694,
            0.9711172871365236,
            0.9715412841405916,
            0.9730779768101401,
            0.9745677596281155,
            0.9755119742315176
        ],
        "Score_Val": [
            0.8770404921861297,
            0.9067821739792281,
            0.9172652068179228,
            0.9171122655620477,
            0.9123272564874159,
            0.9212830999469559
        ],
        "Wl2_Train": [
            0.03269353245215201,
            0.028468490051859786,
            0.028192278851549662,
            0.027334990674739896,
            0.02755365980628535,
            0.026442056999888833
        ],
        "Wl2_Val": [
            0.06938662622905797,
            0.06113334904186718,
            0.061319374727988485,
            0.05929148096188758,
            0.062203897319439566,
            0.05480241245975641
        ]
    },
    {
        "Score_Train": [
            0.9608729956821347,
            0.9668589134493283,
            0.9683474280069555,
            0.9727942830372035,
            0.9737920976718615,
            0.9741334158271779
        ],
        "Score_Val": [
            0.928636321133422,
            0.9246797255022641,
            0.948042398686856,
            0.9353340029007827,
            0.9306999510304026,
            0.9425813611026173
        ],
        "Wl2_Train": [
            0.0336464423857506,
            0.03140499812246571,
            0.03110087233605587,
            0.02784543479704126,
            0.027009676418055052,
            0.027010504153634003
        ],
        "Wl2_Val": [
            0.047702888484816096,
            0.05290983035854442,
            0.040917570191154745,
            0.047716052499275005,
            0.04820395263222194,
            0.044615562486695556
        ]
    },
    {
        "NN_PROPERTIES": {
            "alpha": 0.05,
            "batch_size": 600,
            "epochs_per_training_set": 5,
            "epsilon": 1e-12,
            "hidden_layer_sizes": [
                50,
                50
            ],
            "learning_rate_init": 0.005,
            "loss": "wasserstein_loss",
            "training_sets": 1
        },
        "Score_Test": [
            0.8704171163907815,
            0.9008416158419041,
            0.9300271450816642,
            0.9299143950047013,
            0.9341478896396782,
            0.9271199061827305
        ],
        "Score_Train": [
            0.9613201713589317,
            0.9637871980329114,
            0.970862518631463,
            0.9730322418499046,
            0.9731615828961029,
            0.9736282380038636
        ],
        "Wl2_Test": [
            0.07436251491753339,
            0.060273830115472764,
            0.055624726269919406,
            0.05356652086611416,
            0.05172257972540082,
            0.053819863470811344
        ],
        "Wl2_Train": [
            0.03350256352652531,
            0.032788769849015194,
            0.02937470244397443,
            0.02766574074325068,
            0.028159382039883413,
            0.02806234231261176
        ],
        "__getstate__": {
            "_no_improvement_count": 0,
            "activation": "relu",
            "alpha": 0.05,
            "batch_size": 600,
            "beta_1": 0.9,
            "beta_2": 0.999,
            "coefs_": [
                {
                    "Corder": true,
                    "__ndarray__": [
                        [
                            -0.00010257540626017284,
                            7.458640640196774e-05,
                            -0.004696576159607635,
                            0.001658929551043934,
                            0.0018347474675128128,
                            -0.0013990362112344438,
                            0.0004099143919349505,
                            2.0538942016521223e-22,
                            0.0013853890999927444,
                            0.00012698401440585188,
                            6.103796685192123e-05,
                            -0.0013271744895030407,
                            -0.00047707729607926507,
                            3.8467873962617606e-26,
                            1.2466829854654965e-24,
                            0.00015223485225102556,
                            -0.0009316188467109251,
                            0.0013615427942562266,
                            -0.0023542696527361824,
                            0.00036775499892257056,
                            0.0003128258848594276,
                            -0.0013010150968231398,
                            -5.416067621714079e-06,
                            -0.000447482266891918,
                            0.0003886008221200088,
                            6.4173471099202e-25,
                            -0.001974438932976422,
                            0.00033063617122336777,
                            -0.0007278864846064963,
                            -0.000381292541093014,
                            -0.0018783163059371,
                            -0.0006941457897548029,
                            -0.0011769425496587903,
                            0.0008637679262940421,
                            -0.004807872973178407,
                            0.00021237944430230651,
                            -0.0009935892819558356,
                            0.0010895025510956377,
                            0.00019022202307749834,
                            -0.0008756135797148533,
                            0.0013245682693313891,
                            -0.0015057909035512186,
                            -4.70766799614348e-25,
                            -0.00043558722159933955,
                            0.0026795255833499338,
                            4.6196209887482777e-05,
                            2.2183714195282245e-25,
                            1.606869509496532e-24,
                            0.00040838706124112455,
                            -0.00010203480622500218
                        ],
                        [
                            -0.000119169293008442,
                            0.00014274107081715227,
                            -0.0033730207242572835,
                            0.002115547027174808,
                            0.003046865471270149,
                            -0.0007998347403696234,
                            0.0004597328147189542,
                            -1.7733501911369184e-21,
                            0.001536768908406884,
                            -0.00040818763270464027,
                            0.0001401817481258149,
                            -0.0011951640209081778,
                            -0.0007069542948410481,
                            5.1952421340402565e-25,
                            -7.033847288289555e-26,
                            0.00037924339291989803,
                            -0.0010270709224571113,
                            0.0012791416366653983,
                            -0.0020865886025002683,
                            0.000495771149202785,
                            0.0008126745611992505,
                            -0.001441905668428319,
                            0.00013555539106112474,
                            -0.00012868050669300767,
                            0.0012059138641323476,
                            8.500409063058468e-25,
                            -0.0014354155782129391,
                            -0.0002521286908217558,
                            -0.0008184054011204154,
                            -0.00046986477062113826,
                            -0.00210288645080197,
                            -0.0007340513846645078,
                            -0.001039579301061195,
                            0.0006316289797039657,
                            -0.004267649438209056,
                            0.00016095443472772386,
                            -0.0013000986145567264,
                            0.0004675956265593409,
                            0.00031970495300171875,
                            -0.0010087316997422736,
                            0.001921284577220499,
                            -0.0018784699118790413,
                            2.8232807417012253e-25,
                            3.4370276080099494e-05,
                            0.004255177468933754,
                            -0.0002081783469580001,
                            -1.6119894211567066e-25,
                            -1.1102591346908729e-24,
                            0.0016478749450858391,
                            -4.402822729761459e-05
                        ],
                        [
                            0.00034642198337805853,
                            -0.00021641105661304619,
                            -0.003352217066733494,
                            0.0017294388618293273,
                            0.0019772163237240154,
                            -0.00044719798660222405,
                            4.8244687456935833e-05,
                            1.4804266569312698e-21,
                            0.0006734785211626442,
                            -0.0008184143629362387,
                            0.0003887680469566292,
                            -0.0008954745868043944,
                            -0.0008662517533788692,
                            -1.3632550317995741e-24,
                            2.640102935180647e-25,
                            0.0011751195911703922,
                            -0.0005888482831433478,
                            0.0004174031369303301,
                            -0.002564095066105966,
                            0.0006658657465358664,
                            0.0014436774937233133,
                            -0.0013405869716959014,
                            7.742231776194751e-05,
                            -0.00022959595559422633,
                            0.0012755545303039279,
                            -7.833524809712055e-25,
                            -0.0013842965332263259,
                            -0.0005868622008359221,
                            -0.00018359457596377085,
                            0.00014469185303692266,
                            -0.0029536608399934597,
                            -0.000549472730374808,
                            -0.0011098050576345711,
                            0.0005046557086552904,
                            -0.0019700733233577595,
                            5.1534880535573e-05,
                            -0.001986131967123797,
                            2.475323377498708e-05,
                            0.00015030764606374368,
                            -0.00039462912930996824,
                            0.0010714337864243092,
                            -0.002271087490915878,
                            -8.221823398815606e-25,
                            3.332853482192946e-05,
                            0.0036115326166496226,
                            -0.00034017506735697223,
                            -2.3329549595474874e-25,
                            -3.3661794585953735e-25,
                            0.0013831707715602922,
                            -3.468444938650237e-05
                        ],
                        [
                            0.0007164886709224533,
                            -0.0008102913597360857,
                            -0.0017885245561456236,
                            0.0026997066711928874,
                            0.003985916740885012,
                            -0.0011081531920276162,
                            0.00023710336483142466,
                            -9.936342072411048e-23,
                            0.001743512134145865,
                            -0.0005336657620346954,
                            8.559311626047064e-05,
                            -0.0015904056130811883,
                            -0.001717099017299713,
                            -3.159778592997513e-25,
                            -3.825237456073964e-25,
                            0.0013724990195592456,
                            -0.0015511102202332753,
                            0.0009255216323433909,
                            -0.0024154891472244347,
                            0.0012296186038986538,
                            0.001845621844103339,
                            -0.0028035033315575867,
                            0.00016091328279912195,
                            -0.0005297841900702331,
                            0.001039037115135933,
                            4.395077306857682e-25,
                            -0.0025999433837536386,
                            -0.0008277931931158842,
                            -0.0002745905906293259,
                            0.0002202344157289548,
                            -0.002559438451913118,
                            -0.00031870540867865945,
                            -0.0019791908855972457,
                            0.0009535913121965231,
                            -0.002954002295017053,
                            -0.00015592416603557179,
                            -0.0024037913089672187,
                            -7.885961651955935e-05,
                            0.0002886547446836677,
                            -0.0005317197912896055,
                            0.0038260955192117164,
                            -0.002873864808574309,
                            -5.277012651718123e-25,
                            2.5060209330827934e-05,
                            0.005589595806363715,
                            0.0003075553163473735,
                            -1.350585179186069e-24,
                            2.0966447324931507e-25,
                            0.000966254079891488,
                            -0.00040701374160642554
                        ],
                        [
                            -0.0006721606769317257,
                            0.0005903455675052666,
                            -0.00408706003263821,
                            0.0025054859598829596,
                            0.0017047010811560544,
                            -0.0006588066319752873,
                            0.0009079938347089135,
                            -3.431910374996227e-21,
                            0.0010991461102111079,
                            -0.0012719676617453145,
                            0.0005998258660729284,
                            -0.0005161917247321571,
                            -0.0005152430676023412,
                            -3.66254687968218e-25,
                            6.24333634572771e-25,
                            0.0012765503021127098,
                            -0.00023274576158787203,
                            0.002119052952145947,
                            -0.0022635351390352726,
                            0.0004012700561825665,
                            0.001908456357743989,
                            -0.0007337854732989765,
                            0.0001270289895663824,
                            2.8373448267679914e-05,
                            0.00021255263331740185,
                            5.980589795998635e-25,
                            -0.000696186118936741,
                            -0.001287715314336907,
                            -0.00045366267205181813,
                            -0.00020151178640932335,
                            -0.0023079654654352896,
                            -0.0018253436968325477,
                            -0.0010252251559676052,
                            0.00027435637100692225,
                            -0.0031742533072429326,
                            -1.5288098580549235e-05,
                            -0.002013490678534839,
                            -0.0003102525579664592,
                            0.00045224096005298895,
                            -0.001088857905183668,
                            0.0010874554776477783,
                            -0.00252221536451206,
                            7.848828457613344e-26,
                            0.00028717793524411973,
                            0.005209578870528971,
                            -0.0007609057106980433,
                            -9.81046655073525e-25,
                            -2.985707221022541e-25,
                            0.0016688576397495807,
                            -0.0002761276453637296
                        ],
                        [
                            -0.0005076946359516466,
                            0.0005917845246670262,
                            -0.0030517883959483784,
                            0.003033239896191584,
                            0.0028069588764293315,
                            -0.0010953855455448033,
                            0.0008908028798386168,
                            3.8948894504501724e-22,
                            0.0014574063921653324,
                            -0.001268701910922617,
                            0.00048727495167814037,
                            -0.0017021089842572073,
                            -0.0007854643517467509,
                            -1.4577688422768621e-24,
                            -4.5964494064906355e-25,
                            0.0012966409757552866,
                            -0.0005101071604813394,
                            0.0014733251678591326,
                            -0.00020029845288356226,
                            0.0006884571233351264,
                            0.0019338714017574487,
                            -0.0014566594871213477,
                            0.00018022274069320678,
                            0.0004939108032533027,
                            0.0006497260343068521,
                            -7.9146796480822825e-25,
                            -0.0019894170832004975,
                            -0.0012641046603004572,
                            -0.00010289431820941571,
                            -0.0007010303763640071,
                            -0.0027916400469687563,
                            -0.001568209018816403,
                            -0.0016885838701488675,
                            0.0010106940556170506,
                            -0.002634270919106096,
                            0.00014276243603796358,
                            -0.0020359616774931156,
                            -3.142796809191549e-05,
                            0.0002937100141392373,
                            -0.0017416494249357943,
                            0.002377175188321184,
                            -0.0027790892007443736,
                            -5.945093540045721e-25,
                            3.747635079239938e-05,
                            0.003648146413699462,
                            -6.227662181491377e-05,
                            -1.7449953239346672e-25,
                            2.13487325602324e-25,
                            0.00027979308912367884,
                            -0.000748091188742127
                        ],
                        [
                            0.00033590044373747675,
                            -0.0003249655146914965,
                            -0.002400358035153082,
                            0.002658472523665494,
                            0.0032182747944898304,
                            -0.00047992891878169473,
                            0.0004070310280623373,
                            -1.3602760828392412e-21,
                            0.0009754972813122862,
                            -0.0013602087043088887,
                            0.000849660374220871,
                            -0.0006500920383130102,
                            -0.0012374857645054225,
                            -6.580442473205357e-25,
                            4.742270619879936e-25,
                            0.001974778367614565,
                            -0.0005237932390080622,
                            0.0013009534947295844,
                            -0.002111618857013981,
                            0.0008234183371646899,
                            0.002685405222513821,
                            -0.0014429608306991701,
                            0.00019853809381006467,
                            -0.00028525090942290126,
                            0.0006108401487309243,
                            -4.932363249133751e-25,
                            -0.0005274371034769366,
                            -0.0015808157640278975,
                            5.721019911118254e-05,
                            0.00031884926375337337,
                            -0.0018109745281334457,
                            -0.0007715621191024489,
                            -0.0011564146444402194,
                            0.00016360269052899932,
                            -0.0022467009352544758,
                            0.00018283935679642413,
                            -0.0030058665822162035,
                            -0.0009506938162684854,
                            0.0004992574147275938,
                            -0.00033622160349818105,
                            0.0016196508631713734,
                            -0.003191133289497452,
                            6.626296644914261e-25,
                            0.000670942162213349,
                            0.0059185738127438756,
                            -0.00030432197417242966,
                            -4.888151362153269e-25,
                            3.826771115943906e-25,
                            0.0018966858481878294,
                            -0.00048556872023599527
                        ],
                        [
                            -0.00021623823264521705,
                            0.0004988643537357652,
                            -0.0005370570728056696,
                            0.0022234182855229096,
                            0.004024059882835745,
                            -0.000849254027997485,
                            0.0006319779233997662,
                            -1.6750162303776003e-22,
                            0.0007701933978286627,
                            -0.00111972090829203,
                            0.00048820292723359446,
                            -0.0007117869086880972,
                            -0.0004943085220394626,
                            -3.4050956201996826e-25,
                            4.565370995762871e-25,
                            0.0009491143774429624,
                            9.173465305064783e-05,
                            0.0009579831337969019,
                            -0.002282137615806824,
                            0.0003698383273930097,
                            0.001447344950579175,
                            -0.0005625068979267262,
                            0.00016990392841355546,
                            8.752838448510382e-06,
                            0.0006825714171307312,
                            1.1263530288897193e-24,
                            -0.0020822729716297363,
                            -0.0009122098597452871,
                            -0.0006250119843021843,
                            -0.00011773004423176368,
                            -0.0024623577848935773,
                            -0.0011658794258579527,
                            -0.0008982578202233199,
                            7.576113418977555e-05,
                            -0.0036421016363881622,
                            9.05885717160559e-05,
                            -0.001527047474794718,
                            -9.448187105003579e-05,
                            1.4575212445744497e-06,
                            -0.0008046330041466684,
                            0.0013147707333910467,
                            -0.0019655425009330713,
                            -3.8591795171406786e-25,
                            0.0003049013536017136,
                            0.00460911149848018,
                            -0.0003787749109264594,
                            -1.646315673162427e-25,
                            4.664324341690333e-25,
                            -0.00015786119146979762,
                            -0.0004294422941736755
                        ],
                        [
                            0.00010200608068933618,
                            -0.00024127615102661327,
                            -0.00010756640517863914,
                            0.0024627200067308557,
                            0.004869573619231521,
                            -0.0016917452069987187,
                            0.00026593046358475603,
                            8.922011185233164e-22,
                            0.0017187084913719876,
                            2.7073647931393668e-06,
                            7.767949600710033e-05,
                            -0.001960013544073239,
                            -0.0018072744193465048,
                            -4.561980050368381e-25,
                            -9.20916789572798e-25,
                            0.0009393075046544439,
                            -0.0015618128634475694,
                            0.0016457469773290044,
                            -0.0008408840853444182,
                            0.0014108231812602525,
                            0.0011910445409519784,
                            -0.0027412886001677433,
                            0.00018467197581564527,
                            -0.0001203590507123325,
                            0.0026931908733927993,
                            1.9802835952412713e-25,
                            -0.0022320841034768535,
                            -0.00017937660304983904,
                            -0.0005642408143565296,
                            -0.0002563496447176525,
                            -0.0017817382165265059,
                            -0.0013472760919208784,
                            -0.0020894879612065073,
                            0.001054284860680747,
                            -0.002432632137839651,
                            0.00037146826512425476,
                            -0.0021175308474038245,
                            0.00038528520535696735,
                            2.3801435347227118e-05,
                            -0.0006371042540141061,
                            0.0035275026328905057,
                            -0.0024509644510130684,
                            4.546534824490256e-25,
                            -0.00020209550979599915,
                            0.005503339741356945,
                            -0.00028572375434139484,
                            -1.9291306625613613e-25,
                            -9.870949732847875e-25,
                            0.0010668989696504367,
                            -0.0004742790539535097
                        ],
                        [
                            -0.0003898652277538022,
                            -2.4401424850522397e-05,
                            -0.0005970435549327727,
                            0.002450702045255587,
                            0.004716958971868731,
                            -0.0008349027603695969,
                            0.00025711943354272656,
                            -3.8070457471981138e-22,
                            0.0009702658442418681,
                            -0.0009521556974358831,
                            0.00017055227679178177,
                            -0.0014854148087220108,
                            -0.001273490053920203,
                            5.768165770152058e-25,
                            1.8294029898422003e-25,
                            0.0014246464761869218,
                            -0.00025928660903522477,
                            0.0012965758440061019,
                            -0.00012366358189732707,
                            0.0008811500847237632,
                            0.0017734527397796512,
                            -0.0013733242775703473,
                            0.00017773318825859764,
                            0.000291409250996265,
                            0.0016329329489651418,
                            -8.477054570048301e-25,
                            -0.0023734282279100575,
                            -0.0009757755115374929,
                            -0.0006909303042026338,
                            -0.00034666990672838955,
                            -0.002240093475372802,
                            -0.0012776938515390121,
                            -0.0014352447487569501,
                            0.00046913847176372533,
                            -0.0038614766749015556,
                            0.00034077328880952745,
                            -0.002201936868555634,
                            -8.40043853447983e-05,
                            0.00031001045337578656,
                            -0.000802124075895974,
                            0.00231221886111538,
                            -0.002638121386187305,
                            4.2956076826711705e-25,
                            0.00013498379922580102,
                            0.0053057022259137745,
                            0.0004417858596958441,
                            4.530264272655219e-25,
                            9.013739496563963e-25,
                            0.0010990503847194417,
                            -0.000778264674257483
                        ],
                        [
                            -0.000152248171114906,
                            0.0005570493981606167,
                            -0.0014229147067208608,
                            0.0018643302344964394,
                            0.006500947067876885,
                            -0.001794638210005996,
                            -5.659029425167707e-05,
                            1.6959121531689803e-21,
                            0.0009916095405182244,
                            -6.027353783645992e-05,
                            -0.00047857836604855454,
                            -0.0017251674080086198,
                            -0.0014467379056288185,
                            -5.854147295272999e-25,
                            -1.1880794607767052e-24,
                            0.0008266130736902849,
                            -0.0008375226816539841,
                            0.000890300692541715,
                            0.0004470658157585839,
                            0.0009027605812492177,
                            0.0008095566090366894,
                            -0.0017229719229140568,
                            -2.8239289285358755e-06,
                            0.0003438635260441508,
                            0.0024069217468366336,
                            -5.534960970126734e-25,
                            -0.002831417700613022,
                            -8.153512512986072e-07,
                            -0.0007873991791377829,
                            -0.00035321762297550773,
                            -0.002233040740095414,
                            -0.0011376278666237899,
                            -0.0016448763987056676,
                            0.0007816938191109151,
                            -0.0027325578610169227,
                            0.0002753199666715556,
                            -0.001788283947126456,
                            0.0005208979813381731,
                            0.00041422979688857375,
                            -0.00045464094037394204,
                            0.0022871775314579376,
                            -0.0018139652354063434,
                            -3.358006446873896e-25,
                            -0.0006208217396282682,
                            0.00366218576320816,
                            2.002801869281645e-05,
                            2.894553267269882e-25,
                            -1.9668934341995816e-24,
                            0.0019204041780730128,
                            -0.0005201505864477265
                        ],
                        [
                            -0.0001339033495213327,
                            0.000242357277355258,
                            5.103718249016001e-05,
                            0.0015410184367656951,
                            0.006640128053825513,
                            -0.002072759493307964,
                            -9.59237113411508e-05,
                            -9.912584740185445e-22,
                            0.0012101450619353262,
                            0.0007432843618122545,
                            -0.0002953335558034289,
                            -0.0017593609409328717,
                            -0.0009862803658324533,
                            -4.359574036382176e-25,
                            1.920893452936631e-24,
                            -0.00010856849073841583,
                            -0.0011975849906450315,
                            0.0009373619275661161,
                            8.630440736173836e-05,
                            0.0006249278330579172,
                            -0.00011519484525443869,
                            -0.0015292782472712157,
                            0.00013974614697851028,
                            -9.624656327592693e-05,
                            0.0029090604572998935,
                            3.778597303298053e-25,
                            -0.0036996101189950246,
                            0.0009414729250908317,
                            -0.0005153284057894396,
                            -0.0003258330252702953,
                            -0.0026055868865644534,
                            -0.0005592257569820463,
                            -0.0013970360198088058,
                            0.0006750190080343155,
                            -0.003837062770668159,
                            0.00046620485234700603,
                            -0.0008724092640045408,
                            0.001412404600395124,
                            0.0003940187301578713,
                            -0.0003399160876122209,
                            0.0023090506808052247,
                            -0.0011772087741672426,
                            5.5857459504907375e-25,
                            -0.0009555278836513517,
                            0.0035432191025358897,
                            0.0004040244328573137,
                            1.1266041823323905e-24,
                            -7.428780375366005e-25,
                            0.002311822403851867,
                            -0.0005821952973696686
                        ],
                        [
                            -0.0003891218190986836,
                            0.000675683792116401,
                            -0.0005498214922545035,
                            0.0014822147400727586,
                            0.007673963104493109,
                            -0.0025379897455708065,
                            -4.4752952471439265e-05,
                            -1.6011986689354795e-22,
                            0.0015927380894392301,
                            0.0018481153051341786,
                            -0.0006759123679693804,
                            -0.0021902061128805848,
                            -0.0009607212480677539,
                            -1.4279128921226669e-24,
                            5.058405738011938e-25,
                            -0.0006020826417759725,
                            -0.0016727991836597434,
                            0.0003869181276938012,
                            0.0011921066909132486,
                            0.0009975554971778633,
                            -0.0011034984912030054,
                            -0.001794104698442341,
                            0.00012805998120185897,
                            0.0004471818250075971,
                            0.0035211913017088184,
                            1.1382433443306986e-24,
                            -0.004004504042728368,
                            0.0022040406781197465,
                            1.6586992765368414e-05,
                            -0.0007497301482144226,
                            -0.002479694932868204,
                            -0.0007999760301588916,
                            -0.0017524321019282117,
                            0.0014541478079666812,
                            -0.004538038825734845,
                            0.0005171064272920311,
                            -0.00043412384166295604,
                            0.00255693751695064,
                            0.00014333002045631294,
                            -0.00036416239008356074,
                            0.0016498199852693094,
                            -0.000763174397652188,
                            -6.7498366552514495e-25,
                            -0.0017746333376154233,
                            0.0025812227957643192,
                            -0.0016776807794371899,
                            -2.176344880056934e-25,
                            5.774753230733004e-25,
                            0.0001504971710314346,
                            -0.0005455716922139192
                        ],
                        [
                            -0.0002906643063222053,
                            0.0003042838254725958,
                            0.0010421231124165791,
                            0.0010200272582191645,
                            0.00798885759227151,
                            -0.0031166917681482026,
                            -0.0002326147760077553,
                            1.7889976172051886e-21,
                            0.0015212200532494671,
                            0.0021748661664112118,
                            -0.0008633216550786575,
                            -0.0021533491232612217,
                            -0.0009580634869547045,
                            1.830432165809833e-25,
                            -1.3268539059762783e-24,
                            -0.0009985978075089314,
                            -0.0020388022699493412,
                            0.00040323934776638986,
                            0.0011391417515576538,
                            0.0007920031543524134,
                            -0.0016765746392842476,
                            -0.0016746812060004271,
                            0.00017876570693948574,
                            -0.0003434716115686343,
                            0.003176347351843116,
                            7.787155346402421e-25,
                            -0.003137708258770552,
                            0.0026566549611106867,
                            0.0002560021738961754,
                            -0.00053379931485554,
                            -0.0022830587042975596,
                            -0.0008736921242456367,
                            -0.001628156040128993,
                            0.001134373522256209,
                            -0.004452958447884537,
                            0.0005859377416635653,
                            -8.842907438603528e-06,
                            0.002721007876604425,
                            5.1018652916534076e-05,
                            -3.1819077314112626e-06,
                            0.0011017089280258145,
                            -0.00023952437521237784,
                            1.3038824904340379e-24,
                            -0.0019043635065577047,
                            0.0023029191170717235,
                            -0.0009977507850429993,
                            2.9433035908053827e-25,
                            2.7294964036474864e-25,
                            0.001198502835707285,
                            -0.0005826117486735695
                        ],
                        [
                            -0.000380344782736032,
                            0.00027883976530943715,
                            0.0007804501364808345,
                            0.0007876892207642244,
                            0.007470004867574146,
                            -0.0031097615303970964,
                            -0.00022421773936439352,
                            1.2425804465240336e-21,
                            0.0012290247701110485,
                            0.0023994819273039764,
                            -0.0009256563498365966,
                            -0.0019468642146820826,
                            -0.0007295769457077513,
                            -9.613367810655109e-25,
                            2.2707136360898973e-25,
                            -0.0004325363014895508,
                            -0.0018921124216655018,
                            0.0003490276003330653,
                            0.0010174422526330116,
                            0.0006043209753441313,
                            -0.001600196164369829,
                            -0.0010342128961387345,
                            0.00017929478307295406,
                            -0.0007214440066126858,
                            0.002890417305756973,
                            9.159846441461955e-26,
                            -0.0033804302052796373,
                            0.002908244082958827,
                            0.00019669362330171098,
                            -0.0005574021527393583,
                            -0.00188677999420217,
                            -0.0007847747775994611,
                            -0.0012553370277572596,
                            0.0007192391762845005,
                            -0.004663649177537972,
                            0.0008489621069393877,
                            -0.0003646403713524166,
                            0.0029360251295213044,
                            -0.0001580782898415983,
                            0.00027317612558145965,
                            0.0006152314932600018,
                            -0.0004604534039931398,
                            1.4585086652426957e-24,
                            -0.0019238643204844523,
                            0.002979534722054246,
                            -0.001396677643460725,
                            2.147259184544772e-25,
                            4.194751947515107e-25,
                            0.002447347373158454,
                            -0.00028285773881262807
                        ],
                        [
                            -0.0008003634324632999,
                            0.0010807620439068134,
                            0.0016311468483736365,
                            0.0012374005569107326,
                            0.008153931595140338,
                            -0.004336375129482714,
                            -0.00010303962096934448,
                            -4.509490958866194e-21,
                            0.0018836169396102686,
                            0.003614593988986604,
                            -0.0013786472518313732,
                            -0.002446392411533419,
                            -0.0007462930828681137,
                            -2.944103921494636e-25,
                            4.504578615025373e-25,
                            -0.0014218845787032266,
                            -0.002469457008452029,
                            0.0008819302673099638,
                            0.0014763908265788411,
                            0.001089405362477861,
                            -0.002856521137624157,
                            -0.0012054354818155763,
                            0.00012382027155915642,
                            -0.0007696233469354109,
                            0.0036409010206396087,
                            9.12736155358619e-25,
                            -0.003120013128388467,
                            0.0042787437482235385,
                            -3.4874262433035107e-05,
                            -0.0009555724794134749,
                            -0.0023925786236722517,
                            -0.0012067493603707248,
                            -0.0016039208294199394,
                            0.001207381287878835,
                            -0.005690674633897247,
                            0.0007238133758090681,
                            0.0002772180258369602,
                            0.00442054084249438,
                            -0.0004700925860249653,
                            -0.00023631236503544504,
                            0.001591951097006317,
                            -0.00012454205676675913,
                            6.353240424408298e-25,
                            -0.0031251660577616244,
                            0.0018493514861750793,
                            -0.0016115707999054484,
                            -7.955052322320726e-25,
                            1.0254420432553267e-25,
                            0.0003596963882351582,
                            -0.0006480465730406498
                        ],
                        [
                            -0.0004896308056809989,
                            0.001130897160470465,
                            3.156045682591491e-05,
                            0.0006035439209046116,
                            0.008480145344458947,
                            -0.004153949950216211,
                            -0.0005765998859833773,
                            8.844404266057318e-21,
                            0.0015066660809707735,
                            0.003963989372972304,
                            -0.001508971251983971,
                            -0.0021172751342960366,
                            -0.0010184031065106937,
                            -4.849558093649317e-25,
                            -1.30109387085758e-24,
                            -0.0016155501627312329,
                            -0.002662566703310458,
                            0.0008122196789763754,
                            0.001965243451790837,
                            0.00132440461322887,
                            -0.0030915741643689023,
                            -0.0012013189458781933,
                            0.00011375771909766062,
                            -0.0006548203387316705,
                            0.004322767124416935,
                            8.813225367202408e-25,
                            -0.004199043245787211,
                            0.004698260408023431,
                            7.260905964433326e-05,
                            -0.0008244704433343848,
                            -0.0033020557784104055,
                            -0.0002913968749913999,
                            -0.001350262388326381,
                            0.0011344513138312443,
                            -0.005356155431889569,
                            0.0004927051407704761,
                            0.0003225748185110927,
                            0.004484202328017381,
                            -0.00023909427646748353,
                            0.0004926885718179999,
                            0.0008462722096438738,
                            0.0002056695109553374,
                            -1.6212822479345576e-24,
                            -0.0034561816921422285,
                            0.00221268491398,
                            -0.0024598598916980834,
                            1.5386421318244611e-25,
                            -4.583390460793865e-25,
                            0.0005766328414941914,
                            -0.0004464638155101335
                        ],
                        [
                            -0.0005848446216465685,
                            0.0009831129684948654,
                            -0.0015101711046855897,
                            0.00019352752170377396,
                            0.007872510319778765,
                            -0.005063613703090101,
                            -0.0008415279764416562,
                            1.6931956017956919e-21,
                            0.0017937694645330858,
                            0.005278401520428379,
                            -0.0018919751410943005,
                            -0.0026931255083917152,
                            -0.0012192974699597734,
                            -2.8706467588917805e-26,
                            -1.0031402981970641e-24,
                            -0.0021826113230123657,
                            -0.0034264378159242328,
                            0.0010221744018841395,
                            0.0033033763657495394,
                            0.001311802335655035,
                            -0.004246638138670308,
                            -0.0018587161458357246,
                            0.00014780492490797304,
                            -0.0007177219331480508,
                            0.005312872649450611,
                            -1.3496130715902506e-24,
                            -0.003900340180581923,
                            0.005958910411992046,
                            0.000569191397918974,
                            -0.0008263119478550966,
                            -0.0030764665155122886,
                            -0.0010584945902326409,
                            -0.0016339480424626494,
                            0.0016176762639350882,
                            -0.006245306369526825,
                            0.0003759855246658656,
                            0.0008265358359741258,
                            0.005486723651079122,
                            -9.859654088496475e-06,
                            0.0006560420945507798,
                            0.001237015241173175,
                            0.0008232948665565514,
                            5.148168208546626e-26,
                            -0.003973882338720859,
                            0.0015107608549131035,
                            -0.00200357091091432,
                            -8.681914251184465e-25,
                            6.740534518617629e-25,
                            0.0007422216895622199,
                            -5.464702682223536e-05
                        ],
                        [
                            -7.013056615286926e-05,
                            0.00041747720668812986,
                            -0.0020224580510376194,
                            -0.0004021032416475367,
                            0.008849583223073103,
                            -0.0053784492815133695,
                            -0.0012181122946632362,
                            -6.068148316021469e-21,
                            0.002031172652045682,
                            0.005937884364328676,
                            -0.002321804034897256,
                            -0.0030002928617212836,
                            -0.0014908119053262073,
                            -1.5817633633309709e-24,
                            -1.7126068488904417e-24,
                            -0.0024398757942615005,
                            -0.004193828134365752,
                            0.00043014383242731845,
                            0.004148952624385162,
                            0.001369381020901637,
                            -0.004529327272275066,
                            -0.0024572401666480533,
                            0.00018734418185102208,
                            -0.0009799651179781318,
                            0.006442946787200497,
                            -3.181827620927125e-25,
                            -0.0044089374280945025,
                            0.006229977632753301,
                            0.0006609858749688327,
                            -0.000752961128062841,
                            -0.003762175274421978,
                            -8.56335825933806e-05,
                            -0.0017626249294248157,
                            0.001796711934445625,
                            -0.0060323176341060495,
                            0.00037907856898033033,
                            0.0008890931263567784,
                            0.0055308566655015235,
                            -0.0003780486502809423,
                            0.0008941052744150512,
                            0.0020750751340609503,
                            0.001126521142098086,
                            -4.207664179658078e-25,
                            -0.004366920361545678,
                            0.0022816890261640895,
                            -0.0015184723434812713,
                            -3.1839027252828647e-25,
                            -7.493438503435981e-25,
                            0.0014303431935621014,
                            0.0003030458370186201
                        ],
                        [
                            -0.0002640089151531177,
                            0.0007879799016273399,
                            0.0010507644308835637,
                            -0.0006339349086194521,
                            0.009183594262400854,
                            -0.005340846808091041,
                            -0.0010973587026650818,
                            -3.208019306781271e-22,
                            0.0017141621048550352,
                            0.006060585142115527,
                            -0.0021153612179120383,
                            -0.002837090418512949,
                            -0.001503523532634061,
                            1.4552760535938928e-25,
                            -8.223698887776233e-25,
                            -0.002281596637180874,
                            -0.004114736059460934,
                            0.0014767612370927329,
                            0.004445131821077368,
                            0.0016967691253095998,
                            -0.004739404390633846,
                            -0.0023348177508438262,
                            5.6027313447718116e-05,
                            -0.0006585706394899139,
                            0.007312251554592456,
                            2.404321215999295e-25,
                            -0.003988730560132919,
                            0.006599254518149842,
                            0.000346764294235443,
                            -0.0008479261020725001,
                            -0.00394118931226807,
                            -0.0005705682214832148,
                            -0.0018626625057655503,
                            0.0017842687637863448,
                            -0.005602688383755736,
                            0.0005665802229568853,
                            0.0010058270875289075,
                            0.0057489031714887074,
                            0.00018291741653511364,
                            0.0010955748635093703,
                            0.0011434828191041228,
                            0.0015319088358188614,
                            1.8815847875793818e-24,
                            -0.004532308027598085,
                            0.000889788267996167,
                            -0.0021730198810703417,
                            -3.9407769937507314e-25,
                            -3.954313179486843e-25,
                            0.0007353933078093398,
                            0.0003947331083635322
                        ],
                        [
                            0.00042709973389328497,
                            0.0004034706108141594,
                            0.0011784162405010404,
                            -0.0007075978637291679,
                            0.009031616943057583,
                            -0.005723312750510402,
                            -0.0014280498851926174,
                            -1.0098067584837853e-21,
                            0.002109858000285377,
                            0.006720287617566181,
                            -0.0024114057849266655,
                            -0.003415396788078135,
                            -0.0021380160676977133,
                            1.57951668423133e-24,
                            -6.66395595625602e-26,
                            -0.002410442621487651,
                            -0.004773303862032055,
                            0.00021054741951051612,
                            0.004848272325606327,
                            0.0019388908335376978,
                            -0.004871414141226613,
                            -0.0032148158552532283,
                            1.2188368345686288e-05,
                            -0.0011418520560801046,
                            0.007565261299581638,
                            -1.9940625408241114e-24,
                            -0.004702001568951867,
                            0.006738295600631124,
                            0.0003972340814748389,
                            -0.000686787530165347,
                            -0.0039533463321157775,
                            0.0002232984055993316,
                            -0.0021800935439808323,
                            0.0022549456424001426,
                            -0.005756600362439454,
                            0.0006184417805628131,
                            0.0008590838470398589,
                            0.0056599860950114515,
                            -0.00040700580471980815,
                            0.0012523181918281494,
                            0.0020722666079585825,
                            0.001481548607889618,
                            1.0976807368179856e-24,
                            -0.004566125111582789,
                            0.0020844001332086027,
                            -0.0014942702984925814,
                            2.8441752021381684e-25,
                            -3.389996893089587e-25,
                            0.0008912437829622804,
                            0.0005733299695540601
                        ],
                        [
                            -0.00014124452293949399,
                            0.0009036167011491783,
                            0.0003038039700815707,
                            -0.0004949178541465153,
                            0.009180197783009976,
                            -0.005907407842634966,
                            -0.0006959338727640444,
                            2.51098462308932e-22,
                            0.0023525527347746816,
                            0.006771820967691571,
                            -0.002488370598862812,
                            -0.003225433088986018,
                            -0.0012804209198657166,
                            1.6976773930030596e-25,
                            1.03677612696607e-24,
                            -0.0028496303551050015,
                            -0.004580119754974981,
                            0.0014705493620435976,
                            0.005607697623088809,
                            0.0017664107016551764,
                            -0.005193909890944768,
                            -0.0024600366044773762,
                            7.162897975997366e-05,
                            -0.0012317269363291816,
                            0.0075867272471304885,
                            5.705872161700403e-25,
                            -0.004729883160650112,
                            0.007008318371600133,
                            0.0007421770716963964,
                            -0.0011903371320590714,
                            -0.003284791612974088,
                            -0.001268880697991821,
                            -0.0019046116006505313,
                            0.002351156527621844,
                            -0.006748079218632748,
                            0.0005991368318016329,
                            0.0012999389171736994,
                            0.006163562456855801,
                            0.0003694078547368922,
                            0.0006315362673515164,
                            0.0009172542067090586,
                            0.0017190046556159549,
                            -6.355886012356035e-25,
                            -0.004765328295666483,
                            0.0008044464548959266,
                            -0.0031945708459690963,
                            -2.1010296778698007e-25,
                            2.3464519726472533e-26,
                            0.0008332720731710698,
                            0.0006301631276562844
                        ],
                        [
                            0.0001959907404520042,
                            0.000720979854984612,
                            0.0006601155819184408,
                            -0.0019183879507112026,
                            0.010533927828475875,
                            -0.005017086031815906,
                            -0.0014395035436268393,
                            1.150597116028621e-22,
                            0.0017576790469333889,
                            0.007075308096422845,
                            -0.002899314945752725,
                            -0.0029976677620383425,
                            -0.0018527305843799161,
                            5.209028727940761e-25,
                            -6.017450847783878e-25,
                            -0.002309705910325221,
                            -0.004872206296226133,
                            0.0012884193995876976,
                            0.0057357820287659445,
                            0.0017930469541855823,
                            -0.005042557990224187,
                            -0.0027554202604005884,
                            0.00022749249522498373,
                            -0.0014193140427109171,
                            0.008387390657857163,
                            1.1056344378248974e-24,
                            -0.0058607548309222955,
                            0.007039565712181204,
                            0.0006018203090787023,
                            -0.0008065723875897154,
                            -0.004066052350349619,
                            -0.0003653470350192474,
                            -0.0017295845999757246,
                            0.002292415701278524,
                            -0.007354844912108867,
                            0.000633664562232852,
                            0.0009427869462272056,
                            0.0054872648966668375,
                            0.0002894784172720711,
                            0.0019550717951273503,
                            0.0008030384951514474,
                            0.002227080433785837,
                            9.023267644347935e-25,
                            -0.005131817125586824,
                            0.0017237656173521025,
                            -0.003156097587709982,
                            2.5094586885608384e-25,
                            4.41675163902838e-25,
                            0.0005238635944798891,
                            0.0010145161849959593
                        ],
                        [
                            0.00017807965953439586,
                            0.0009674591562796022,
                            0.001346358610439294,
                            -0.002334743636573009,
                            0.01185602437181861,
                            -0.004171817245360096,
                            -0.0013057623592380575,
                            5.877791491432778e-22,
                            0.001600010523958688,
                            0.0067131314138513705,
                            -0.0032271666959038116,
                            -0.002607406598975655,
                            -0.0013925226852066963,
                            9.733591397575785e-26,
                            1.6958301560211118e-25,
                            -0.002101601753248482,
                            -0.004875872669181568,
                            0.0010990357782023586,
                            0.006208172422613196,
                            0.0012482604835096385,
                            -0.004615700534812129,
                            -0.0025423022695679975,
                            -5.048640501060619e-07,
                            -0.0016923469785720482,
                            0.009339831864213185,
                            -1.1679573317518073e-26,
                            -0.006119141003172238,
                            0.006581623376031933,
                            0.0006356446436002392,
                            -0.0009334686053641114,
                            -0.0032468673257722916,
                            -0.00021737518293879417,
                            -0.0014202334540534065,
                            0.0021291601864079058,
                            -0.007766564231807327,
                            0.0004682901187418265,
                            0.0010264849679051146,
                            0.0049083654600916606,
                            -0.0006007488670626367,
                            0.0020750433394119408,
                            0.00038812011186053927,
                            0.0024040426525338567,
                            1.308050881569573e-24,
                            -0.00513160465001109,
                            0.0010882267923993576,
                            -0.0034603952067688583,
                            -1.5374510882260684e-24,
                            -1.313198731909874e-24,
                            -0.0009401050397090917,
                            0.0012900514867757438
                        ],
                        [
                            0.000379963642218385,
                            0.0010552064922392267,
                            0.001941317309739828,
                            -0.0019755748978855982,
                            0.012954816364086824,
                            -0.0038090968163129006,
                            -0.0015347385931220024,
                            -5.047321070855202e-22,
                            0.0012680165669165825,
                            0.006366302307287694,
                            -0.0031466712855089136,
                            -0.0024298786953631324,
                            -0.0017819957267316295,
                            5.159688052313911e-25,
                            -2.2476600025312334e-25,
                            -0.0010108962109429572,
                            -0.004418289357978456,
                            0.000611786541878015,
                            0.005420151268289955,
                            0.0015710928297290015,
                            -0.0036812910858364553,
                            -0.0024773209127864288,
                            0.0001778706385334998,
                            -0.0016641211704863262,
                            0.008664797133284302,
                            -4.9614586487017677e-26,
                            -0.007848075997443896,
                            0.005910333015210099,
                            0.0008339677052221307,
                            -0.0008470237262991572,
                            -0.0031577902301200976,
                            -0.0003892201125413332,
                            -0.0013154239834731328,
                            0.002107853238198146,
                            -0.008555136083134794,
                            0.0007654876454145446,
                            4.754523376379682e-05,
                            0.004366403205030503,
                            -0.0005805107048056767,
                            0.0022875982848950763,
                            0.0012171379722260467,
                            0.0015818907945904857,
                            -7.012961883759043e-25,
                            -0.004883519221738787,
                            0.0017121241879966963,
                            -0.0032584894176759457,
                            -9.617409217251583e-25,
                            -1.0013043934287451e-26,
                            0.000875936608104245,
                            0.001306080058172069
                        ],
                        [
                            6.058447487562492e-05,
                            0.0012314721247569291,
                            0.0011368576738702433,
                            -0.0011827968498144105,
                            0.011818546911024535,
                            -0.0036090233486910824,
                            -0.001055066099747619,
                            2.0603053836168893e-23,
                            0.001559856584008002,
                            0.005978787106136775,
                            -0.00270459894808532,
                            -0.00242666346774394,
                            -0.0015694894233313577,
                            8.544862481482759e-25,
                            -5.490538962663684e-25,
                            -0.0006663391031886861,
                            -0.003968885450883546,
                            0.000790901971757405,
                            0.0049206758709207385,
                            0.0015264475641335218,
                            -0.0032251301304029806,
                            -0.0021402739139379234,
                            0.00023004649219071212,
                            -0.0010868278074070425,
                            0.007258693645998192,
                            -3.9339029249312324e-25,
                            -0.008039810694044351,
                            0.005650639556820048,
                            0.0007635367454302436,
                            -0.0009917926824824141,
                            -0.001970280278239976,
                            -0.0009551394386329746,
                            -0.0012357896921100149,
                            0.0019595555706464957,
                            -0.008207563493205287,
                            0.0006318772574533507,
                            -0.00030582711657824526,
                            0.004372264580873849,
                            -3.989226229702186e-05,
                            0.001904690568246058,
                            0.000708031946105084,
                            0.0009437377492524321,
                            2.310738602188806e-25,
                            -0.004509192181436723,
                            0.0003044443998837306,
                            -0.00418084632159596,
                            2.2723765411609014e-26,
                            -3.919465120366434e-25,
                            -0.0009205597356614444,
                            0.0010212804416693771
                        ],
                        [
                            -3.8126280839152986e-05,
                            0.0013912551142405156,
                            0.0003044059409148416,
                            -0.0006117520562750171,
                            0.010200204330420865,
                            -0.002780067011697081,
                            -0.0008842516941518809,
                            9.59658409374307e-22,
                            0.0013915320041630983,
                            0.0049666606506148046,
                            -0.0023042241510265165,
                            -0.002045485666439318,
                            -0.0018669168768459695,
                            -1.2277853673099277e-25,
                            3.327500820181092e-26,
                            -1.9414191186987886e-05,
                            -0.0036280558305485143,
                            0.0011589420673975457,
                            0.004258342889835884,
                            0.0017525970488340525,
                            -0.002271974888043408,
                            -0.002203061386556195,
                            0.00022057357577536554,
                            -0.0003925691940310352,
                            0.005445797464477671,
                            4.308683511808325e-25,
                            -0.008103108975066352,
                            0.004708880003157892,
                            0.0006990529924172865,
                            -0.0010086481699394566,
                            -0.002236490759033739,
                            -0.0011133464929661992,
                            -0.00140884429615299,
                            0.0019354033764730375,
                            -0.008272891564976929,
                            0.0005981019839668124,
                            -0.0008908314438906231,
                            0.003658480469569895,
                            0.0006563473630305293,
                            0.0020100174701228237,
                            0.0015104052141340703,
                            0.00020530091550701,
                            1.5336971411742954e-24,
                            -0.004031810945103721,
                            0.0020182696529470463,
                            -0.0034994787454261317,
                            -1.5342343303482465e-25,
                            1.2968149593015637e-24,
                            3.065802980926144e-05,
                            0.001155799065057615
                        ],
                        [
                            0.0006741474178124563,
                            0.0004758377950757932,
                            0.0008262934944424378,
                            -0.0003012522628912936,
                            0.009172019945613612,
                            -0.0015875357533616885,
                            -0.001190526835967147,
                            -8.394663338582971e-23,
                            0.0007902057713287084,
                            0.0033272389810287202,
                            -0.0016155466728605611,
                            -0.0015195995453657625,
                            -0.0021898490159312717,
                            -4.470819554917138e-25,
                            8.7079241253021e-25,
                            0.000984100479426807,
                            -0.002726133516450284,
                            0.00035611277986062726,
                            0.0034802737272653745,
                            0.0016559035630960763,
                            -0.0008965078522550182,
                            -0.0022581451880143064,
                            0.0002266507380107384,
                            4.234819331348414e-05,
                            0.0038115160219908484,
                            8.092770859231979e-26,
                            -0.006456502062062932,
                            0.003092326068253953,
                            0.000771264944149487,
                            -0.00038222109875176336,
                            -0.0026003052180406934,
                            -0.00018865959342951604,
                            -0.0013182148393877187,
                            0.001314362009049884,
                            -0.006488738263740064,
                            0.0004108926573233713,
                            -0.0018127370351632012,
                            0.0021943204096626307,
                            0.000517730394119032,
                            0.0023136321980989655,
                            0.002177697029499574,
                            -0.0006073552734335284,
                            1.7760801635366432e-25,
                            -0.0027340963243941458,
                            0.0033062659671191253,
                            -0.0018032042745430266,
                            -1.6022974624463798e-24,
                            5.789936641943616e-25,
                            -0.00034728848876862503,
                            0.0012113840879849217
                        ],
                        [
                            0.0008136430580622128,
                            5.251362756389773e-05,
                            0.00047136198019363915,
                            0.0021073188708121094,
                            0.007395433243157802,
                            -0.0011452972211080442,
                            -0.0005720284331588061,
                            -1.2481593187590252e-22,
                            0.0011647602052651206,
                            0.001462411165136312,
                            -0.0005721675310902922,
                            -0.001370452255689446,
                            -0.002925726220105718,
                            -2.141938007420791e-25,
                            -4.43664356612486e-25,
                            0.0023160979676674948,
                            -0.002126806148468581,
                            0.0006019526085141552,
                            0.0030494078551789048,
                            0.002495958674528637,
                            0.001234410438450539,
                            -0.002893396281132441,
                            0.00022840671728786556,
                            0.0008164423961959424,
                            1.5127723684745138e-05,
                            -6.715345948961545e-25,
                            -0.004983300582712835,
                            0.0009888124620690462,
                            0.0008348899747459672,
                            -0.00018593899380924052,
                            -0.0027646496718682283,
                            -0.0006413975233061676,
                            -0.0021327683551939144,
                            0.001387165716773121,
                            -0.005192608161432778,
                            0.00043362810065186806,
                            -0.0035616130630166743,
                            0.0009450683137389016,
                            0.0006137557924745646,
                            0.001882717195699524,
                            0.0036970109624802332,
                            -0.003055165645054636,
                            -5.338744006160076e-25,
                            -0.0014321198486370087,
                            0.005499535775826625,
                            -0.001981891994844661,
                            4.5170702901203185e-25,
                            -5.88615530424555e-25,
                            0.0015557671456810892,
                            0.0009058517108054037
                        ],
                        [
                            0.0014970142291258824,
                            -0.0008291242132791677,
                            0.000456103103125011,
                            0.003091320571406537,
                            0.005460842138486564,
                            -0.00047049219110582315,
                            -0.0006132858793854537,
                            -2.4050269080126726e-21,
                            0.0008658438316002953,
                            -0.0004397154052956213,
                            0.0004303988627038621,
                            -0.0009033257537768242,
                            -0.003646948508754871,
                            -6.559460095444237e-25,
                            1.6046683463444584e-24,
                            0.003966856941792137,
                            -0.0014583993891276099,
                            0.0006390184322035753,
                            0.002191453363485553,
                            0.0028319156088095925,
                            0.0033297512172879057,
                            -0.003424086821520687,
                            -2.968816225190465e-05,
                            0.0012119711241935388,
                            -0.002755090004209382,
                            -7.2893143480494475e-25,
                            -0.004033432400533937,
                            -0.0009558304955527158,
                            0.0006754042376036087,
                            0.0003642989549586962,
                            -0.004397068947487254,
                            -7.010939691583337e-05,
                            -0.002490876184252131,
                            0.0012367980487331591,
                            -0.0035888918575049853,
                            0.0004082828515630544,
                            -0.005280924608794307,
                            -0.0006863300682518398,
                            -0.00030924166961366094,
                            0.0019266690315591268,
                            0.004422461682383604,
                            -0.004736317185332248,
                            -6.559193181604955e-25,
                            -0.0003377355439119153,
                            0.00785491553862366,
                            -2.9532173065150834e-05,
                            -1.1411885959290972e-24,
                            1.1457096338722493e-24,
                            0.0019726731975069326,
                            0.000425341637030912
                        ],
                        [
                            0.0017792510266498628,
                            -0.0008968099653002415,
                            -0.0017882227745670278,
                            0.005137133907009718,
                            0.005373088536386839,
                            0.00046391841252587865,
                            -0.0005138148413908829,
                            5.202369455410723e-22,
                            0.00035360435827888116,
                            -0.002206145452089351,
                            0.0012213303544740817,
                            -0.0005785768149418562,
                            -0.004610895323502748,
                            -2.4138341945352986e-25,
                            -1.9041979563017203e-25,
                            0.006822533015498835,
                            -0.00016766252804103118,
                            -0.00015875728736010146,
                            0.0018457571714300116,
                            0.0038905481690610687,
                            0.006200932315413785,
                            -0.003518561715566036,
                            0.0001115414530893384,
                            0.001899959999593975,
                            -0.007037103372034547,
                            -2.543494194698459e-25,
                            -0.0030475868695554204,
                            -0.0032138484947693727,
                            0.0006909159043052308,
                            0.0007009140028303548,
                            -0.0034712779141131264,
                            0.0004627167206428947,
                            -0.0028436480003821854,
                            0.0013781884362161758,
                            -0.0032443784376834156,
                            0.000327384773304561,
                            -0.00776291543514933,
                            -0.0022490957084553313,
                            8.444193411484151e-05,
                            0.0020063688227679416,
                            0.004846330293186737,
                            -0.0075560945540378965,
                            1.6255317030421553e-24,
                            0.000569708330066962,
                            0.008690237510622001,
                            0.00013748466296629119,
                            5.159019616050996e-25,
                            3.4722761031249106e-25,
                            0.001039044583491369,
                            -0.0001316674601302358
                        ],
                        [
                            0.00195181704474034,
                            -0.0010479446007783514,
                            -0.0012680583903195344,
                            0.00680212628017852,
                            0.002702364431463579,
                            0.0008524273773431892,
                            -0.00018276907066609716,
                            -6.510307883804438e-22,
                            4.9612566475211125e-05,
                            -0.003998488200683481,
                            0.001920592304149558,
                            -0.00020067551275616507,
                            -0.00519448118590833,
                            3.116929667674774e-25,
                            -5.835241096194769e-26,
                            0.00893651074839539,
                            0.0006715021443193844,
                            0.00041897052653856943,
                            0.001400668345038264,
                            0.004493884668843117,
                            0.008497903382570761,
                            -0.0036218259084285715,
                            -9.935088240435332e-05,
                            0.00274984959249181,
                            -0.009788557137562822,
                            1.9307289889137244e-24,
                            -0.0021864475661126453,
                            -0.004990048775923352,
                            0.0007611707860413507,
                            0.0009485803583393225,
                            -0.004322997862191542,
                            0.0007080605536130526,
                            -0.003245789937216802,
                            0.0013097804521715914,
                            -0.0020896792960447053,
                            0.0003741264840668667,
                            -0.009850169669225927,
                            -0.0035996141934948574,
                            0.00012591156615634564,
                            0.0018825966902036096,
                            0.004511151120322762,
                            -0.009876344964888898,
                            -5.475571900982788e-25,
                            0.0015781043897868151,
                            0.009815949571995107,
                            0.0005725960277498364,
                            1.1141760854064783e-24,
                            -1.1244990794581824e-24,
                            0.0006679908411450281,
                            -0.0005438180485915105
                        ],
                        [
                            0.0017744482573483463,
                            -0.0009653820758335246,
                            -0.0026146176841350837,
                            0.007893018414364638,
                            -0.00024358125838018854,
                            0.0008670454900447163,
                            0.00020977776383593257,
                            4.704047511812792e-24,
                            0.0006765943236269158,
                            -0.004746306761908845,
                            0.001988560086658109,
                            -0.0007474778527301155,
                            -0.0057792378077653325,
                            1.7861215760761853e-25,
                            -3.7698496250083375e-25,
                            0.009814751850762242,
                            0.0003663521996041415,
                            0.0006722274106171064,
                            0.0015765481423937382,
                            0.0050898047290498915,
                            0.0096732000406702,
                            -0.004601173918553857,
                            -2.0090987827170464e-05,
                            0.0027496624850254,
                            -0.00999902881516234,
                            3.3540103532631257e-26,
                            -0.0023274631737359047,
                            -0.005908608543178559,
                            0.0007284302118334466,
                            0.0005608238689439682,
                            -0.005124916176343963,
                            5.790377345758308e-05,
                            -0.004011657042978566,
                            0.0018041487803366315,
                            -0.002369208681766462,
                            0.00024681034101848285,
                            -0.010976877698766346,
                            -0.004103586608502784,
                            -0.00023402543260931215,
                            0.0011805219248903487,
                            0.006122442880885719,
                            -0.011230294986821317,
                            5.834104124821808e-25,
                            0.0019677970433638705,
                            0.011421028308382406,
                            0.0014781768738508635,
                            9.007490602291728e-25,
                            -5.8911165110186e-25,
                            0.00025915074793358414,
                            -0.0007956771309494209
                        ],
                        [
                            0.002464089532416859,
                            -0.0015523079016613642,
                            -0.00392272179732995,
                            0.009045320375852144,
                            -0.002111162062255391,
                            0.0008658223171091059,
                            -9.769520972367475e-05,
                            -2.5956598526018517e-21,
                            0.0005927401219217694,
                            -0.005646635199701908,
                            0.002326121388090248,
                            -0.0007962478664250948,
                            -0.007161765049457852,
                            -4.0747753310418857e-25,
                            -4.905905270066652e-25,
                            0.01218468655002181,
                            0.00039000648127227803,
                            8.700354669792431e-05,
                            0.0014851423128459055,
                            0.006105010854532323,
                            0.011765827000219907,
                            -0.005654629933918084,
                            -0.00017062557637369157,
                            0.0031961091504963653,
                            -0.009834127062953644,
                            -9.066778898777817e-25,
                            -0.0019400441577996398,
                            -0.0071506613626207485,
                            0.0006659547672011182,
                            0.0010182750792829308,
                            -0.004788226658595157,
                            0.0009113780755641474,
                            -0.004552559341856296,
                            0.001927145163520744,
                            -0.0012050027452071943,
                            0.00017069567316459878,
                            -0.013464224556502029,
                            -0.005182170522541195,
                            -6.795715350821178e-05,
                            0.0014976538837076835,
                            0.006928284763483184,
                            -0.013543251006748053,
                            -1.0199126515107806e-24,
                            0.0025787416884987474,
                            0.01332531378475986,
                            0.002200084444052069,
                            5.683911704532531e-25,
                            7.65213118103613e-25,
                            0.0005293760141344519,
                            -0.0009812630614494404
                        ],
                        [
                            0.0025599706319122785,
                            -0.0014193605683288533,
                            -0.003931873197609535,
                            0.01002150820923042,
                            -0.002790093145196722,
                            0.0005517359103677053,
                            1.1812094064937793e-05,
                            2.0932428729315274e-22,
                            0.0008024737920196516,
                            -0.005909322432946594,
                            0.00245687434359786,
                            -0.0009772884056255214,
                            -0.007600224687441487,
                            -1.8213421847636594e-24,
                            1.671264726457108e-24,
                            0.013001778681477656,
                            0.0004970923350134165,
                            -0.0004959620047157813,
                            0.0009310719447175623,
                            0.006724349436064161,
                            0.01239162881238135,
                            -0.00588738418251988,
                            -0.0002596931729933966,
                            0.0037128255471845432,
                            -0.010428709962538706,
                            1.9950864202775558e-24,
                            -0.0015435974290045789,
                            -0.007385323081069834,
                            0.000934237110567718,
                            0.0010843388843465483,
                            -0.006060989498419734,
                            0.0010602407066598305,
                            -0.00493322181925167,
                            0.0019576579310634367,
                            -0.00018026802947503876,
                            0.0002139811041099475,
                            -0.014365951857205876,
                            -0.005172288123384158,
                            -0.0002096975821266114,
                            0.00131376998428236,
                            0.00760090227065466,
                            -0.014641297231688416,
                            -1.4404363856328518e-24,
                            0.0027553423929179183,
                            0.01413930820135698,
                            0.0028540738728163578,
                            -5.205105539677066e-25,
                            7.264951992186181e-25,
                            0.0007947049759461991,
                            -0.0011469411516235022
                        ],
                        [
                            0.002237600687905962,
                            -0.0009046811719462036,
                            -0.0028254368277819955,
                            0.008354744862159173,
                            -0.0001580134279876923,
                            0.001030797634787455,
                            -0.00044337787853673046,
                            -6.96583941081539e-22,
                            8.736567874772938e-05,
                            -0.00529722969572139,
                            0.0019052208235083895,
                            -0.0008759367594013347,
                            -0.007220095230307264,
                            2.7467527661839554e-25,
                            -9.332223353588664e-25,
                            0.012378143795243463,
                            0.0006350014080283049,
                            -0.0006891569266164719,
                            0.0013679180236164227,
                            0.006051274992580265,
                            0.011483430275667734,
                            -0.005116693620460596,
                            -0.00010816310152328126,
                            0.0032355047978510397,
                            -0.00782505096039148,
                            2.6058733453296358e-25,
                            -0.0026208219576124834,
                            -0.006839631656051595,
                            0.0009619943879335549,
                            0.0009952641232554233,
                            -0.005024675221086146,
                            0.0016589081894326542,
                            -0.004222411907846735,
                            0.0017098238969705105,
                            -0.0005695110757781113,
                            0.0002786959271101638,
                            -0.013354151244456323,
                            -0.005193720211571654,
                            -0.000501548061143442,
